encog,BasicNetwork,java,3.4.0,1,1588522202861
[BASIC]
[BASIC:PARAMS]
[BASIC:NETWORK]
beginTraining=0
connectionLimit=0
contextTargetOffset=0,0,0
contextTargetSize=0,0,0
endTraining=2
hasContext=f
inputCount=16
layerCounts=235,2,17
layerFeedCounts=235,1,16
layerContextCount=0,0,0
layerIndex=0,235,237
output=0.0000000027,0.0000000008,0.0000000008,0.0000000031,0.0000000021,0.0000000014,0.000000001,0.0000000029,0.0000000008,0.0000000018,0.0000000015,0.0000000007,0.0000000017,0.0000000009,0.0000000006,0.0000000006,0.0000000027,0.0000000009,0.0000000008,0.0000000017,0.0000000013,0.0000000016,0.0000000007,0.0000000022,0.0000000006,0.0000000029,0.0000000007,0.000000003,0.0000000029,0.0000000006,0.0000000008,0.0000000009,0.0000000007,0.0000000007,0.0000000009,0.000000001,0.0000000007,0.0000000026,0.0000000006,0.0000000029,0.0000000008,0.0000000006,0.0000000014,0.0000000007,0.0000000009,0.0000000006,0.0000000019,0.0000000031,0.0000000027,0.000000001,0.0000000009,0.0000000013,0.0000000014,0.0000000015,0.000000001,0.0000000016,0.0000000007,0.0000000009,0.0000000008,0.0000000015,0.0000000006,0.0000000006,0.0000000008,0.0000000028,0.0000000006,0.0000000027,0.000000002,0.000000001,0.0000000009,0.0000000009,0.0000000007,0.0000000008,0.0000000007,0.0000000013,0.0000000026,0.0000000008,0.4041833888,0.0000000007,0.0000000022,0.0000000007,0.000000001,0.0000000009,0.0000000007,0.0000000009,0.0000000007,0.0000000009,0.000000001,0.0000000009,0.0000000014,0.0000000007,0.0000000009,0.0000000026,0.0000000007,0.0000000008,0.0000000011,0.0000000009,0.0000000006,0.0000000015,0.0000000007,0.0000000023,0.0000000012,0.0000000014,0.000000001,0.000000001,0.0000000009,0.0000000008,0.0000000007,0.0000000014,0.0000000021,0.0000000021,0.0000000027,0.0000000018,0.0000000015,0.0000000016,0.0000000006,0.0000000011,0.0000000013,0.0000000014,0.0000000008,0.0000000007,0.0000000007,0.0000000009,0.0000000028,0.0000000011,0.0000000007,0.0000000009,0.0000000006,0.0000000015,0.0000000009,0.0000000007,0.0000000007,0.0000000008,0.0000000026,0.0000000006,0.0000000007,0.0000000008,0.000000001,0.0000000016,0.0000000007,0.000000001,0.0000000007,0.000000002,0.0000000008,0.0000000007,0.0000000008,0.0000000007,0.0000000006,0.0000000014,0.0000000006,0.0000000006,0.0000000008,0.0000000018,0.0000000009,0.0000000007,0.0000000009,0.0000000007,0.0000000007,0.0000000006,0.0000000007,0.0000000023,0.0000000007,0.0000000017,0.0000000008,0.0000000014,0.000000001,0.0000000007,0.0000000026,0.0000000021,0.0000000007,0.5340997825,0.0000000007,0.0000000012,0.0000000018,0.0000000027,0.0000000021,0.0000000023,0.0000000006,0.0000000008,0.0000000007,0.0000000006,0.0000000008,0.0000000022,0.5759757017,0.0000000006,0.0000000028,0.000000001,0.0000000009,0.0000000012,0.000000001,0.0000000023,0.0000000007,0.0000000008,0.0000000011,0.0000000007,0.0000000007,0.0000000009,0.0000000006,0.0000000009,0.0000000009,0.0000000007,0.0000000018,0.0000000009,0.6781580986,0.000000001,0.0000000013,0.0000000009,0.0000000007,0.0000000029,0.0000000008,0.0000000007,0.0000000013,0.0000000022,0.0000000008,0.0000000026,0.000000001,0.0000000009,0.0000000023,0.0000000008,0.0000000007,0.0000000007,0.0000000007,0.000000003,0.0000000007,0.0000000028,0.0000000009,0.0000000014,0.0000000009,0.0000000021,0.0000000011,0.0000000006,0.0000000007,0.0000000007,0.0000000008,0.0000000009,0.9999999991,0.3045517959,1,0.9858928239,0.9887698922,0.9649151164,0.9602003207,0.9836066045,0.9744194362,0.9722253265,0.96073113,1,0.9739181877,0.9566861344,-0.8775087057,0.9885954039,0.9595065903,0.9620392722,0.9840932256,1
outputCount=235
weightIndex=0,470,487
weights=-15.8616853178,-14.8899101375,-14.0098586525,-16.6551550407,-15.037565931,-16.4301731668,-15.1345557197,-14.9899335022,-14.8567245631,-15.444531443,-14.8416484814,-15.8870692663,-15.8921285569,-15.8401291548,-15.0767683935,-15.0554719998,-14.3321382089,-16.5510998907,-15.7523802063,-15.3562896192,-15.6929682925,-15.5239064628,-17.2608455199,-15.8731299283,-14.4108192887,-15.7908967466,-15.2412366081,-16.1506058979,-14.1722773858,-16.8740171102,-17.119438693,-15.9740565181,-15.5646753484,-14.9923117044,-14.1671744358,-16.5578910922,-15.5856215476,-16.1444548573,-14.8354725677,-15.6917902724,-15.8249646214,-15.6087502914,-15.069031884,-15.6796860573,-16.2657061496,-16.1438955309,-15.8629846076,-15.1138534237,-17.1159060003,-15.9545688937,-15.2807266936,-14.9933708874,-16.1357663885,-16.1417012701,-15.8280761919,-14.8041663171,-15.780746648,-14.8537555043,-16.0222962593,-16.347377428,-15.9505499638,-16.0597542228,-16.1376231118,-15.8790874772,-15.9872696827,-16.2030636877,-17.114533934,-15.8389772648,-15.8527572317,-15.9675434305,-16.0564432035,-15.7876232111,-15.807165455,-16.2313365052,-14.4648299813,-15.3803946621,-14.532730146,-16.7622458415,-15.5468711183,-14.9115407943,-16.3128425929,-16.0067451481,-14.4025289356,-16.7869125036,-15.1276851012,-15.8037990662,-14.8660700956,-16.6184899445,-16.8415383717,-15.7155797969,-14.2107687496,-16.9285401386,-14.5326252269,-15.65789382,-15.2849714914,-14.9308378871,-15.3615257407,-15.0433074376,-16.5107401697,-15.683451622,-17.0252011174,-15.640400829,-15.7120749957,-15.7074720086,-15.2386032094,-15.7496298083,-14.4517467441,-15.8928075058,-15.5653796144,-16.0134589225,-15.8748951557,-15.4390021753,-17.4539887428,-15.7146595992,-15.4756715354,-16.0745092548,-16.936630486,-15.8177899324,-14.6434555921,-15.8599145482,-15.0386744432,-16.6281208069,-14.0268656952,-16.9440719877,-16.0805111645,-16.05439328,-14.2827815222,-15.3382837545,-14.6095476805,-16.7370431782,-14.4678804281,-15.3393664941,-15.8098797085,-15.2082391455,-15.217890444,-16.0828489515,-16.0685462751,-15.9652309934,-14.3467582216,-16.4293769949,-15.6018168065,-16.3059598338,-15.0771451067,-16.3406817409,-15.734538885,-16.313968725,-15.148242008,-15.8176622753,-13.9319434022,-15.5129335797,-15.8711383022,-16.1384229123,-0.3039495722,-0.2954958245,-15.8188374766,-16.1967651857,-14.9968883285,-15.3659474498,-17.2530207754,-15.8383801004,-15.1190080107,-16.1372514919,-14.3878016714,-16.4166250692,-16.4486382386,-16.1100088911,-15.5455504776,-16.0411997803,-15.6264729199,-16.2744530939,-15.1484869578,-16.1641123856,-15.5765808616,-15.9662121646,-16.4451489189,-15.8754755477,-15.5813167259,-15.6723010163,-14.0875813165,-16.774231425,-16.1049001493,-15.9289760646,-14.2903940598,-15.409135967,-15.9930626085,-16.206462066,-16.0059696969,-16.0620952176,-15.8469409469,-15.8387159208,-14.336529438,-16.5162531479,-15.6863025478,-16.4993537067,-15.2667026151,-15.6369109663,-17.3132253381,-15.7409139494,-14.9931872271,-15.3121388023,-15.3546214496,-15.8922800945,-15.21346477,-15.7494737321,-16.8960013697,-15.5925651862,-16.722412837,-15.6692553748,-15.7763125632,-16.0190816109,-15.6322978636,-16.1655587766,-14.4143239563,-16.7475672363,-15.7073168809,-15.5841663077,-15.7292330681,-15.2048992421,-14.3946879622,-15.6178711248,-15.1497661344,-15.121618706,-14.6525516545,-15.6582829839,-15.8576611476,-15.4608625984,-15.1668015658,-15.6159907887,-15.5651878459,-16.4430105879,-16.3515331966,-15.6726885746,-16.0852434287,-15.5498930718,-15.0185200955,-15.8317146094,-15.6137924332,-16.1336645229,-16.8742874418,-15.9347904427,-15.1625023296,-16.4437568945,-14.5237476887,-16.4319847913,-14.6963757732,-15.2008174143,-15.7103985804,-15.834699598,-15.8328854974,-16.1969782445,-16.885439517,-15.6635222532,-15.9833423381,-16.4161014559,-15.7935166922,-15.4816025021,-16.7341620551,-15.788907605,-14.7710743965,-16.5523911033,-16.409228858,-16.1563591516,-16.7902724999,-15.8320449308,-15.2307046426,-15.1466759257,-16.4393489648,-16.1937808467,-15.7511326456,-16.3503000003,-17.500212239,-15.6039382174,-14.9691610947,-16.1914158763,-15.0022937189,-15.6734922788,-14.8749140896,-16.4929588046,-16.9997446812,-15.5806310707,-16.0612284166,-16.203704034,-14.6058230809,-15.6035502397,-15.6230553373,-16.1343914811,-17.4043988458,-15.7113637207,-15.5550944668,-16.1755651141,-17.3666147329,-15.7504065344,-16.2175070603,-16.253808501,-15.8068698956,-15.567425314,-15.3144230471,-16.528964525,-14.76076211,-16.6928737448,-16.3579644709,-15.9464551507,-14.0349471658,-15.850213506,-17.0048882638,-15.596718523,-15.6113841565,-16.3637443466,-15.7786448625,-16.0486854193,-14.662306701,-16.5692736399,-16.6322183855,-15.9943684057,-15.6645900006,-16.5163178127,-16.6403184546,-16.0063402354,-14.6698750106,-15.4247681717,-15.8894138085,-16.2754009721,-15.5836061971,-15.4477672461,-16.5944215235,-15.932844537,-14.9513665104,-15.8260831344,-16.3610255666,-15.6964550814,-14.9914254907,-16.4525963092,-14.7378295681,-15.294890111,-14.2858323768,-15.6113494799,-14.9918138683,-16.4548137381,0.6426033046,-0.0590947958,-16.6175256307,-15.9633023474,-16.1158561306,-15.6121882196,-14.8074943402,-15.6150484292,-14.7934603705,-15.2362546474,-14.2960199977,-15.6143847753,-15.6987911174,-15.096531964,-16.5562217326,-16.1815535053,-14.0383069735,-16.6643015769,-15.8568768693,-16.2527876965,-16.3407791444,-16.1797650106,-14.1953312738,-16.6084247996,-14.1116155026,-15.6567004963,0.7614943859,0.0743602317,-15.7900386512,-16.3943042697,-15.5133697835,-14.9618703239,-16.4256418511,-15.6841696772,-14.9569441499,-16.2814319083,-15.6657847015,-15.7539449894,-16.9821643873,-15.597280837,-14.9762160654,-15.3488189771,-15.6329786811,-16.3271608535,-16.2789402931,-15.9451145763,-16.2955075501,-15.6234175159,-17.2099899965,-15.8918696964,-15.023712063,-16.5609058863,-14.5758254713,-16.3930716143,-16.2569868589,-16.3123279393,-14.8440208859,-16.2802156619,-15.6711102785,-16.0697146814,-16.1323227505,-16.1284166222,-14.9073017025,-15.5687152899,-15.1212280177,-16.2441613507,-0.6022700089,0.928742422,-15.8527530001,-15.9396392601,-16.0916769353,-15.5741747526,-14.7642998906,-16.3764178184,-15.811781302,-16.2154841722,-14.7414514722,-15.1741022438,-15.8854641489,-16.1278319375,-15.556104879,-16.3021350521,-15.5863400562,-15.747348734,-14.5424476771,-15.4836617912,-15.5108025239,-16.1978216365,-15.65667651,-15.0095917174,-15.3636965036,-16.0547146504,-16.6053962004,-15.804787147,-14.5783467442,-15.4559663545,-16.8925995575,-15.861567862,-16.2742099438,-16.1604405788,-16.3367845196,-16.0793138836,-16.8263219692,-15.9498901164,-15.2989267074,-14.9755050732,-15.7028571863,-16.3512878308,-14.1361645494,-15.3846370023,-15.9893696332,-15.9104237724,-15.6446405781,-15.6424557231,-16.4453407458,-15.7950977234,-14.4293292203,-15.6033551044,-16.0867964429,-15.7618186294,-16.0937671158,-16.2674553698,-16.6225793272,-16.0553452124,-17.0968371545,-15.8514883769,-16.2500297243,-15.9458419262,-16.6648685482,-15.7019228454,14.8555730713,16.2826810313,-0.1202646531,0.0106292583,-0.2016052978,0.2545247373,-0.6257760183,-0.1228446025,0.7458394771,-0.5296828932,0.8180274652,-0.3772001963,-0.0024543662,-0.3217459115,-0.2765858056,-0.1654356247,-0.0611502366,0.4409350432,-0.9221178659
biasActivation=0,1,1
[BASIC:ACTIVATION]
"org.encog.engine.network.activation.ActivationSigmoid"
"org.encog.engine.network.activation.ActivationSigmoid"
"org.encog.engine.network.activation.ActivationLinear"
