encog,BasicNetwork,java,3.4.0,1,1589307296488
[BASIC]
[BASIC:PARAMS]
[BASIC:NETWORK]
beginTraining=0
connectionLimit=0
contextTargetOffset=0,0,0
contextTargetSize=0,0,0
endTraining=2
hasContext=f
inputCount=96
layerCounts=235,193,97
layerFeedCounts=235,192,96
layerContextCount=0,0,0
layerIndex=0,235,428
output=0,0,0,0,0,0,0,0,0,0,0,0,0,0,0,0,0,0,0,0,0,0,0,0,0,0,0,0,0,0,0,0,0,0,0,0,0,0,0,0,0,0,0,0,0,0,0,0,0,0,0,0,0,0,0,0,0,0,0,0,0,0,0,0,0,0,0,0,0,0,0,0,0,0,0,0,0,0,0,0,0,0,0,0,0,0,0,0,0,0,0,0,0,0,0,0,0,0,0,0,0,0,0,0,0,0,0,0,0,0,0,0,0,0,0,0,0,0,0,0,0,0,0,0,0,0,0,0,0,0,0,0,0,0,0,0,0,0,0,0,0,0,0,0,0,0,0,0,0,0,0,0,0,0,0,0,0,0,0,0,0,0,0,0,0,0,0,0,0,0,0,0,0,0,0,0,0,0,0,0,0,0,0,0,0,0,0,0,0,0,0,0,0,0,0,0,0,0,0,0,0,0,0,0,0,0,0,0,0,0,0,0,0,0,0,0,0,0,0,0,0,0,0,0,0,0,0,0,0,0,0,0,0,0,0,0,0,0,0,0,0,0,0,0,0,0,0,0,0,0,0,0,0,0,0,0,0,0,0,0,0,0,0,0,0,0,0,0,0,0,0,0,0,0,0,0,0,0,0,0,0,0,0,0,0,0,0,0,0,0,0,0,0,0,0,0,0,0,0,0,0,0,0,0,0,0,0,0,0,0,0,0,0,0,0,0,0,0,0,0,0,0,0,0,0,0,0,0,0,0,0,0,0,0,0,0,0,0,0,0,0,0,0,0,0,0,0,0,0,0,0,0,0,0,0,0,0,0,0,0,0,0,0,0,0,0,0,0,0,0,0,0,0,0,0,0,0,0,0,0,0,0,0,0,0,0,0,0,0,0,0,0,0,0,0,0,0,0,0,0,0,0,0,0,0,0,0,0,0,0,0,0,0,0,0,0,0,0,0,0,0,0,0,0,0,0,0,1,0,0,0,0,0,0,0,0,0,0,0,0,0,0,0,0,0,0,0,0,0,0,0,0,0,0,0,0,0,0,0,0,0,0,0,0,0,0,0,0,0,0,0,0,0,0,0,0,0,0,0,0,0,0,0,0,0,0,0,0,0,0,0,0,0,0,0,0,0,0,0,0,0,0,0,0,0,0,0,0,0,0,0,0,0,0,0,0,0,0,0,0,0,0,0,0,1
outputCount=235
weightIndex=0,45355,63979
weights=##0
##double#63979
   -0.8142275593,1.0793137941,0.2170899818,-0.5585251892,-0.1947116805,-0.2834391138,-0.6245553572,-0.0792087791,-0.8908098136,-0.2428575249,1.0700252099,-0.125610533,-0.5669348614,0.3679427263,-0.278853581,0.7577780572,0.6602451474,-0.8937304449,-0.7434015316,-0.6262939397,0.373290048,0.1391219373,0.9706893471,-0.5717460457,-0.1309012756,-0.5481217386,-0.416556685,-0.7193089651,0.9442713803,0.8037996544,0.3894756914,0.9795259449,0.0091546913,-0.7948900328,-0.5034851928,0.1374659674,-0.8003868564,-0.5399324933,-0.6064458398,0.0438121997,0.7543396774,-0.1312178446,-0.4957270879,1.0426887239,0.7355324259,-0.1416913468,0.0010239154,0.3974564899,-0.5962255799,0.001680852,-0.2381823822,0.1606707644,-0.5993242838,-0.7174663575,-0.1305527985,0.2091793925,-0.7759304221,0.4761581835,0.1231035172,0.2574659449,0.7186235365,-0.8536165353,-0.8461666184,0.9256641475,0.0362725537,-0.0011849435,-0.4776723407,0.9412113141,1.0936428796,0.4378905746,-0.0791776832,-0.2541815041,-0.6922887875,0.0418402411,0.4309735091,1.0607119824,1.0269242396,-0.0978378902,-0.3158071351,0.340049563,0.9219885143,-0.5034113727,0.2368262531,-0.63088943,0.6526230421,0.9710032455,0.4307782238,0.0185285395,0.3466837707,0.8449249554,0.4743175823,0.0096608516,-0.4006764866,-0.3304116078,0.7368888264,-0.7138320885,-0.0061296319,0.8899105606,0.113881635,-0.2867062837,1.0864595911,-0.6594419987,0.423436067,-0.1001721332,0.3021137757,0.4834580968,-0.0274550699,0.7777677306,-0.6169501474,-0.3113901709,0.2495149561,0.1635373934,-0.2154696986,-0.633666994,0.8914001223,-0.0432122841,-0.1014641211,0.8223160308,0.057230058,0.6048258322,0.8141951835,0.8616108549,-0.2310686222,0.9539474578,0.3112268652,0.8257097693,-0.625199032,0.9431848544,0.2966387544,0.7800346474,-0.755614277,0.2215908646,-0.0093836492,-0.8509293697,-0.6645756602,0.5178208265,-0.4349142116,-0.2110286853,-0.0917275175,0.3085104672,-0.2048525055,1.0044583718,-0.8470087291,-0.3957065312,0.9218664128,-0.6072092264,-0.8312977152,0.489499091,-0.3638018837,-0.2625887332,0.2703289343,-0.1337078861,-0.1629306015,0.3850130401,-0.6714831696,0.1862649804,-0.0384259504,0.2468867512,0.3805795242,0.6752120963,0.0786602719,0.8478195548,-0.5144497377,0.5241120655,0.0046494809,-0.8387411805,-0.2822672198,0.5051612306,0.5516457851,0.0133419574,0.9332032674,0.2366221374,0.7811393398,0.7824951079,-0.6725549126,-0.2345126538,-0.4928949167,0.5056508379,0.7577354759,-0.6086726108,-0.6835299059,-0.909599074,1.0243315405,-0.7964860949,0.1020166836,0.3024677382,0.5157667042,0.9264017324,-0.9582378613,-0.5393894591,0.9653185451,-0.5977664448,0.9683012825,0.730284149,0.9440906187,0.454055918,-0.387890149,-0.4418718272,0.9479677753,0.4136195129,1.0598683474,0.8348316468,0.4372324651,-0.0406052366,0.5708274377,1.0751598609,0.6648535296,0.0827292558,0.318230782,-0.439823659,0.228985465,0.6391375858,-0.4727823201,1.0615658921,0.9644765909,0.1897032667,-0.5607050537,0.5534960733,-0.5134856399,0.3872783769,-0.3519914174,0.7165820105,-0.1287042588,0.9903507856,0.3428344303,-0.2889903438,-0.1117076385,0.9965396687,-0.6519285997,1.0901903482,-0.8885537163,0.3344233072,-0.837716934,-0.0084557783,0.547614827,-0.2840912047,-0.1678018031,0.8158463318,-0.1488741062,0.2450062586,0.6023467766,-0.4794682152,-0.1660571043,0.9643197945,0.3916579578,0.5104584401,-0.4669260828,-0.813215708,0.7459321339,0.7722356436,-0.6697363147,0.3715559491,1.0473441399,0.8130193814,0.4917995883,-0.55039767,-0.1826503655,0.784083014,0.434742625,-0.4196958541,0.0501180993,0.1441896605,0.326113543,-0.558012768,0.6221692186,1.0444571288,0.7312104604,0.4132734543,-0.3233545379,0.466310709,0.6268640422,0.7007226164,0.9400288508,0.0497971402,0.4229303034,0.7521068342,-0.757715787,-0.1894349149,-0.7184194361,-0.3959466406,-0.2488456534,0.7943624401,-0.1597433151,0.4113503254,-0.3832849049,0.3696192413,-0.3435088787,0.464019211,-0.0015454991,-0.2015449967,0.9952889672,0.6628022338,0.2973684847,-0.7389094821,0.765057709,1.0377241981,-0.6951537619,0.7553584559,-0.6215448111,0.9900265463,0.6524953317,0.2533014105,-0.4661747271,-0.275535168,0.1198944229,-0.0621816097,-0.4717327743,-0.8102692818,-0.6231261492,0.2426481788,-0.3795300944,0.0291232696,0.3745856883,-0.2692853181,-0.6078282891,-0.6499751959,-0.4909404623,-0.0759135767,1.0568226413,-0.1133405987,0.6800221201,0.6923193197,0.6248707072,0.4964442051,0.4677839307,0.7329957218,0.8868334384,0.2746378522,-0.1936093799,-0.8047253693,-0.6890792,-0.2526686626,-0.1859613828,0.8037046534,-0.2789068431,-0.49166796,0.6869024265,0.4246813617,-0.03662202,-0.2058822824,0.4695352915,0.8023640661,-0.7314765008,0.6160970891,-0.0302706902,-0.3470287248,-0.6786168735,0.411490266,0.6043298404,0.941994857,-0.0662968245,0.6511977464,0.5249677361,-0.0954122076,0.0602200409,-0.8210982216,-0.0928000762,-0.0497906986,-0.1105440101,0.1162014442,-0.6868386559,-0.6330014093,0.8319386355,0.705490917,0.9583750562,-0.7910000941,-0.369874083,-0.4875613714,0.1487140096,-0.7739988056,0.6480052075,0.3391044437,-0.0786266874,-0.6524568604,-0.2576254128,-0.4968075823,0.0236289673,-0.2521460836,0.2921756627,0.7067845825,0.9359069865,-0.8111383289,0.3349995306,0.6325426911,0.1111912736,0.5428305648,-0.3941042543,0.7198968493,-0.573762235,0.5742934795,-0.863323747,0.2441639013,0.9532758385,0.5062088619,0.1992470976,-0.3977240903,-0.1533118509,-0.0179643144,1.0657668941,-0.434567402,-0.1640969759,0.4081304174,-0.0927863268,-0.5972267217,-0.0357334328,-0.8176473833,-0.0262541995,-0.605203529,0.8730657822,-0.1523806352,0.4362885608,0.8401343567,-0.4726120439,-0.5801740832,-0.2130314416,-0.6421985911,0.0582290536,0.3617959218,-0.632983278,0.9756570028,0.7421743133,-0.7386913948,-0.2368513869,0.5648397035,0.107218162,-0.6020131078,0.417584332,-0.8924793461,-0.074204524,0.5829892317,-0.3930892719,0.7983920201,-0.0247691335,-0.2851539967,-0.8202945285,0.6358881597,-0.8695842197,0.320547998,0.8194226404,0.3109226586,-0.4482259126,-0.8757156489,-0.5637195183,0.0903852316,0.7079729995,-0.1451471624,0.5228320174,-0.8537515125,-0.723947913,-0.1878604518,0.4858506297,0.5141933689,0.5948083999,-0.0925748123,0.9519800185,0.300327278,-0.8097879157,-0.6222449857,-0.8725759362,0.1668983551,0.9042037689,-0.3350336489,-0.4268735412,0.9159993999,-0.5587425469,1.0742593588,0.3178106547,-0.074391488,-0.8032490424,0.7983451794,0.0637464038,-0.1240367735,-0.5023391946,0.1984879784,-0.7549951073,0.118110312,-0.7538390761,-0.1006661025,0.4793942494,0.6892524107,-0.1471218697,0.7272487253,-0.8974392192,0.7257795237,0.0048816785,0.2320959004,0.6442965616,0.1111757776,0.6923537122,0.0693929999,-0.4661165604,0.6700632649,-0.5720790328,0.4358840379,0.5776688859,-0.9314394761,-0.8420080905,-0.328453412,0.7519244946,0.523791402,-0.8448981431,0.692725782,-0.6542951008,-0.4661786354,0.4979675165,0.4122394078,-0.4600988611,0.0718856273,-0.5543721594,0.6606705598,-0.1601657923,-0.5576005208,-0.4880671956,-0.1763420862,0.1194854715,0.757135537,-0.4114591966,0.3814253703,0.3205351366,-0.4443386263,0.9574397249,-0.9450784746,-0.6349025119,0.2984801541,-0.7851544012,0.2638165733,0.2389663796,-0.4424999777,0.2837803251,0.730640591,0.4335836522,0.2252413264,-0.0361263196,-0.3077485761,0.1353880794,-0.198451065,0.2196880295,-0.6239810936,-0.064502971,0.6590914326,-0.5067379144,-0.8955749291,0.5964356958,0.0701155608,-0.1199328902,0.7572360797,0.4871611556,-0.720574049,-0.8694619965,0.9121067819,0.7333916885,-0.0647120724,0.925931039,0.3236936703,-0.4229084567,-0.9447638832,-0.5556039429,0.5664665698,0.6902690739,0.9026559264,-0.1166908579,-0.7776567421,0.3953386972,0.1960356823,-0.5595913522,-0.581929551,-0.1077010684,-0.9426692751,0.5685411175,-0.1309849838,0.9068490732,0.3593647296,0.58981886,0.4059218676,0.3408475137,-0.2760462503,-0.2500861768,-0.8384814422,0.5410558097,0.8909829983,0.296769806,0.7739329319,-0.2865718601,-0.3848584759,-0.3831583716,0.4866780053,0.2958900784,-0.1691217254,-0.1265120489,-0.7850660032,0.7885524581,0.5613356736,-0.6292387347,0.7096726278,-0.4918217242,0.5311868893,-0.8574567148,0.0326559041,-0.5551310932,0.1381257962,1.0607973847,1.0756725589,-0.4293115027,-0.0308504782,0.9977960616,-0.0000243422,-0.0351803689,0.9548493028,-0.0977075115,0.1401698603,0.3591982036,0.901844824,0.1297888817,-0.7403892919,-0.3568692299,0.2036244014,-0.2866782424,-0.8715250472,0.9798453977,-0.4257767195,-0.2605617705,-0.3134773214,-0.8365493579,-0.3205787468,-0.7210537046,0.2858891241,-0.1556157099,-0.0011441922,0.1632637035,-0.754758682,-0.0326518942,-0.5537713426,1.0499924491,-0.8707153622,0.7628693414,0.284476129,0.9798103076,-0.5821800479,-0.3276314459,0.031957864,-0.8797851452,0.4763423198,1.0747609779,-0.0174674476,-0.8803180486,-0.3932056836,0.3550155266,-0.1441614398,-0.3925905629,0.8963456982,-0.0809128081,-0.0104102364,-0.8217365449,-0.5011792614,0.5249084897,0.5062361772,-0.8769423755,1.0188916206,-0.8796320299,-0.8351009166,-0.4967723593,-0.5159429,-0.4076613787,-0.0004043012,0.7309297663,-0.6217313899,0.1006874974,0.250222505,-0.2710244145,0.9166587359,0.9698740857,0.4176230119,-0.5034026788,-0.2997599201,-0.4908005639,-0.1412996203,0.0842263076,0.0060750214,0.4941073628,-0.8266144059,-0.7199056713,0.3886445763,1.0613865518,0.0369258715,0.069277155,-0.8846557148,-0.3531141577,0.3368015107,-0.7326156701,-0.0459842389,-0.2314166034,-0.4654255463,-0.4480763179,0.4983152545,-0.3858049897,0.7161570998,-0.3162018591,0.3834916242,-0.2170366558,-0.0488411666,0.1863939414,-0.9549195424,-0.8614786669,-0.1158943066,-0.4831169572,0.7734550797,-0.126868348,0.9107244365,-0.0744377018,0.88067822,-0.785851671,0.0051921271,0.4451442142,-0.7265993153,0.2084738385,-0.5227666707,0.3300444029,-0.6854552038,-0.1791678819,0.3039625417,-0.7683841273,0.9370102143,1.0285726836,-0.4331044574,0.6343483751,0.997133565,-0.1257836141,0.7452269589,0.2794279764,-0.0225721247,0.4958490451,0.6951780121,-0.3499927577,1.0196685779,0.9953253208,-0.0655781434,-0.6470230304,0.7949996158,-0.6622169194,0.3007406992,0.1970037292,0.4668117049,-0.6067199529,0.298592421,-0.5813007353,0.2038302112,0.9224126906,-0.8195702052,0.8178767583,-0.7506935293,0.8931180371,-0.1422906618,0.0882943811,-0.1491003088,0.9760039424,0.0394934415,0.90244858,0.9253172451,0.6250077771,-0.1883852254,0.3775474215,-0.0588629435,0.6336312309,-0.3315925557,0.6866325881,0.6641232313,-0.5409662002,-0.1428368282,0.2625910248,0.5705398577,-0.160786224,-0.7533226839,-0.5148920535,-0.6759513625,-0.4259422607,-0.6272877018,-0.365619011,-0.1908163168,0.3838542931,-0.7503029213,0.358576021,-0.7232473786,0.6094839893,0.0177832222,-0.1530891883,0.8971709533,0.6679515602,-0.0787624587,0.3195115487,1.0298571158,0.9455679235,1.0203253475,0.7566932406,0.9324727484,0.1138383897,0.5795088406,0.8831487815,0.803152914,0.9036567176,-0.3515977118,0.3989609505,-0.4947166434,-0.7547952793,0.7258617781,0.1995354169,-0.0943212042,-0.8624885592,0.3318403088,0.4285363406,-0.7671205547,-0.0270861489,0.6899005345,0.3663407964,-0.1927384216,0.8315561941,0.0149140263,0.5759675499,0.1770493449,-0.8400820544,-0.041108035,0.4855359032,-0.0233988139,0.7360293224,-0.0774723105,0.6894407441,-0.1913719947,0.2023937234,1.097441214,0.1843579279,0.6168151493,-0.3366179929,-0.8753250969,-0.9339673462,0.483033293,-0.2566346795,-0.3350459974,-0.7074188737,0.4431924657,-0.7240278192,0.8258003268,-0.0064584103,0.2658316776,-0.8760394446,-0.8421954896,-0.6885728422,0.8380279856,-0.3576717475,-0.2857559762,-0.2866671433,0.2456419422,-0.2830775107,0.9077854515,-0.2474358539,-0.5579434854,-0.0648225358,0.7224889251,0.6867784392,0.643813566,0.2131567445,-0.903914152,0.0067212438,0.8555133218,0.1704004077,-0.7316983276,0.5154241115,-0.6178046293,-0.7052428897,-0.1090795116,0.0315869127,1.0964988142,0.7434824183,-0.9636558625,-0.4266976866,-0.2057936537,0.2430222611,-0.2310356362,0.1409439967,0.8272848304,-0.1874651286,1.0478887505,0.2089891714,-0.7626486002,-0.8116164044,0.5466504743,-0.4264701281,-0.5966511684,0.7472358867,-0.1827540735,-0.1577977024,0.0954104672,-0.6261310703,0.4050164084,-0.4358693026,0.3077827022,-0.7657086945,0.8885914499,0.706691091,0.191871213,-0.2145628398,0.5683975036,0.7328440194,-0.054813145,0.2533300534,-0.4476143622,-0.5370875282,0.9652790852,1.0469213605,0.8275247603,0.3375216754,0.6473029987,-0.1827267761,0.0116612197,1.0598927159,0.6304710446,0.4245138195,-0.281516093,0.9548925012,1.0784194225,-0.3066529894,0.8331503478,-0.884813123,-0.7624547005,0.4338047551,0.7812458446,0.0845762165,-0.2641979336,0.6692582861,-0.0989610751,-0.6314506837,0.6078372724,1.0105981276,0.6901736483,0.2411265311,-0.6202895787,-0.8267480846,0.7867531152,0.6432825846,-0.7533795443,-0.4850990028,-0.6142345371,-0.9575665568,-0.3362717722,-0.7352832721,0.99703651,-0.8144127176,0.5365808057,-0.2033699968,-0.6073968871,0.2688510113,0.275453097,-0.6892892174,0.2559375951,0.5095342816,0.4900243979,0.8951491509,-0.2639604379,-0.7941305614,0.3689192976,0.4967913741,-0.3125520796,0.0219930217,-0.7598073214,1.0978301403,-0.2454194073,0.0367200761,0.7632132736,0.7898120476,1.0057560354,-0.621462925,0.701734299,0.9156348578,-0.3392503606,1.0676213225,0.0628827514,0.5030182073,0.8893335795,0.1687070372,0.1249979474,0.5833668336,0.9972489391,0.7428543538,-0.5564827505,0.1601060243,-0.2133922224,0.0797127574,-0.4061749795,-0.3229700865,-0.5451116559,-0.6489971157,-0.5143699376,-0.3738764055,-0.9834645853,-0.067902492,-0.7047588563,0.8991546487,0.6170899334,0.4391534265,0.6563575748,0.735764463,0.9956218493,0.9667350401,0.5049106308,-0.5499641775,-0.6683244627,0.2855348573,0.2930676051,0.8988764108,-0.8534489027,1.0739394581,-0.0126713496,0.2260772475,-0.5760810931,0.3117682723,0.9063365641,0.7661353881,-0.8970061092,0.8373423819,1.0896833755,0.2886116404,-0.7904485247,-0.8395667134,0.5609810531,0.2436375779,-0.1624357186,-0.0496841129,-0.4948519359,-0.7521271619,-0.5142845053,-0.8312504825,-0.0600852793,0.755791038,-0.8946470421,0.7511619919,0.8441554401,-0.5556478944,0.0279420282,1.0123415094,-0.010995517,-0.5406070847,-0.3952995412,1.0494404762,0.3694754394,-0.7039901744,-0.5226542579,-0.0277335275,0.498251125,0.9937165725,0.4424933054,0.6661289104,-0.5544787991,-0.849815418,-0.7494059044,-0.2509563967,0.828776241,0.8705349047,0.6849001355,0.2376400233,-0.0630351488,-0.5826478535,0.7447824217,0.2736974991,-0.8055510783,-0.6184151748,-0.8160939602,-0.5200747205,0.9706948501,-0.217388226,0.9507085717,-0.7761117226,-0.5888397507,0.342610792,0.0977868659,0.2761587916,0.8110760446,0.4672245499,0.704442867,-0.3831566087,0.4659157711,-0.6872450544,-0.7876496183,0.5931440085,0.1723607137,0.2080256161,0.3407472712,0.6000349421,0.7325478653,-0.9437248529,0.4026944139,-0.4883447621,-0.8237282157,0.7221417245,0.7796955808,0.3770227953,0.4846174029,0.3546263972,-0.048379943,-0.6223002441,-0.5967588894,-0.6410406239,0.8421271398,0.265328545,0.2819237015,0.038214574,-0.0745085328,0.3821008806,0.4843690575,-0.103064538,0.3631409127,-0.4054854195,-0.8940727508,0.225437458,0.8075525624,-0.0456730082,0.6506240017,-0.4332421364,-0.8169541452,-0.7135979773,0.8428929077,-0.1222637273,1.0369739363,1.0631065528,-0.7745096777,-0.7016137759,0.2790282427,0.8450507235,0.1413788314,-0.5224978601,-0.3957958343,-0.3985677149,-0.6241258907,0.1141363076,-0.1882932866,-0.3706334898,-1.0354768095,-0.6500082382,0.7919302404,-0.7179957286,0.2223160084,-0.2309369724,-0.7491195998,-0.743909809,-0.6320828461,-0.3099960167,-0.5968129219,0.2107318348,-0.3953309743,0.8348989647,0.153037016,-0.8517613552,-0.2415039701,0.1376706036,-0.0201274855,0.8462803912,0.7289497491,0.6099181929,-0.2763420972,0.3076467764,0.7709547957,-0.2151906242,0.8634520382,0.5747474637,-0.5317137359,0.6783319281,-0.6105003702,0.2793341362,0.3539055846,-0.591154414,0.8827819647,0.6813567046,-0.8871259561,-0.2039413037,0.6478657617,0.0485479979,0.9181005595,-0.3707884422,-0.8991872514,0.5740974969,-0.8701505737,-0.3653725708,0.4849917227,-0.747086608,-0.3128492899,0.5312816845,-0.3527144145,-0.6921835378,-0.1119496481,0.7414705051,0.6803274629,-0.8364660275,-0.6546942055,0.3098344581,0.6709173587,-1.0244604957,-0.5563155175,-0.6544936906,0.5213700793,1.0390437759,-0.0971303674,-0.3889165314,-0.617357353,-0.5103027142,0.7825893812,0.8769830579,0.8262129911,-0.627638154,-0.1918913324,0.1588084717,0.2913366228,0.1209849687,-0.2836361641,-0.0014828209,-0.8035808623,-0.5128292654,-0.4875896943,0.0162297655,0.6426986061,-0.7320261725,-0.0118850931,-0.8269905179,-0.6484554294,-0.642994725,0.7455884321,-0.6914889443,0.5772144451,0.3672275034,0.3151997578,-0.2034887337,-0.084352221,0.1627088593,-0.8442802828,0.5704293633,-0.023083817,-0.6575731111,0.3867996626,0.5293548559,-0.1492404735,-0.2329173302,0.303782882,-0.5308988919,-0.5954958528,0.2118043174,-0.2765117684,0.380609012,0.8908390604,0.40971231,-0.9886029776,1.0528299775,-0.4707215439,-0.8297662591,-0.6858005432,-0.3214733705,0.1649267424,-0.9706792731,0.7167302806,0.4883380707,-0.8441920825,-0.4189201239,1.0347555211,-0.1932628882,-0.3520220467,-1.0372152741,0.3882985204,-0.3207596492,0.3098296893,-0.7777172232,0.2669613998,0.4055098476,0.7851288496,0.3110809468,0.3388656381,-0.3940522137,-0.6718321035,0.3426753057,-0.7566981944,-0.0065232663,-0.6847140542,0.8511976272,-0.4139819611,-0.958493672,0.586923686,-0.2842865898,0.6599856095,-0.3049620714,0.1140212196,-0.7397055085,0.6282788508,0.4479781181,-1.0258198933,-0.242652189,-0.1121422289,-0.5552837227,0.8511067515,-0.4493930317,0.0749366564,0.2718535039,0.8242931994,0.5040579537,-0.2639745976,0.479449313,0.7513812,0.3415010776,-0.6299567528,0.7576365543,0.9152134937,-0.8154837549,0.8448783208,0.5670737284,-0.5625996524,0.4566875002,0.6716661419,0.2526382452,-1.0554164307,0.7841214674,-0.156944778,-0.0289253446,0.5887209663,-0.4347594371,-0.30232782,-0.3961789813,-0.4508988916,-0.6027428037,0.1077614699,0.7559650243,0.5847177503,-0.011658133,0.2102219353,0.2844595846,-0.2039642639,0.0138867811,0.7628432454,-1.0976999622,-0.749741504,0.6972436278,0.6716686294,-0.168198599,-0.2597911123,-0.3996746284,-0.7847093194,0.6008783746,0.2232556686,-0.0499604237,0.5042186381,0.2949886214,0.2458921532,-0.6365440838,0.0936240174,0.094309818,0.6852310412,0.5425286349,-0.4738327228,-0.5452721329,-0.5199952791,0.635185494,-0.6226065803,0.1948178593,-0.4713371465,-0.0263277284,1.0662273082,0.6320014235,0.2705266015,-0.6212320695,0.3870042368,-0.4839942835,0.3480531279,0.7178415641,0.8246601539,-0.1246364864,-0.7265687878,-0.0333331365,0.2188339502,0.5069054291,-0.0176797775,-0.3933339671,0.4465580288,0.5762818656,0.9895629797,0.3284804752,-0.8410614036,0.8175227226,0.480542735,0.5448677602,0.8789881326,0.0145461064,0.8003283906,1.0969040719,0.1237679656,-0.2546163636,-0.064549876,-0.3109513103,-0.3843380658,-0.2679754232,-0.7502880446,0.5038339906,0.3847741281,1.0908182597,-0.3664814797,-0.2588036569,-0.694217917,-0.7815488145,0.9127492924,-0.1803181433,-0.013908025,-0.7396538925,-0.722725328,-0.8439537827,-0.5396370879,0.2342182547,-0.8351638672,0.5659765813,0.7469157886,-0.1563290792,0.4455725806,-0.8798010368,-0.3464508996,-0.3160763786,1.0101245559,-0.1867023572,-0.3480920378,1.003430096,0.3997353104,0.111651472,0.0476938399,-0.8950019008,0.6459178589,0.7082860595,-0.7979967809,-0.1354441839,0.8575288513,-0.7158437899,0.6416461845,-0.2908665312,0.7093454437,0.5644287972,0.6414567772,0.2170794333,0.8447777892,1.0166881352,-0.6125103402,0.0054690253,0.1907232703,0.7553144631,0.9373508189,0.7036998543,-0.7061896801,0.2799039904,-0.4544685566,0.5323578588,-0.0722679469,0.5002978306,-0.3426728734,0.5600606623,0.2081895126,-0.8872051083,-0.0890096047,-0.7785168955,-0.7654978394,-0.6264353202,0.7368460423,0.3770557267,-0.4795443707,-0.8977842591,0.0194404564,0.568384534,-0.4670080982,-0.2838224562,-0.479909767,0.8297147297,0.7171365738,0.4649400637,-0.2025488961,-0.7438533222,-0.8659076414,0.2409929505,-0.3636231829,-0.4105192105,-0.2315037727,-0.8204677753,0.0465576277,0.1086749237,0.2120820162,0.4818831406,0.7744159445,-0.13674518,-0.3066081023,0.8131796969,0.3505928281,-0.6758627259,-0.6937134029,0.6993566849,-0.8855606463,0.4060874588,0.9309361147,0.0752304461,1.044711725,-0.1349589393,0.1044312199,0.5735541829,-0.7471525808,-0.2375746934,0.9725153803,0.4096153479,0.7901217728,0.8071250614,-0.5559230018,0.5455988467,0.0414868968,-0.4003761025,-0.565802108,-0.7898912194,0.9822522415,0.2507609006,0.1868749824,0.6374480059,0.2807803065,-0.1322774164,0.0978716367,0.0358471306,-0.186831803,0.9296343262,0.8053799947,0.3161599628,-0.5882933183,-0.8700638501,-0.9871258948,-0.3272382739,-0.7131761817,-0.8205811649,0.8520227548,-0.2688376051,0.7324451968,-0.6497410211,-0.0522467117,0.8728173944,0.2822084824,0.9721852108,-0.478768518,-0.8295055775,0.3029240996,-0.065002973,-0.816222893,-0.6468844016,0.1312924933,0.2785668873,0.8624844483,-0.0869899248,0.8129219206,0.6036767872,0.7294078209,-0.7292378857,0.1740415476,-0.8896403643,0.0537168347,1.0668498144,0.0203822905,-0.7539112445,0.2755989119,0.0646883283,0.4985910707,-0.5183272371,0.8884828957,-0.6915934555,-0.3113262786,-0.051439521,0.2488404692,-0.6098316977,0.6095668036,0.3466605356,-0.0093437783,1.0848480233,-0.1544260328,-0.8566783154,0.9161301267,0.5574913682,-0.8256640801,0.960639329,-0.3677243991,0.100340815,0.4659794371,0.4795583726,0.7633249082,-0.2673377805,-0.6382894185,0.726318328,0.5287669371,-0.4402437858,-0.031981766,-0.7706535627,-0.1497615543,0.3683871209,-0.2646775093,0.2792517171,0.4550495455,0.4126520816,-0.0098901982,0.1708531806,-0.2637757608,0.3492452363,0.7689850661,0.1475762098,-0.5836058033,-0.5499880444,-0.111766946,-0.1890993059,-0.8999787611,-0.6422739486,-0.3474311943,-0.8756921222,-0.6712777369,-0.7654546703,-0.805595453,0.8805117251,-0.8715784938,0.1030154082,-0.2633862217,-0.4289400251,-0.636843572,-0.3262815895,-0.23786637,-0.3694417651,-0.0376750764,-0.4190248138,-0.8330180017,-0.7104316046,-0.5601884536,-0.0445708223,0.9363728979,0.1722280624,-0.306851593,0.8523264175,-0.4650933979,0.341789964,-0.9938195036,-0.8946662823,0.9692034938,-0.1551039311,-0.4341545153,0.8984246034,0.4696311384,-0.6765788224,0.7327239978,-0.8748226708,0.0912081515,-0.7378946322,-0.5856023986,-0.0308858785,0.6102364484,0.0932384925,0.9916867873,0.8481964284,0.0203840176,-0.0074814078,0.2110628247,0.3375737549,0.4846259249,-0.8595173792,-0.7398951118,-0.714939444,0.4324657716,-0.5468217736,-0.4467713257,1.0574568022,1.0701515528,0.8571302048,-0.8604162313,-0.8230102418,0.7954919436,0.949258883,-0.870912127,0.0764057244,0.8530991455,-0.4682959784,-0.0303800694,-0.4698748686,-0.6961744517,-0.8780968655,-0.3114992069,0.3637258662,0.9251333693,-0.0917049185,0.2861233799,0.540264946,0.1555640282,-0.5674733436,0.8825132691,1.0326879182,-0.7887740871,-0.8717982341,0.6243010288,0.6628724464,1.0763196929,0.3796164,0.9822338474,-0.1290199597,-0.7716688322,-0.2509750278,0.7299374158,-0.3696756933,-0.5401055837,-0.4556396341,0.6504487376,0.9206032524,0.2556995816,0.7401490913,0.8056389622,-0.4882770918,0.320934789,0.5112385883,0.3376001715,-0.6232512579,-0.4747230548,0.2469887565,0.8907249095,0.2421639089,0.7068279125,0.1076514306,0.2873208878,0.4365616854,-0.2843050735,-0.5942080591,-0.8692905599,0.4665652771,0.2398968741,0.7404867155,-0.6648635831,-0.8465579599,-0.4329718223,0.3970927292,-0.430024855,0.4957561996,0.739789399,0.8283194508,-0.4129240861,0.9469062514,0.9365498858,-0.9596544941,-0.5173114459,0.0853155004,0.8914269211,-0.7217761761,0.7421212429,0.0741178522,-0.2737445019,0.4186739796,0.0738878174,0.3640547537,-0.3408954806,0.6609427308,0.3379865878,0.770892994,-0.5961618381,1.0813862663,0.0989059901,-0.0439018367,-0.0302104682,-0.4241215577,-0.8429784869,0.8226393703,-0.6748369992,-0.0323395186,-0.0466782192,-0.7950770807,-0.564605285,-0.6190085039,0.1421271386,0.6565309013,0.4022368109,-0.8128670298,-0.0358880274,0.0225649371,0.9544235909,1.0618048807,-0.7536611205,0.8055914745,-0.359310774,0.7586241639,0.1920692158,-0.6148940838,-0.7827108499,-0.3616401827,0.026508806,0.1857536706,-0.6223495326,0.9167804557,-0.6939030618,-0.736387392,0.0309868803,0.8266158817,0.1920389102,-0.4372824539,-0.2879132643,-0.1482113449,-0.4524504364,-0.4413044461,-0.5075808108,-0.6390731099,-1.0389623817,-0.2137245581,0.5791148803,-0.3441001118,-0.5457896035,-0.1875577822,-0.3258552093,-0.1425282641,0.7976582941,0.4804481042,-0.2345037414,0.4369054154,-0.5326294036,-0.0159904298,-0.5429135084,0.6062560499,0.981490518,0.6232107263,0.9713179421,0.1208813076,0.2983324238,-0.4329243024,0.8066421972,0.6536695572,0.6203390797,-0.5317033715,-0.0552357314,-0.2194137246,1.0825968525,-0.9142479307,0.4715458951,-0.4569946559,0.1905859863,-0.0008627358,0.356438989,-0.1774903228,-0.3778373687,0.5321204714,0.3424091401,0.5907621522,-0.4337931199,0.0313656286,0.8819333967,-0.0778437175,0.2552369177,-0.0943499346,0.6237996733,-0.2036876848,-0.4674353017,-0.0466608223,1.0099427484,0.6907518827,0.6350893674,0.5136177688,1.0477336886,0.1578783547,0.2512259254,-0.6688470253,1.0512246202,0.101415836,-0.6218101289,-0.1907267314,-0.8576195142,0.5267599121,0.4600994345,0.5434823094,-0.0217098095,-0.3459533287,-0.1655917194,0.8898316543,0.5506821899,0.5472125288,1.0777319565,0.1926970206,0.1158118334,0.6739860388,0.7836711636,-0.7667418363,0.5253456765,-0.4632860368,0.5040492535,-0.0706241686,0.8201727933,-0.5025972861,-0.7876433565,-0.8428236493,0.9616344886,-0.3401395509,-0.0045544086,-0.4027962747,0.1746664477,0.3354383885,0.8703232309,0.088878282,-0.5115067835,0.4935642726,-0.4805871058,1.0534327941,0.0586840201,0.8097929841,-0.0753382152,-0.2689414375,-0.2722410912,-0.4682422898,-0.474169395,-0.8654201481,-0.8775897274,-0.0077245268,0.1741979665,-0.6104228226,0.9891503727,-0.6343553387,0.4004124622,-0.6236800063,0.0914498242,-0.0126573194,-0.6418334033,-0.6328851955,-0.4698944547,0.6538149844,0.1152961296,0.2039944858,0.2246103084,-0.601013915,0.5492959983,-0.2794495036,0.0787421575,0.9266048703,-0.7991364788,-0.4036402466,0.7066981611,0.1637105084,0.3627041873,-0.6152568725,-0.5589854201,-0.856333148,0.5416842731,0.495897526,0.6111573348,-0.0113013049,-0.7645503357,0.6555682201,0.764747624,0.9233071022,-0.0681942295,0.8098094996,-0.479927682,0.8167505533,0.0323731481,0.7789380309,0.5665663829,-0.8782010745,0.5576616775,-0.3021149378,0.4336898887,-0.1646551358,-0.8680058728,0.887961353,0.4774051083,0.9751845801,-0.67246825,-0.6228480144,-0.020499783,-0.7181843119,0.7618090985,-0.6696049201,0.2372417794,-0.4963773141,0.1375409127,0.6350819516,0.1363052643,-0.3768647561,0.2484613518,0.7415868894,-0.1443111265,1.0214044087,-0.8147776612,0.1181191772,-0.8640125176,-0.1033243862,-0.2993494891,-0.2702702769,0.5419354855,0.158836124,-0.4546390553,-0.3209662399,-0.7420839198,0.7255445475,0.8518783232,-0.0348395547,-0.4918625525,-0.1278784788,0.7222951525,-0.6977109125,1.0706307335,-0.3209623275,-0.4463978626,0.9094238973,-0.1322736801,-0.2946276306,-0.7296449664,0.7165779207,0.8552609608,-0.2715178563,-0.1806412104,1.037382591,-0.1738073753,0.5506237343,0.7472004406,0.2347101221,-0.118170954,0.3587373923,0.8402658911,-0.1586374509,0.1418343134,-0.6957063649,1.0837191994,0.0958461559,-0.3669115401,0.768662575,-0.0167608912,-0.544260753,-0.7689878693,-0.1799384124,0.7783678724,-0.8310549556,0.2952698654,0.7852552811,-0.6675175447,-0.3120380017,0.3188382606,-0.7995456888,-0.1285356839,0.8420875283,0.7313065636,-0.4428093656,0.0450256092,-0.6809228216,0.0654980031,0.3908717561,-0.5164987317,0.8872694195,0.3548514474,0.0003550112,0.3404657017,0.4017054594,-0.7031161806,-0.6740458726,0.4495942894,0.7614399267,-0.4158994534,-0.7410261296,-0.5510696135
   0.1642054075,-0.0283758575,0.2072636667,0.1315221505,0.6421637407,-0.2142674273,-0.4665666277,0.1369916536,-0.4590274304,-0.3143628063,0.37290211,-0.7557616476,0.1059100245,0.2248438514,-0.118410496,1.077565546,0.7921167365,-0.2055491894,0.2802154601,0.4898333192,0.520296082,0.5955602528,-0.7213874638,0.8748690716,-0.7427214544,0.1671796166,0.4421414626,-0.8719031331,-0.2028245299,-0.2802993663,0.7613274166,-0.6741240282,0.0112336491,1.0815585119,0.4894088616,0.9688730753,1.0857691368,-0.1554665452,0.7985180593,0.9305854567,0.8073412013,0.2929690293,-0.0247308167,-0.4360261284,-0.0484763809,-0.4944707164,0.377947191,-0.6127143781,0.5276348366,-0.6397555829,-0.9695931603,-0.1917012375,0.1153773366,-0.1266514118,0.674813057,0.1106939584,-0.4494691291,0.1277766992,0.4997201569,-0.3763007045,0.5064309814,0.0076915847,0.90007447,0.07442929,1.0240629845,0.1295116542,-0.4929306065,0.410706156,0.774899512,0.7635894383,0.3666108656,0.8024533992,0.679278646,-0.6809790113,0.9344942208,0.3694554711,-0.6102217937,1.0214451867,0.1964648307,0.1039298746,0.3229802068,-0.4410616628,-0.1416209647,-0.1668371298,0.5540083441,0.9529488842,-0.2873976381,-0.087597619,-0.237061557,0.227113362,-0.1437642197,-0.8164816,0.6097005151,1.0857225244,-0.2372169681,0.4705283496,-0.5277980392,1.097738871,0.3607943634,0.1546474988,-0.4929723027,0.2574858394,-0.1122642069,0.5386374492,-0.2909865692,-0.0638640985,0.9527213015,-0.1888692234,0.2899283629,0.1864837398,-0.7522466296,-0.6936193433,-0.7984293244,0.2691790548,-0.8881673022,0.5782315222,0.644045354,-0.3707725807,0.6907680685,0.4288074929,0.4969148349,0.0030264192,-0.3031118833,-0.4088005408,-0.5935638109,-0.3673509278,0.2075264026,-0.0838788453,0.4223410799,0.1757034146,0.6168157584,0.0116100307,-0.4915850598,-0.3054308836,0.1885728121,0.8832594595,0.8902375456,-0.4796633816,0.6710451583,0.3331469964,-0.3428538117,0.2658131468,-0.080617821,0.7328239267,-0.5755440112,0.857851057,0.4372997992,-0.5242497335,-0.7449226043,0.830374696,0.8867683752,0.2379439314,-0.7042900355,-0.0796713294,-0.187842219,0.6185991788,0.7581542261,-0.3218630959,-0.3733531629,0.0076421424,0.1804223052,-0.3251715433,-0.910577761,-0.8725760513,0.0697527435,-0.5580845277,0.017602636,-0.047519362,-0.7119437177,-0.0660673373,-0.5061908218,0.5923139772,0.0838351837,0.2972843678,0.0633150892,-0.1790733242,0.9612392299,-0.6989975995,0.3801953618,0.8664520133,0.4526456645,0.0190055095,0.7935923112,-0.1706388055,0.2761916994,-0.5478289063,-0.0720300019,0.2085476012,0.0369336744,-0.0839246787,0.6564561393,0.6661824674,0.5322242036,0.2369286671,0.6930857586,1.0289099769,0.9333786984,0.2701495361,0.603899548,0.2307693208,-0.1952799767,-0.2574813922,-0.485254378,-0.1080357116,-0.3766758215,-0.2712457427,0.818469152,0.1775672002,-0.694767985,0.7733237163,-0.9350709856,-0.0954441978,0.4233550574,0.4021029402,0.0872231169,0.0103390482,-0.1523952143,1.0911040658,-0.0316602668,-0.5255550601,0.5394483448,-0.2873829167,-0.8886492042,-0.6192229941,0.1073522877,0.5529281555,-0.4454894421,-0.5311770005,-0.0060924316,-0.4380007177,-0.5159636314,0.3005705521,-0.8555700683,-0.7437922397,0.3569054525,1.0360911318,0.179632052,-0.6031279729,0.4335595951,-0.6629193353,0.9729397224,-0.7572450572,-0.6651216663,-0.0710297219,-0.9719939141,0.0586098418,0.402581546,0.3345646264,0.9154569931,0.5144797108,0.5444375853,0.423528082,0.1875671928,-0.0870728149,0.5408874255,-0.2482339908,-0.0195515741,0.9468190428,-0.19060447,-0.3932831258,0.0177646827,0.9763324671,-0.1030330364,-0.2688632051,-0.197970444,-0.932102809,0.0455657159,0.1649541403,-0.344893847,0.9477868255,0.4413554877,0.6650844987,-0.1774179722,-0.2311309057,-0.854429749,0.1412460085,0.8416454835,-0.3995937737,-0.2434579192,0.4104035936,-0.7373889747,0.3473113256,-0.357840611,-0.588827762,-0.2873913703,-0.8110040131,-0.1512509111,-0.9126788339,0.1572052944,0.7063268841,0.8958898773,-0.7051917554,0.5084914257,0.1655021773,0.0250048558,-0.7973592329,-0.2019852577,0.284105401,0.8989188143,0.6788294762,-0.0257007172,0.3936324721,1.0275230767,0.100634792,-0.3458187393,0.383049291,0.2674343437,0.1970939895,0.9991721676,0.4098380458,-0.3368465485,0.3384018867,0.4632395219,0.8064014186,0.7110732159,0.7721363153,0.3478831077,1.0148575554,0.3837236603,0.6721308782,1.0143682384,0.9880766568,0.2812965595,0.9270035085,0.8064665528,0.7120799837,-0.6726315281,0.1461947478,0.4716159561,-0.8144262356,-0.5238586225,-0.1264386398,0.4228093892,-0.7070622438,0.8177267709,-0.5043593876,-0.3738201964,-0.5405489778,0.1462168791,-0.4378825274,-0.5020547484,1.0493535297,-0.4751114654,-0.0373543195,0.2968504872,-0.5962393552,-0.6889831167,0.6378220122,-0.4166008417,0.6581056185,-0.8840363099,-0.2256554096,0.9915618771,-0.792413417,0.4848551951,-0.7708675909,0.7197538176,0.6666448849,-0.3124157636,0.7239397523,-0.6555724021,0.6878141303,0.5561983694,0.9617446939,-0.6633496845,-0.0469581536,-0.0112932029,0.6685996268,1.0233125131,-0.1841977667,0.2087815359,0.1645037868,-0.2103664932,1.0137191688,-0.6090116808,-0.2973171434,-0.752826427,0.200179391,0.1283824073,0.6074022859,0.8280704731,0.811617324,0.981738554,1.0792809397,0.6816381936,-0.7739999855,0.5362333502,0.7548354608,0.1405738676,-0.8588944742,0.4039046911,-0.2416496167,-0.9128018525,-0.0194313443,0.249544,-0.4275965191,0.8677143849,0.8470982805,-0.2841861962,0.6765103945,0.4056578308,0.9548481934,0.0928046386,0.8872876909,-0.1120154994,-0.4741759063,-0.3678841347,0.049314547,-0.1887514646,0.3264941898,0.4901177533,0.0283019746,0.4192782009,-0.370631158,0.3392680242,-0.290595862,-0.4052364633,-0.3049318935,-0.3655858756,0.2474414344,0.1217100897,0.5300340817,-0.007619441,0.6637419619,-0.516958087,0.0380851537,-0.2926496518,0.3570212763,-0.2556752421,0.7547080537,0.1525117332,0.5462397681,-0.8104456687,-0.7359199184,-0.3020486156,0.1603815677,-0.6949695974,-0.5443588192,0.356136177,-0.5562122924,-0.0334456557,0.6030971253,0.3045138004,-0.3461880535,0.5728819254,-0.0159143745,0.7421402207,0.7907267578,0.3294207066,-0.877055378,0.2740513432,-0.3012662361,0.2359944558,0.5424372215,0.7088047141,0.757920384,-0.9958891941,-0.3265361365,-0.1042212828,-0.5891778614,-0.8259427044,0.5871198256,0.8716836026,0.8941495745,0.4110754916,0.3428209201,-0.3188729049,0.2339812549,-0.8538732995,-0.2850897832,-0.3628863019,0.0851519843,-0.4606533586,0.0557162952,1.0812291405,0.0005038575,-0.9741245988,0.6874625179,-0.4885249772,-0.8017504923,-0.2668575022,0.8491123858,-0.1306472953,-0.0741447049,-0.2012810444,-0.6918013783,0.7784875454,-0.575116273,0.9665005437,1.045504055,-0.85023302,-0.469158465,-0.555042371,0.8128908871,0.947341715,0.4491505819,-0.5283743113,-0.1402318327,-0.8695590234,1.0651473101,0.9338726668,0.3070622814,0.2621493887,-0.1658477937,0.7598530745,0.1732444992,-0.2224629717,0.7132418451,-0.6698167691,-0.1152510026,-0.507514482,0.362712378,0.0480404063,0.3828300685,-0.3274025486,0.2959357428,0.444412047,0.8947912031,0.2768905853,0.012475717,-0.1921490405,-0.3853856741,-0.5021781052,-0.2219609138,0.4304106833,0.0705017602,-0.6050444707,1.0259524524,0.1537411612,0.2750521643,-0.1488002232,-0.0951409543,0.3835659016,0.0042542471,0.208298301,0.2167920603,0.002369032,0.0693574431,0.8072778795,-0.8320898901,-0.1909728888,-0.1707941527,-0.1181381199,-0.281686627,0.8467627284,0.4440800367,0.1606666355,-0.8941289586,-0.8854179519,0.0502230104,-0.77362188,-0.3333583523,-0.8888511677,0.4105281632,-0.1560315946,-0.3416713861,0.5814254376,0.1385831761,-0.4832714564,0.0026186034,0.5030243779,0.6499869868,0.30986504,-0.1427969616,0.1641798079,-0.0340405684,0.2048953613,0.2000684479,-0.4998210823,-0.2522493297,-0.7699814001,-0.2329935173,0.2390391671,0.0680964346,-0.0803604753,0.8625498515,0.5594716301,0.0293467352,-0.6987901051,-0.3522493055,0.5304208285,0.2757656905,-0.2786675333,0.1085300876,-0.8907008859,-0.5882451508,0.7910759604,0.5520253211,-0.8060142822,-0.0472611816,0.1519484436,0.992581471,-0.4444797,-0.1082078803,-0.4979904949,0.306880079,-0.9444317098,-0.308492652,-0.1717337982,0.7825744161,-0.5481726603,1.023426813,0.1969672288,0.483131622,0.8750723109,0.8414815481,-0.7819472008,-0.848387024,0.6459106223,0.6924537886,1.0563614013,0.004126409,0.1705888069,0.8448823161,-0.233441917,0.6731138966,-0.6814771389,-0.0247269641,-0.8921743628,0.0672302564,-0.6051483849,-0.7189735536,1.002589907,0.2088280216,-0.2320081431,0.4491873068,-0.6253714932,-0.4135324395,-0.5240136078,0.1644902844,0.4361305412,0.9621604542,0.7913462419,-0.5233448021,-0.5348187241,-0.5402286787,0.0879964449,0.3348784614,0.1093729383,-0.0968490329,0.7614298745,0.2458376694,-0.5590587685,0.2686727306,0.2597984372,0.1578615689,-0.0545747591,-0.2699717756,1.0070918004,-0.5058762114,0.8187212726,-0.336023239,-0.3601763321,-0.4030193736,-0.770626288,0.5180816519,-0.3245347645,0.199953877,-0.6287689121,-0.2211478153,-0.147791287,-0.5134480455,0.4054831875,-0.284133927,0.103110997,1.0933808525,-0.6711586634,-0.8686287447,0.2765929118,-0.1986529301,0.8767998819,0.7009594048,-0.8862054334,-0.1893692388,0.17002481,-0.55251755,-0.2932521261,0.0625499963,-0.2501499087,0.9542095838,-0.4523240202,0.5320615506,0.0034825941,0.3804881297,0.5870334192,-0.689633855,-0.010428975,0.6023542311,1.0296756355,-0.2132971166,-0.425459772,-0.1378971557,-0.0223161563,-0.4960565497,-0.0136162312,-0.1377756045,-0.2514709229,0.8849350265,0.7217877103,0.0542781149,-0.5817116872,0.0894273551,-0.7335895082,0.6483608025,-0.2829331753,-0.8536536645,0.2848640631,0.0366844767,-0.2849776924,1.0941601685,-0.3141272746,-0.0365590076,-0.3634844137,-0.0570624488,0.9417422448,0.0125368273,-0.010003682,-0.7810755747,0.8987155537,0.481485334,-0.2956719511,-0.4245542278,-0.466150215,0.4415904241,0.5456188067,1.0130448253,-0.1897366005,0.5670635305,0.7124534172,0.3647257071,-0.8324697385,0.2338208717,0.5436697852,-0.1337464616,0.9024838793,0.377916464,-0.6967898671,0.4419052502,0.6904417828,-0.0575810465,-0.2893944858,0.7285862687,0.1174093197,0.4039396499,0.2442103663,0.590353084,0.5969347844,0.5022770653,0.3640295869,0.9810811265,0.4503335907,-0.6400722233,0.8534624961,0.5765921989,-0.719020362,-0.265024185,-0.6561713033,-0.3599445236,-0.3291382139,0.9615193669,0.5422397487,-0.2832843179,0.9824872347,0.251218363,0.5261657967,0.2607291257,0.3582384473,0.7296698683,-0.6739677209,0.3142256495,0.6516454069,-0.709893919,-0.6181304582,0.0640350936,-0.7828535033,-0.5402186408,-0.4688171601,1.0216929444,0.5482500008,0.2339739859,0.4829497458,-0.5979784601,-0.1764688052,0.7302205094,-0.4471775846,0.2486878329,-0.7946836093,0.4225069159,-0.6191382616,-0.1393544022,0.0615390298,0.510073329,-0.6467491031,0.882401729,0.9249410079,0.4646076212,-0.412941373,0.897231774,-0.450404941,-0.6437310735,0.7653367137,-0.6156047042,0.0910142935,0.6121816239,-0.4137866723,0.1125434663,0.8668143481,0.2197486679,0.3079310213,-0.7475677055,-0.8745749504,-0.232664127,-0.7034870779,0.3718977972,0.8523033682,1.08008331,-0.5606078974,0.2483685825,0.256752219,-0.5582415052,-0.5504560844,0.9454421041,0.7858269896,-0.2144627563,0.1885187568,-0.1358794165,-0.4460607947,1.0440605754,-0.2750791646,-0.8101368357,0.8441908286,-0.6099203784,0.4229970037,0.4963656719,-0.2977086751,0.1245504254,-0.0284442314,0.4015789291,-0.3302406781,-0.2770572331,-0.3229533524,-0.2222189707,0.9673723948,-0.6931728509,0.0980209095,-0.4800285572,0.3203250903,0.6958231809,0.0951917507,0.6256893562,-0.2325390433,-0.5829823584,0.0617585225,-0.6458647348,0.0702586132,0.0954693147,0.1154459342,0.5077714189,0.7241019276,1.0112118843,0.6888946693,0.1302871702,0.7665604278,-0.137080645,0.1119544439,-0.0296015739,-0.862367525,-0.5851072492,0.4907244385,-0.2278437355,-0.744177459,0.2556665775,0.5436722033,0.3801958736,-0.8663280822,-0.7154602496,0.1742079055,0.2276450226,-0.2221917983,0.130416737,0.81027135,-0.4716417067,-0.3712848615,0.3496593098,0.8426900867,0.071600991,0.0332996925,-0.6827377336,-0.4796119834,-0.8653536442,-0.4083920587,0.7072404404,0.1734350113,-0.2512578356,-0.6019892914,-0.8588058862,-0.8562394577,0.6356875367,0.156917014,-0.7548162108,0.5773196324,-0.1601396751,-0.9919232033,0.8224665453,0.1006188463,-0.7522550281,0.2913834692,-0.960709503,0.0588521293,0.5100279568,-0.072062655,-0.0019576527,0.3561854889,-0.1252157306,-0.5931712703,0.1958679556,-0.7663094126,0.013330779,0.4554642228,0.4509034712,-0.1881491358,0.0368176422,0.6117714478,0.0555266844,-0.484686342,-0.5391422392,-0.8000415637,0.7174396036,-0.7074877412,0.4994285607,0.416921957,-0.8795202758,-0.713172459,0.2727038455,-0.6736050293,-0.5642781925,0.8448271009,0.2329510214,-0.5479088013,0.4903555076,0.3214130981,0.550169815,0.5118512541,0.8924281329,-0.054907897,-0.1387286914,0.8803881653,-0.1000030782,-0.0196458787,0.6394590784,-0.1562877247,-0.586663264,0.5980066742,-0.0822865587,-0.4153600232,0.0091317697,0.5169626741,-0.7573942746,-0.0643294688,-0.2655224265,0.6719958638,-0.0743410532,0.2383776792,0.5610176883,-0.3254066658,0.4293663996,0.5654614302,0.4920511397,0.9593785921,-0.3090846004,-0.7184291635,-0.8032354536,0.5822719704,0.4179044324,-0.5126111326,-0.5315651088,0.7417429004,-0.0390178104,-0.7805243144,-0.3280430186,0.0292093895,-0.573747939,-1.0807738282,-0.3877459819,0.1770033765,0.5594718536,-0.4455367825,0.7867043273,0.2196661441,0.3369568482,-0.2955536162,-0.3028003469,0.3988439066,-0.4991392338,0.0635780156,-0.5943968447,-0.2129814321,0.6866100697,-0.3347583794,-0.2616374273,0.6211633531,0.5861546411,-0.015559276,0.0193509957,-0.2256184694,0.3004896633,-0.3008781178,0.2867710125,0.3547646008,0.6558008021,0.2615327258,0.4930630686,0.8826344348,0.0174366143,-1.0492722231,-0.2412870885,-0.7407329071,0.1860864457,0.8154484242,-0.4777921767,-0.836698279,-0.2817166625,-0.5749267311,0.5922268632,0.0576682309,0.8965300787,-0.274485861,0.3507006403,0.6188677809,-0.6322207427,-0.3713666876,0.9218108271,0.4351765315,-0.2639766609,-0.6316827751,0.4874916747,0.0962712849,0.5510666079,-0.9626099731,0.0791973462,0.9375084652,-0.2221249226,0.4223114874,-0.8624180673,0.9638677937,-0.3644206234,0.9248702705,0.853815439,0.3621570039,0.0663873236,-0.8885066895,1.0731446492,-0.8024912719,-0.6840169967,-0.3729611297,0.0535328118,-0.2103198036,0.2411103523,0.6082915268,0.1650815231,1.0259867592,-0.3166323862,0.4606559077,-0.0598206866,-0.1413643975,-0.0288270446,-0.5496193451,0.9142653608,-0.7090316342,0.6992644203,-0.5905910676,0.9169494575,-0.1955542412,-0.7700367462,-0.7116276826,0.9366127787,0.6193000114,-0.7786523404,0.7245344134,0.150083771,0.8191637835,0.0009872008,1.010073654,0.090186263,-0.6330423691,0.77523344,0.4993700142,0.8271008465,-0.5884690042,0.3728838104,0.3577088704,1.0218561801,0.714761542,0.4966630045,0.7894446052,0.1483569666,0.4901413277,0.4304539926,0.4368149271,-0.2445690784,-0.3160705194,-0.629265834,0.9360262771,-0.3239118782,-0.7816672187,-0.2817285015,1.013728656,-0.8390150252,0.3697473254,0.9073910806,0.5261937095,0.358626692,-0.2690101568,-0.6734919883,-0.2897673568,-0.3401855437,-0.1090516252,-0.7367388047,0.5262759412,0.0710881592,0.320247483,0.7219091919,0.8069727327,-0.3671257592,0.0388202662,0.9542649951,-0.3661403513,-0.8875376943,0.2619763836,0.7195495011,1.0615388192,-0.7003908015,-0.8742565513,-0.254087347,0.4644611165,-0.0038257801,-0.4035314804,0.4755821157,-0.7664512175,0.5192323749,-0.7269892819,-0.8372786673,-0.3347740829,-0.5226865737,0.6540761887,0.4776386355,-0.3580679961,1.0237011151,0.3654999663,-0.2699585451,-0.6826358201,-0.1045888237,0.0941079626,0.2089317227,0.8356235,0.3317228283,-0.5483662574,0.9771640141,0.7475522828,-0.2882610341,0.9902385218,-0.3400377467,0.0029145471,-0.2729340319,-0.9118608881,-0.2248385437,-0.413032079,-0.6830156101,0.7238766343,0.1678238942,-0.6156109045,-0.0018737637,-0.5112698156,0.7150054387,-0.6445550382,-0.5762758603,-0.408800664,-0.5737411877,-0.6313558966,-0.4072315774,-0.2558778426,-0.1339755206,-0.0905976478,1.0014964782,0.1438600189,0.4188803594,-0.6921778467,-0.4663761857,-0.7980151743,0.2311910171,-0.0418298646,0.1515535851,-0.5617706564,0.18924258,0.704625878,-0.4401077981,-0.3439214136,1.0511812907,1.0448137217,-0.6402370329,0.0161557265,0.6251797569,1.0327016747,0.103567059,-0.453552997,-0.1944206695,-0.4915096313,0.9090427689,-0.8597135718,-0.8335194143,0.7620772447,0.1509006805,0.0933112208,1.0186996393,0.9800224644,-0.9317509864,0.7998959034,-0.3043281734,0.4991529988,-0.2657346289,0.8259247589,-0.4896715559,0.4672312338,0.6465374426,0.4975229447,-0.7351565412,0.8133829821,0.0794794014,0.6050713358,0.9219102015,-0.1855373345,-0.1452431099,0.2569989187,0.9323529571,-0.7463989799,0.2694008268,-0.0590850104,0.3296400941,-0.7145537858,0.5120743905,0.6437136457,-0.8157414693,-0.2214679332,0.1272345643,0.4728682475,0.7895416169,0.9968065104,-0.7003865717,0.6855408513,-0.860138208,-0.6262897074,1.0097740635,0.2375016017,0.5910826512,1.0958582935,-0.4222811914,-0.2999219728,0.0104818413,-0.7866370695,0.8806817509,-0.5553033009,-0.5504340625,0.3834613748,0.6635214047,-0.7911912874,1.068333176,1.0265102914,-0.2780072531,0.1893027368,0.2677440226,0.2062178094,0.748903413,0.1431681051,-0.6216237515,-0.5003730947,-0.1753600907,-0.6502184892,-0.7820331057,0.473665306,-0.8551979889,0.1205371006,-0.7516249893,0.7327423441,-0.0086356845,1.0987334546,1.0505516201,-0.3961070544,0.27749135,0.4351367995,0.4674109388,0.6276134017,0.3684202773,0.0453095326,-0.552620441,-0.7224434105,0.2016938192,0.606348373,-0.4080602686,-0.1713350926,-0.7945989636,0.2685208562,0.3357631764,-0.3820589584,0.4897631351,0.1408331543,-0.1746726319,0.6119957357,-0.1715454668,0.7005155476,-0.7603718383,0.782631239,0.7903441118,0.9856317771,-0.4753164019,0.8146829205,-0.7767848057,-0.3344393951,0.137471547,-0.8541597312,-0.2266727879,-0.3326502245,0.6736747312,0.9894323008,0.9786200666,-0.7643609747,-0.7879863437,0.4227153491,0.6737788088,-0.3679179386,-0.8512145145,0.3365722631,-0.8330219856,-0.7872596511,-0.4143222984,0.6976065925,0.2308248104,-0.3304856352,-0.5455894648,-0.394399432,-0.0429863533,-0.60350032,0.9711328004,0.0655553745,-0.4879700217,-0.7070502458,0.7134110014,-0.5995253685,-0.3964637177,-0.2469134581,0.6261566156,-0.189453814,-0.0616578729,1.0952688149,0.3864778925,0.4235994148,-0.7231259579,-0.4759971162,0.0872648341,-0.7305954383,0.5220935083,0.430808729,0.0816086183,0.6033840875,0.3085022002,0.7775631265,-0.4031629961,-0.5330166103,0.987593361,-0.838217927,0.1020457279,-0.0616647752,0.535057234,-0.6438540149,0.1035400065,0.8725925977,-0.3812190855,0.0937481533,0.9937435035,0.9170132572,-0.5819479269,0.8832428395,0.7284238927,-0.7004286157,-0.5956457847,0.7053094553,-0.7794465916,-0.3894316859,0.0527512147,-0.080344598,-0.8698706257,0.3293731631,-0.794925876,0.740895418,0.3101432539,0.2834148266,-0.6263528905,0.5529420615,-0.4545501352,0.5951172281,0.5566938383,0.3241112514,0.738606834,0.4799138271,0.260151931,-0.0595693495,-0.3872069569,1.0067983416,-0.8199831045,0.5441466861,-0.4402159567,0.0521292004,1.0011283645,-0.0438909812,-0.3734172875,-0.2366389311,0.7257461392,-0.8679052542,0.4036537525,0.36761016,-0.3496594079,-0.1895499952,0.9587395331,-0.8765955762,0.279355135,0.9860759226,0.3618431511,-0.2070896215,-0.3968027975,0.6137075864,0.0416376842,0.6731550608,0.310076639,-0.6102595971,-0.0532882666,-0.6140423948,0.1396863531,-0.1984904075,-0.1450623555,-0.0917733813,0.1932540015,-0.0037414299,-0.3524429395,0.3135414977,-0.2750023441,0.3518948498,0.3604382373,-0.7870955103,-0.6778090758,0.3861438305,-0.0935265172,-0.2012559811,-0.5530238514,0.2435087526,0.4658413669,-0.7139151713,0.7241134825,0.5333844647,1.0047030746,-0.5519819153,-0.1451472499,-0.451092165,-0.3565763647,0.9471640258,0.4923127242,0.1049438635,-0.683658146,0.7161189544,0.4959655162,0.7293714676,0.4571214,-0.5760448465,0.8809725074,-0.3312693427,1.0192932614,-0.0759851955,-0.158125012,0.5004061586,0.1044835544,-0.7096281958,-0.4902828297,0.5514216621,0.6119923143,-0.6884995984,-0.1023375299,0.4606769851,0.401625196,-0.5565478436,0.4781440275,1.0779022428,0.2309378965,0.3006242746,1.0219222664,0.3011259031,0.4097185487,0.7584727118,0.9276624891,-0.0660992564,0.4422749148,0.7520754554,-0.6822364518,0.5032327557,-0.8417335892,-0.6307309869,-0.7388118,1.0471923991,0.8115843669,0.0155942157,-0.1600205198,0.5459479789,0.6331174934,0.4969332937,0.6166463875,-0.4321650588,-0.3681157597,0.143851365,0.4408066827,-0.0266487649,-0.4576209076,0.8089967336,-0.3173049566,0.3973790796,-0.4028311175,0.7988140402,0.7899388773,0.4217781409,0.1226791529,0.0327405652,-0.7056894867,0.6072070336,0.0709665138,-0.2032983036,-0.044303142,0.6737571586,-0.3666882777,0.0550648932,-1.0072358527,-0.882186235,0.4891521316,-0.9759374191,-0.7248335176,-0.5866626033,-0.858694631,0.171444395,1.0468197845,-0.3212345453,0.101399952,-0.6508166078,-0.6351612525,0.2318386096,0.7002901297,-0.783002172,-0.3767852539,0.9729023104,-0.1782436838,0.3184629303,-0.7794407557,0.9672175546,-0.3844364401,0.227185751,0.8686734845,-0.9289114871,0.2003485907,0.2373497372,-0.6328594189,-0.5196665836,-0.5262659207,0.1126853712,-0.7140516403,0.5206972387,0.3887631096,-0.4896384908,1.0952573974,-0.6255745479,-0.88404551,0.2098767872,-0.2818180556,-0.77848372,0.6809879511,-0.1434299116,0.2354431703,-0.2690929325,0.1783885441,0.6213416786,0.7542916254,1.0578833108,0.1986664531,-0.2192102843,0.8429613079,-0.3623547411,-0.292763691,0.720201736,1.0716492121,-0.0701914346,0.1558948301,-0.0480449902,-0.1426733123,-0.3810046461,-0.1193865424,-0.9054543431,0.4897547818,0.4592128801,0.9255691599,-0.7531904524,0.3524809745,0.4194391526,0.9268606678,1.0355305645,0.0766214448,0.4170208306,-0.6731962049,0.5381673807,0.137954479,-0.4381956969,-0.4422191118,-0.4957969836,0.834546535,0.0031828039,-0.9100685831,0.3101092975,1.0318049791,-0.627338409,-0.8156723573,0.1177183521,1.0676084157,-0.318891011,-0.5761057401,1.0716347942,0.1388111504,0.9075850499,-0.6780001267,0.9452339326,-0.8502551053,0.7826608009,-0.3195165522,-0.6718897088,-0.2369590254,-0.5611416085,-0.2113012777,0.1496700254,-0.0046937628,0.7592008094,-0.8140293925,-0.8192881292,0.2255374243,-0.0292300213,0.8571069792,-0.6737836836,1.0020989034,0.4553865754,0.0372919981,-0.5196428693,0.9003608475,0.4317795654,0.2001665981,0.3754668605,0.1270787508,0.3149731767,0.822505245,0.9925588143,-0.5393184732,0.4402314981,0.2315241354,0.0106697689,-0.1833528001,-0.4638876465,0.4841025192,-0.2602831416,0.1467532005,-0.6495982865,-0.5792690605,-0.8493213053,0.2838277055,0.9080600889,-0.4964220543,-0.2254081012,-0.5028727029,0.8059778625,-0.3559094278,0.623066418,-0.8509489316,-0.3352634654,0.0918524419,-0.3615087011,-0.8525127568,-0.1912520338,-0.7414762131,0.1082926836,-0.4728091441,0.0797699858,-0.5314148928,-0.4036219092,-0.3778952056,0.3476055394,-0.4003283048,0.5666630061,-0.782079819,0.9798272147,0.3394317648,0.3547506108,-0.889241554,0.7265094376,0.1248601479,-0.6631688379,-0.845921465,0.1284335779,-0.1941260826,0.3621191314,-0.0244041556,0.9810060394,-0.7791973019,0.6299007412,-0.0354816249,-0.6778069207,0.5177128676,-0.1533769116,-0.5643592986,0.8752287987,-0.1326180683,-0.2427880711,0.3988854219,0.7830634262,-0.8040765559,0.8270365565,-0.5431083932,-0.0590219976,-0.4281707557,-0.5294920297,0.1491762503,0.9414609566,-0.7403144991,1.0439137606,0.0781012834,-0.2639572697,-0.2230558346,0.9720205461,-0.1939771718,-0.6384941348,0.4680547887,-0.5854569597,0.6054201662,0.8696641535,-0.1800251866,0.0941517095,-0.4454588856,-0.4566586239,0.9820220426,-0.6893951894,0.51997366,0.9809950051,0.5451784317,-0.0871397339,-0.2330333229,-0.1600617078,0.679786785,-0.1678741101,0.7038802286,0.7987215398,-0.0275141271,-0.0968599406,1.0984557999,0.3348902102,1.0804371958,-0.0966913878,0.1677717281,0.9084762747,0.5173310284,0.7940599531,-0.7581627937,0.478661448,0.3155374369,0.9002308771,-0.2734635053,-0.0716598825,-0.8185490198,-0.5996610191,-0.1188137704,0.8399529635,0.5527423058,0.158405223,-0.0975112122,-0.5191392645,0.3335698024,-0.9538752612,0.951770025,-0.8448296965,0.5401930632,-0.2551586416,-0.8035847668,-0.705194003,0.4719259103,0.5767488685,-0.7784067781,0.4304378499,0.1310726556,0.1039727477,0.7467886395,0.8133389655,0.8667348649,0.3081035209,-0.212261418,-0.6556410804,0.9128669694,0.3156483252,-0.5422319414,0.6539169564,0.9645186103,-0.8406932456,0.1780042543,0.2863830853,0.6839072653,0.3656836192,-0.3462718815,0.9434631059,0.2271433504,-0.2823555731,0.5843863021,1.050207691,0.1378196569,0.8859611083,-0.2080812401,0.9942994661,0.3189133752,0.0986071055,-0.3068982631,0.9157385017,0.6398001715,0.0360283837,0.293094831,-0.3296717527,-0.2897409955,-0.1675365609,-0.0096432789,-0.1324661427,-0.433870472,-0.1257273411,0.0970059414,-0.2892118819,0.960156276,-0.1905609251,-0.0148230639,0.0655209625,-0.2830592601,0.821214743,0.1754138909,-0.0555483531,0.9745658349,0.9518320966,-0.3434571354,0.6516711771,-0.0876193832,0.2062554694,-0.2647222103,-0.7603210071,-0.8682568525,-0.6026972884,-0.282528392,-0.7114841419,0.8904981093,-0.344752434,0.4738673691,0.7493728128,0.614720328,-0.7617236571,0.3644351299,-0.088796667,-0.6372548373,0.0668568613,1.029365774,0.6160844335,0.7501678567,0.2997717777,-0.0507649789,-0.7213749062,0.0257693638,-0.6750656632,-0.53237106,0.5936270396,0.630886669,0.7028987445,0.571452466,-0.4086002065,-0.5604052656,-0.3746276369,0.5257516184,0.4120231545,-0.3373142488,0.461681318,-0.0320854547,1.0345519084,-0.3437388723,0.547849304,0.8218070273,-0.4891428277,0.7766951403,0.9314820317,0.8470514108,0.0735004703,-0.311215607,0.4851430081,-0.5317249998,-0.2803922134,0.6970821155,1.0607943663,0.716428719,0.8401473926,-0.1775673838,-0.169805406,-0.0530395365,0.3471289833,0.7745892404,0.0639553258,0.4825419388,-0.3170742929,0.0067972983,-0.2568727131,-0.7737997205,-1.0672002896,0.3197053539,0.7614143428,0.8010530575,0.3062139095,-0.3522861405,0.1851895508,-0.0861374244,-0.3678366328,-0.7707576713,-0.4489557114,-0.027057773,-0.5077353076,0.3981097364,0.132687991,-0.79453238,-0.5140867825,-0.5280458945,-0.4732867333,-0.4450384151,-0.7036903583,-0.3993114038,-0.168323582,-0.7930675339,-0.0457228577,0.0654733395,0.0387088959,0.3422938794,-0.8213449662,-0.6932916866,-0.7354824294,-0.1658768463,-0.1649711227,-0.4723593833,-0.4406141747,0.0300144464,-0.636759495,0.0682685273,-0.340716879,-0.3672449272,-0.8226318146,-0.4885797424,-0.1779896155,1.0366586114,-0.7990880996,-0.8457769056,0.1406566826,-0.4337293465,0.7882191401,0.7520313652,1.0055328626,-0.0693248493,-0.837741198,-0.0949086342,-0.6605833461,0.1201979764,-0.4934075363,0.8419831654,-0.4806555661,-0.3789230215,0.6026974071,0.3382306491,-0.6692549328,0.9149085267,-0.5830049803,0.7752413432,-0.1050596619,-0.0110712896,-1.0688268879,0.120120689,0.5460386695,0.2802255993,0.0086893262,-0.8896890208,-0.0645052495,0.3829578891,0.841999533,-0.7657875941,0.7287114444,0.6721717526,0.4868530114,-0.2256388318,-0.383039456,0.6432489067,-0.2491490214,0.6694903416,-0.6212460996,0.667029193,1.0993910108,-0.4097362328,0.5777656368,-0.6882848094,-0.9515251379,0.0371135974,0.2079210011,0.5199062073,0.0645219016,-0.321687771,-0.0611120309,0.2483477264,-0.4414805088,-0.1912067916,-0.7958858757,0.5423549738,0.7856464519,0.8870780422,-0.0716878869,0.1441414062,-0.3498845525,-0.7412647188,-0.8556379395,-0.5439850035,-0.0272361673,0.2265603993,-0.3237731727,0.6544763918,0.7123224993,-0.3787989938,0.3190235444,-0.1491616816,0.3977903093,-0.6145285308,-0.6136234293,0.5991321843,0.4576911753,0.5109734661,0.1851034873,0.8153098898,-0.133489262,-0.6072681013,-0.5568072694,-0.0529515866
   0.6810620933,0.2307776108,0.4510891052,-0.4387591427,0.6824380619,0.2658690194,0.051169823,-0.6582320117,0.1448611284,0.6311613621,-0.2596478569,0.0258586086,-0.135512019,-0.3072481025,-0.2853637246,0.7775697122,-1.0414187849,-0.2741909437,0.1536437716,-0.6545535244,0.0257506897,-0.6355536824,0.7696282197,0.480339198,-0.4212488922,-0.8228609546,0.5708253849,0.3218502734,0.3282333621,-1.0090102253,0.0113986861,-0.0402397675,-0.5486943143,-0.2928619958,-0.7382776135,-0.2318953646,-0.6448182718,-0.6073219108,0.2833205872,0.4516247144,0.1140842483,-0.60464705,-0.1549739627,-0.1086368674,-0.8291721956,-0.6884022566,0.1104791639,0.8097759133,-0.0212049276,0.2225123508,0.7306563497,0.1905027222,0.6298835367,-0.4754613186,-0.855807388,0.4826431588,0.6520004252,-0.4845747383,-0.5439929538,0.6469545577,0.8409979073,-0.0850475507,0.0713590124,0.2681868841,0.1012320476,-0.7165724594,-0.8733531067,0.4648206963,0.6582151145,0.1302769446,-0.2610964255,-0.1369506796,-0.1949893944,-1.0220140783,-0.4035170489,-0.4445175354,0.5000841734,0.4663134557,-0.4567809999,0.3378829632,0.1585518348,-0.7842272256,-0.2344214073,0.7134705993,-0.4021697381,-0.4378073129,0.5095490578,-1.0150288057,-0.4689969277,-0.4244064867,-0.2823342176,-0.7154651423,0.1165118618,-0.7128823577,-0.8865013626,0.6571562727,-0.8508170941,-1.0922273288,-0.6514460944,0.4958330374,0.613799645,-0.9077230781,0.8584002434,-1.0539397633,-0.3740552977,0.5245988275,0.4151917706,0.5502505467,-0.64552732,0.434890678,-0.8444825131,-0.2694261557,0.5177565721,-0.0773747517,0.1842055701,-0.1054531404,0.5319048114,-0.7954011456,0.4954436549,0.4647233818,0.3965900189,-0.2694108309,0.2117890373,-0.1496901066,0.1132640828,-0.4922218971,-0.8264483281,0.3050327802,0.1531760157,-0.4337817081,0.6309836147,0.2632415616,0.3368298006,0.4402815984,0.1805261013,0.6241202521,-0.0484908181,-0.6256266283,0.8658547069,-0.8492677452,-0.7952380699,-0.2773359798,0.8403950632,0.6219045408,0.3621560672,0.2615333878,-0.42066595,-0.2493301611,-0.5172624632,-0.6497303221,-1.0706880285,0.1437869891,0.888942039,0.3892816897,-0.8562214504,-0.3251362225,-0.1752399266,0.1983768255,0.5128168783,-0.0197621687,0.6258431584,0.2515910396,0.4863496941,0.0597249429,0.6494107053,0.4040504291,-0.2977788999,-0.6730075278,-0.0582291529,-0.4242469876,-0.0283443434,0.4043189732,0.1356824751,0.0005183988,1.0903016372,-0.1408724114,0.2629249213,0.4944604789,-0.0998989412,0.6530218394,0.251945336,-0.4484355856,0.4944349129,-0.1014066965,0.0901999431,1.0504783652,0.0473508191,-0.4940188607,-0.6614006458,0.7048331728,0.1759858624,0.3989385476,0.9444205099,-0.5260514847,0.0093942218,-0.5097268967,-0.79752236,-0.0075533978,-0.7068847501,0.1852781697,-0.2547584357,0.5130429531,-0.1639940558,-0.221149968,0.4400403027,0.2474195036,-0.3798557195,0.81333313,0.7235492294,0.4076858974,0.680315504,-0.8362054211,-0.8726811249,-0.4903222569,0.5388142323,0.4090885935,0.4566586527,0.477922027,0.6973955868,-0.0741231944,0.9330623232,0.2602963557,-0.5502334459,0.1337412867,0.7756184824,-0.6665343302,-0.1408120142,-0.1008594925,-0.8373427728,-0.2294942279,0.5016128272,-0.3647797433,0.7711641783,0.5177264074,-0.0864045059,-0.7862198095,-0.4530480832,-0.9424580135,-0.6279255195,-0.0614451898,0.8400344738,0.2023584976,0.1303499309,-0.0159926542,-0.5933831558,-0.414679251,-0.1918266322,0.3417218834,0.096422375,0.3988388449,0.3446490087,0.3641856777,0.6275587159,-0.0795766621,0.4918823693,-0.8300361742,-0.2191009447,0.781797329,-0.8441947425,0.0204444398,0.9642764456,0.3727972879,-0.0619529018,0.6091170554,0.7944156643,0.9800937794,-0.4261835543,-0.1731782612,-0.6741258985,0.7387172845,-0.2433664127,0.8478339768,-0.8425560424,-0.4469733446,0.5980527273,-0.0091814345,0.2016703319,-0.0597618938,-0.7379590983,-0.8964602033,0.7491756095,-0.0954745862,-0.3861417333,-0.2139292289,-0.300124316,0.7909276779,0.2263381536,0.9780470056,0.2361293337,0.9163234292,0.8965049517,0.8895384911,1.0554616522,0.9434179386,0.4278398781,-0.1043853108,-0.4963699496,0.5234489279,-0.3410378833,0.1197083801,-0.4975114207,-0.1806054767,0.8573518658,-0.0145439211,0.1527205603,-0.1002881742,-0.3372509696,-0.8221138347,0.1511898816,0.1348234757,-0.2597074067,0.3688992959,1.0651472511,0.6530841483,-0.0436212371,-0.370679716,-0.0738555169,0.1722793571,-0.9748781243,-0.4407681454,0.2820827793,-0.5582299106,0.7998227915,0.998771477,0.9799186921,-0.8374551063,0.9654372051,-0.7894048202,-0.2846082197,0.7417742285,0.077990336,-0.5613572054,1.0658828316,0.2292993484,0.288546077,1.0265095024,0.8493328832,0.5863376078,-0.7856487988,0.0983828628,0.1339339571,-0.6760057492,-0.6024781292,0.0443965833,-0.0418215734,0.8124038301,0.6967897567,0.6201452712,0.0721169697,0.9949638689,0.7861516662,1.0593326193,1.0874034067,-0.6426021832,-0.216620856,0.7300530967,-0.5044772972,0.9668273952,-0.7611958911,-0.0469852776,0.5622482616,-0.257605643,-0.8357741924,0.1564271553,0.0344789164,0.9436721383,-0.5987234891,-0.6544147991,-0.5905006691,0.9555419049,-0.6383259232,0.6213616736,-0.8546150676,0.8090350449,-0.3222417894,0.254563763,0.6574442017,0.7101106358,0.8510742578,-0.7091534181,-0.4373702181,0.3860798862,-0.0404990343,0.3654897148,0.0949164837,-0.8080209805,-0.3464220517,1.0403255903,0.5087492907,0.4046427768,-0.8395119805,0.5628446694,0.0477697602,0.629420686,-0.7502969125,0.9157664559,-0.8962794244,-0.7835184843,0.1643897637,-0.6781354609,0.2890791871,-0.4227561664,1.0950909593,-0.6891384473,0.6155232064,-1.0340417266,-0.0609997895,0.0219164143,-0.8475355638,0.5686462587,-0.4254858704,0.3002391462,0.382169531,0.1596218884,-0.8966580837,-0.9434418759,0.3360689178,-0.8834015782,-0.2153589512,1.0606156333,0.3186308478,0.9513150167,0.8181568983,-0.6193496557,0.3743017631,0.1867489594,-0.4517845957,-0.3752108072,-0.5467275516,0.0488094731,0.9826231784,0.6214016215,1.0053803337,-0.0744141996,-0.7450481478,-0.6637994192,-0.5261333819,0.6019560467,0.5293703913,-0.394102379,0.845675529,-0.1851496764,0.7703099776,-0.0928296023,0.2990539289,0.5761013025,0.786796517,0.8918573755,-0.7075381036,0.0257049051,0.6687394518,0.0119430115,0.3142544895,0.3647678145,0.6591147701,0.0687489237,-0.1181108928,0.5375012182,0.4451104625,-0.7634170946,0.4791853579,0.7509925524,0.7707241364,-0.5826434423,1.04154809,0.5195456289,0.8208260658,-0.488714422,-0.6436879291,-0.4202685852,0.417623613,0.2691379705,-0.5419010365,0.7255165359,1.0413467078,-0.12136523,-0.3107601695,0.4335716841,0.7914659159,0.2478525792,0.0377417409,-0.0014452272,-0.4844050872,0.5681761651,0.3052475514,-0.0473675289,0.8473908339,-0.2454895951,-0.8386573806,0.986772635,0.9651563508,0.1696558715,0.2372152143,-0.8167182282,0.5314397766,-0.0104616457,-0.7235033775,-0.6890878487,0.0811941405,0.1813377756,0.8293839848,0.3219208855,-0.2217441854,0.4860478893,0.9378163325,-0.2896701112,0.0639555932,-0.2794558462,0.1468087669,0.8112067024,0.2703767636,-0.7144246413,0.0332408305,-0.2883899805,0.2804131283,-0.3736165401,-0.3594426314,0.1351435868,-0.7605324285,0.5278496512,0.0848304918,0.4206995016,0.9677313188,-0.8894358066,0.4419132463,-0.3858130571,0.8541233917,0.4586593559,0.5260310795,-0.2195293455,-0.7092249483,-0.5180311261,1.0247240529,0.6917075675,0.8695328668,0.0024543717,-0.8811339032,0.2679937008,0.474687012,-0.6570974805,-0.343055597,-0.4005195563,-0.756015585,-0.3482276457,0.953833861,-0.0815230081,0.5224385343,0.4021420107,-0.1140300611,0.1451638495,-0.2583766416,-0.1357951095,-0.6823620101,0.872836758,-0.2868506732,0.7435749863,1.0443976918,-0.573329064,-0.1669160639,0.8863900112,0.6439138257,-0.1494712709,0.4371821582,0.7061728614,0.8929195804,-0.5201994013,0.8180961961,-0.1294727146,1.0272072279,-0.770385452,-0.7327584455,0.6689368947,0.6054411259,0.3210800063,-0.005867365,-0.5815451512,0.0408050512,1.0735541228,0.308432735,-0.7786156426,-0.6628656142,0.2868192844,0.6707175776,0.1535222659,0.443066961,0.9772394791,0.9541494941,-0.5109874184,0.729940898,-0.5426201082,-0.5294041736,0.6233725897,-0.2026973758,-0.6013075619,-0.1523553093,-0.9797859265,-0.5775854237,0.4613195177,0.3230557898,-0.8766667017,-0.3093024759,-0.8547430485,0.2393015721,0.5549701298,0.3255959581,0.1029845211,-0.7897660686,0.561347176,-0.3659418323,-0.4022482023,-0.9288793167,-0.3149419597,1.0206026877,0.8130168364,1.0515280471,-0.1958313355,-0.0314166512,0.8527499669,-0.311056038,-0.4543666034,-0.6149163124,-0.0955001343,0.0739001972,0.4518567956,0.9462359244,0.2933243601,0.5207023803,0.3947196516,-0.2859979598,-0.7303269122,0.4166305816,1.0724701069,0.908485272,-0.8418534615,-0.5654920803,-0.8523953342,0.4772524134,-0.2458095615,-0.2259504899,-0.2095943614,0.9078510598,0.9068429751,-0.7452137672,1.0492250937,0.7302186682,0.118248073,0.6590969824,0.8885022558,-0.7719609432,-0.0224067208,0.3273550261,-0.0847052892,0.657094071,-0.1115815439,0.242350758,0.5169817218,-0.7666489919,0.5469861289,0.2897420897,-0.6307209608,-0.6400910098,0.43948802,-0.3072422071,0.3916275396,0.1986750551,-0.4581078542,-0.5546665695,0.2941243388,-0.556355776,-0.603202722,0.4609803271,-0.2993350643,0.9038101093,0.1681745067,-0.8297047034,-0.266175794,-0.4967024698,-0.5925506927,0.9390655167,0.4160011707,-0.071043462,0.4006408995,-0.8043623543,0.217227447,-0.5751797813,0.6696090059,0.4936222658,0.8999091488,0.7691640416,-0.8887428603,1.0728469588,0.727177927,-0.1897408745,0.0688006578,0.2863824067,-0.8321678339,-0.424460734,-0.0911928867,-0.5510955685,-0.2954953125,0.2550319947,0.4197718468,0.8398519398,-0.8855425782,-0.2967374485,-0.6816587273,0.1429260141,0.1103325683,-0.4144547586,-0.4173963652,0.4250055383,0.0852437783,-0.6982147375,0.7901326894,-0.339466085,0.5126082232,-0.4045568376,-0.6539701088,-0.4820397362,-0.5307211472,0.7677343135,-0.6099307639,-0.3873175378,0.5174127858,-0.7952709651,0.8998574187,0.8774351904,0.7699706882,0.1878829336,0.9209408868,1.0939887786,1.0578047835,-0.0770701037,-0.7763322373,-0.2644787109,-0.4057614446,0.6068611832,-0.5499856452,0.1772570173,0.5861118014,-0.8298992349,-0.035038795,-0.3387294913,-0.7543590173,-0.0258822215,-0.0554119073,-0.2640890124,0.7165711891,0.8289321645,-0.3096729742,0.4235251274,0.4072205133,-0.7017536628,0.0643196757,0.0822071862,0.5422475524,0.4749026418,0.6121344275,-0.5018213926,-0.8255736879,0.8178695765,0.9063869492,-0.1510824515,-0.2942176242,0.9379415098,0.7448411159,-0.5935624104,0.2725915449,-0.239596219,-0.499578955,0.1291646042,1.000296104,0.7887505375,-0.5691446264,-0.2341489973,-0.4648953232,0.0978281962,-0.4202485493,0.6680893538,0.5757991308,-0.5074583955,-0.6235181892,0.9743254908,0.4102880675,-0.4831525606,-0.8034591802,-0.6675831955,0.7703364713,0.330596494,0.0138012687,-0.7279230728,-0.8641289277,0.7238348268,-0.2005171343,0.3233121556,-0.8098311659,-0.2960266403,-0.3932653194,-0.3988879657,-0.3957774895,-0.827505911,0.1190639517,-0.3590060479,-0.4457802479,-0.0613717022,0.5470621022,0.3040620767,0.4902082218,0.2936216373,-0.7685235191,0.1447384125,1.0495253175,-0.3240831948,-0.1374779911,0.4585749154,0.5250671971,0.024796895,0.6607292113,0.6192146177,0.9760671132,0.015579004,0.5655253578,0.8153086594,0.9812126666,-0.0415088056,-0.2530126328,0.2079402432,0.3621804994,-0.6353953803,0.9924910232,-0.8348425796,0.4205086333,0.737395938,0.8825104346,0.4536355,0.4701530545,0.0501678327,-0.2603053086,-0.2214676036,0.6261362692,0.7598509592,-0.0668134958,-0.8128322881,-0.1406618209,-0.3279092714,-0.035688837,-0.435419268,-0.3948253327,0.6870450446,-0.2318304903,0.5654737675,0.3912894075,0.8072974113,0.2288294652,-0.5837655607,-0.5169593323,0.3367526016,-0.3835760336,-0.1175540662,-0.0815149496,-0.106272894,0.2691415835,-0.4071316591,0.1870728356,0.6995980679,0.2632728928,0.4805922905,0.553712151,0.501083335,0.7449660994,1.0868473232,-0.5444901991,-0.8179329806,0.9551306161,0.9065034491,0.9663264159,0.6144768806,0.1816753638,0.3560872593,0.3841004545,0.2914753142,-0.197505445,-0.6435302591,-0.4251807653,-0.0008715711,-0.8669038445,0.7544798593,-0.4366365893,-0.1108669138,-0.0151611969,-0.3185050724,-0.1110138635,0.9680344629,0.8023895291,-0.8329291674,0.5456799095,0.8847863423,0.8252698628,-0.9589440534,0.8227420331,0.5427151097,-0.4987277848,-0.1623981782,-0.484925937,-0.586741504,0.681698683,1.0303487629,0.110726256,0.9486263395,-0.361225446,0.1182082689,0.8067165771,0.8867941973,-0.8075337562,0.174916886,0.150647246,0.5949507654,0.8097908371,-0.2931225784,0.9432672006,0.4560505674,0.2671936545,0.2159998387,0.5042187981,-0.1549120623,-0.6289860076,0.3668409563,0.1443498784,0.3243233156,-0.8220637323,0.0907345768,-0.1240693155,-0.7986995265,0.4907724813,0.8614858017,-0.8045787253,-0.8454382333,0.3373265535,-0.3339890207,0.1453940152,-0.6039433454,-0.8420200309,-0.0277876519,0.4998857136,-0.0129152809,-0.2706193278,1.0938541034,0.6726825258,0.4050436216,1.0351143227,0.5649765744,0.0741999368,-0.6046948521,-0.8359803612,1.0702331577,0.5250127649,1.0270662942,-0.7779057256,0.449294565,-0.4947709251,0.3106720806,-0.0641271983,0.0499869285,0.3390643243,1.0813599587,-0.7803653473,0.2518231049,-0.5601844877,0.6961323507,0.99492769,0.9602964543,0.9398600653,1.0362820221,1.0605508099,0.238244409,0.6723967712,-0.1167658924,-0.4914898434,-0.0780830157,0.7593655085,0.3972325916,-0.7831010504,0.2498331812,-0.7971433368,0.1405468317,0.5369530931,0.760079196,-0.7706173175,-0.8288916472,0.9486253696,0.9086335071,0.8365843478,0.4259292789,1.0434866071,0.9516901648,-0.3041577588,-0.7277582329,-0.0816439244,0.216805901,-0.444148797,0.7957165925,-0.1530605103,0.8089578241,-0.6857032758,-0.7766213974,-0.0064555858,0.1096356915,-0.0160257623,0.4222120262,-0.4308591276,0.4762746851,0.0176494855,-0.3724570569,-0.2732788189,-0.5562504434,-0.0197351729,0.9760033643,0.7441750502,-0.5991470949,0.9656727026,0.8656827433,0.365456262,0.8443937618,-0.7103492717,0.4839697303,0.2431624571,-0.5567228971,-0.0639112595,0.7004217727,-0.8328589568,0.3593330822,0.3553525782,-0.2785210014,0.0786126886,0.8774598212,0.7711831232,-0.1946862317,0.6715462711,-0.2768772598,0.9707156642,-0.4099095953,1.0309913059,-0.3371349435,0.0015245561,-0.8386062879,0.1248990616,0.0481339285,1.0063528178,0.4649501445,0.6540105137,0.6104496821,-0.1448373213,0.2723717642,0.8629001597,0.7069844194,-0.0270242165,0.217572688,-0.0064359134,-0.295962727,-0.7282240737,0.6832547936,-0.7050428911,0.3816225223,0.9226421035,-0.0426026667,-0.6514941866,0.7332017905,0.5450140909,0.6571963552,0.0428978783,0.5103449215,-0.0831376899,-0.7936140881,-0.1343934966,0.8111255411,0.888853226,0.0649294382,-0.6684304746,0.1322216409,-0.7123819814,0.3458748491,0.5866620819,0.251462336,-0.3040185227,0.1662993688,0.8299685609,0.3270027944,-0.2049938555,-0.1125935548,-0.8856615263,0.764724008,-0.4333908224,-0.3234685781,0.6548016215,0.505606818,0.7613481699,-0.885843893,0.5739923,-0.5511889323,-0.4108530563,-0.4683298599,-0.6808050717,0.6881595966,-0.7011174345,0.9103358496,-0.2745597513,0.7037887809,-0.130646132,0.3397576732,0.9313703411,0.8518435872,-0.2079387802,-0.3896926178,0.8596596171,-0.6615613892,-0.5464354922,0.2530191846,-0.0590086505,0.3489504227,0.3604857788,0.4035187745,0.8111923057,-0.7202965598,-0.7933773031,-0.0985504196,-0.4707532626,0.3451134675,0.3993325394,-0.5879563724,0.9949927327,-0.2453027059,1.0197761795,1.0871044108,0.4783170344,-0.5823134727,0.1885228385,0.772219555,-0.5154261199,1.0606383032,0.8443124716,0.3216982467,-0.1293985719,-0.3145813962,0.9299971165,-0.2168264411,-0.7281529774,0.2531847884,-0.4379928045,0.1393293514,0.6310956855,-0.4425042751,-0.8948769826,0.7474907488,0.5899217051,0.6518004427,0.3610777953,-0.0096008413,0.050082749,-0.3547761514,-0.2391489403,1.0765676986,0.4738400961,-0.8952873059,0.6797841193,1.0167238451,-0.2799356342,-0.6099661782,0.9031970902,-0.6873297422,0.6606597976,0.0585988379,0.9176943485,-0.22102728,0.2655428848,-0.4753497054,0.1310318283,0.6679810212,0.270038061,-0.1457842704,-0.6882877469,-0.3519504609,-0.8415207951,0.3625684086,-0.8973959378,0.8568169566,-0.5093628479,0.6363621191,0.428280116,0.0214676665,0.4338069515,0.8045261533,-0.5977428993,-0.213285228,-0.3893105178,0.919318163,-0.3968713693,-0.2444996152,0.1479458066,-0.6839239523,-0.1425822366,0.5023266817,-0.7719283836,0.6369073883,-0.1074699758,-0.6334930154,0.0552479659,0.3769788325,-0.4814920024,-0.5683339291,-0.8535075484,0.5745126312,-0.560545282,0.3923709332,0.5749269563,-0.9121543241,0.583859785,-0.0466209086,1.0310685361,0.9458136929,-0.3407015041,-0.7179877289,0.9500873385,0.2566716811,-0.2593137422,0.2865731557,0.9868149532,-0.096016941,-0.2382151545,0.3797413132,-0.8990721094,0.574040957,-0.3037312767,-0.2926120344,0.0447147311,-0.0116827963,-0.5469779712,-0.0304746821,-0.3461141907,0.2468446122,-0.5723003752,0.5427581304,-0.4337002894,0.3651074083,0.687959463,-0.2590096043,-0.75564025,0.6625601343,0.2486113246,0.8978440671,1.0932700351,0.8556511643,0.7721017095,-0.2591006566,1.0336932521,-0.5323907388,0.436753108,-0.1696005493,0.2066138832,0.2027594386,-0.7759928592,0.9529231052,-0.110132669,0.9388280982,-0.5496252108,0.4761483915,-0.0679852398,-0.3284496599,-0.2847076864,-0.6983069444,0.4695699372,-0.7080448833,0.2071944572,0.3181079594,0.2221119874,-0.7265582673,-0.2239275698,0.3259500904,-0.2502653792,0.5485155203,0.1361649965,0.0489350264,0.1934820411,-0.7434843969,0.2936071433,0.0830220513,0.7931291628,-0.1771246687,-0.3000389852,0.7856469036,-0.225696038,-0.0282795886,-0.5785038525,-0.1763732581,-0.3801670176,-0.0982142037,0.951444586,-0.7419427623,0.7516464842,0.843405552,0.2261944782,0.1054333966,-0.6062747269,0.6095431509,0.9183325182,0.3515070033,0.6720411741,-0.2476345593,0.8263428439,0.766045268,-0.0252073539,-0.0951168911,-0.6751336425,-0.3624832119,-0.5847375331,0.053451848,-0.5302165769,0.5188293108,0.1643844243,-0.379547972,0.644103534,0.1050224373,-0.8137010042,-0.2569469645,-0.1815384409,-0.0402796095,0.3135409112,0.1264015577,-0.5617825929,0.7165116291,-0.4727036402,0.7874436611,0.3824758113,0.7092310215,-0.9856575122,-0.2613578534,0.7663956645,0.6076019638,-1.000780711,0.8136772522,-0.0283620377,-0.2875366601,-1.0614205067,-0.0845992428,0.5355790237,0.6490895524,-0.2328159231,0.8848160539,0.2096594451,0.7865348526,-0.860783046,-0.8939168996,-0.2710594593,0.7119530107,-0.9828154961,0.3254930663,-0.979877156,0.4204391455,-0.2451033169,-0.2915244017,0.1306040896,0.163210051,0.1044683461,0.0550750619,0.023229303,-0.6434981436,-0.5132323492,0.699925667,0.3444632688,0.6028952306,-0.4591183133,1.0798263255,0.8028139327,-0.5213828095,0.0001181489,0.7451754891,0.6463837372,-0.6304206004,0.4120727649,0.1253676115,-0.9953054797,0.9214286333,-0.7914521266,-0.7654175974,0.6713771024,0.7098871898,-0.9328539129,-0.4897398667,-0.3099871423,0.2259623092,-0.7971232694,-0.6597160592,-0.012648745,0.6264571356,0.4291856393,0.5383685861,0.7519330622,0.2860943436,-0.6035455052,0.2175874204,-0.7937451735,-0.8421070861,-0.5027437936,0.879296589,-0.6400577594,0.4445063077,0.721853438,-0.3536522353,-0.6293557087,0.3122489955,-0.7445084402,0.7734100207,-0.2987717494,0.3977775188,0.8229494425,0.2084379478,0.4803709892,-0.5311041143,0.1527459516,0.0079442696,-0.3660790407,0.2532614782,0.0468122036,-0.1769236898,0.2196781273,-0.2473032737,-0.4823060631,-0.334321873,0.5960132577,0.6202249369,-0.4735249298,1.0674834331,0.5168890769,0.4864320696,-0.4409517426,-0.1436875556,-0.185895089,-0.027527337,0.1683752931,-0.694091883,0.6582954543,0.6114440185,-0.0733142019,0.3385672584,-0.2559832378,0.6190526227,-1.0693502266,0.2817040678,-0.6289496981,0.6899374072,0.6506628308,-0.8548847328,-0.8714042176,0.8195982366,-0.4136267734,0.7687918757,0.8338834237,-0.5162220947,0.201986943,-0.6878471567,-0.0622079254,-1.0494927084,0.4464670276,0.3773992425,-0.3412860679,-0.3715261686,0.6173299604,-0.6174339612,0.1576015234,-0.318668879,0.2554168107,0.1388494167,-0.8886061414,0.5988794326,0.8880291494,0.8053144946,-0.790446562,0.4577144519,-1.0917435994,-0.7669195022,0.0460296223,0.1099420662,0.3948299985,0.1254380225,0.7208800682,-0.6303810014,0.8451714253,0.7353571881,0.6696871939,-0.1359605274,-0.0509747043,0.5218312983,-0.587803036,0.2750187932,0.7397256557,-0.7146441602,-0.2913014598,0.3081457309,-0.3714956474,-0.2772669062,-0.2724895747,-0.4254090588,0.2504138498,-0.4530391576,-0.2872116055,-0.156724383,0.5570595628,0.4815407186,0.7714833298,0.1335560345,-0.119862411,0.5009615644,-0.673190058,0.5965786278,-0.5754846946,-0.8904076838,-0.6254917361,0.2451255495,-0.5244794763,-0.4972518287,-0.3981684715,0.6161847279,-0.820488683,-0.1981774551,-0.3756289266,0.0347988598,-0.1412749219,-0.3082735271,-0.3674519689,0.5092806011,0.251547365,0.5005854385,0.8923935188,0.3278675871,0.2677520226,-0.8383660612,1.0408500544,-0.4437059238,1.0805887591,-0.5193446178,-0.6212675702,0.7608898882,0.5967749906,-0.3567735155,0.9844755648,-0.2800884567,0.1195893741,0.073217193,0.6055269536,0.6744991964,-0.4809981361,0.2959222994,0.3991874199,0.2222353302,-0.0804466353,0.3308626178,-0.8119474108,-0.6868056506,0.0199515975,-0.1417286036,0.7469766101,-0.3112369068,-0.5587808481,-0.7985710972,0.5536882186,0.0539990447,0.8156950838,0.0918719644,-0.6799211191,1.0830114523,0.395387784,-0.0668842561,0.4528052764,-0.4299316948,-0.6139292116,0.7655139664,-0.5867355991,0.4575527582,0.7080841372,0.2200517259,0.8679781955,0.9215267548,-0.3741730483,1.0198652952,0.6897053953,0.2075411049,0.9408078048,-0.8544748068,-0.5414825057,0.269082892,0.7616839743,0.0040176551,0.7833241781,-0.3437066233,-0.0008022253,0.0605463043,0.2112374073,-0.4481290396,-0.0563507211,-0.8734399911,0.9977413089,-0.329133527,-0.5936363039,0.5761156799,0.2728557975,-0.667225837,0.7284854603,-0.618267513,-0.0910362965,0.6235107451,-0.237287013,0.1848205395,0.3866541742,-0.3537494437,0.3509139624,-0.6939563234,0.6218846378,-0.5623655307,-0.6793154283,0.5261541756,0.4914647866,-0.716633546,-0.5389137052,-0.186153815,0.8423507203,0.3703960583,0.6399568195,-0.6561751254,1.0127028289,0.0461190343,0.9223254617,0.987698796,-0.2139379098,0.1168081189,-0.5110941115,-0.2399472808,0.1433773507,0.6383179542,-0.6705005147,-0.7294335206,-0.6849185311,1.090013055,-0.510314345,-0.1567611387,-0.0884842129,-0.5075146109,-0.455405854,0.6449291854,1.0698652308,-0.6089156864,-0.7100976659,0.9731539919,-0.8910818921,0.0284351347,0.1562206279,-0.082609982,-0.0205140636,-0.4014987095,0.0302488974,0.6687212181,0.4449370339,-0.1556256698,0.064865739,0.8264056173,0.6561021807,0.5152135074,-0.1017000923,0.1508006927,-0.3886407156,0.6700066108,-0.4831373021,-0.3071392361,0.6761195695,0.3561111517,0.7914518137,0.8098972149,0.4039397114,0.7257102028,0.9061468225,0.5184902189,-0.2281232238,-0.7689952089,0.2155467835,0.1182485089,-0.5882607068,-0.0459091,-0.0110378741,-0.7354166009,0.6628213841,0.3219993974,0.7273026543,-0.7691902406,-0.8608236331,0.686090884,0.497255642,0.112462155,-0.7036962154,-0.0462728138,0.9996659698,-0.5594588987,1.067351909,-0.775836744,-0.7582118183,-0.3470572491,0.9749129077,0.1892623225,0.5579402541,0.0108177517,-0.5676584178,-0.7984613692,-0.2999574017,0.1976916493,0.9530770175,0.0855267388,-0.5117443402,0.3982951193,-0.6922090039,0.175259332,-0.3530376699,0.9838225431,0.1181989484,0.8269019163,-0.1599495511,0.5685573791,0.0809353339,-0.1147730032,0.4141594911,-0.3863424518,-0.0932851469,-0.7107483031,-0.10358089,0.984417532,-0.5534986977,0.020652277,-0.5842728685,-0.5718611638,0.7515280211,0.0658094122,-0.284129306,0.5725226159,-0.7374450808,0.8924314979,0.211917548,0.9065931282,-0.434520878,-0.0816938288,-0.8133682754,-0.5688862373,-0.8900241953,0.2911327477,-0.7961145453,0.8370747274,0.3128398109,-0.3969392971,0.7001868888,0.1962249475,-0.5420783289,0.3959195301,1.0374735762,-0.6279439975,1.0567364721,0.8970668669,0.1602833263,1.0534849275,0.8160543992,-0.8585838485,0.4945185013,-0.1818665451,0.429267579,0.0885113859,-0.7175116648,-0.8013017906,0.3177075786,0.3392007892,-0.3334361118,-0.3383016223,-0.6174481299,0.1642045865,0.0746897728,-0.6403437193,0.6758407962,0.8572924911,0.8750502455,0.5441154222,1.0806645054,0.1620553741,-0.2525810006,0.0787304679,0.8750452877,-0.420466339,-0.6394689516,0.7336303777,0.3230946432,0.7416522913,-0.1457968772,0.412891274,-0.0427058679,-0.2339787393,0.3338331639,0.4809890081,-0.2948961299,-0.2924472514,-0.726254788,-0.6938462361,-0.016407012,0.5612909693,0.8570011519,0.8113978778,-0.6145043791,-0.7968854713,0.8995376035,0.4428632456,0.5061040744,0.9234601072,-0.0168755374,0.6525112522,-0.7927409353,0.2047138781,-0.4820085019,-0.4657732703,0.0843338646,-0.0946468355,0.3940882857,0.8565730057,-0.6382677224,-0.5784235813,0.7665362382,0.972181053,-0.5549712162,-0.0828728706,-1.0059913802,-0.393661823,0.0553379885,1.0941724638,0.9485693555,0.5692315349,0.392874635,0.9682702511,-0.1212973291,0.0140436688,0.0002287086,-0.5625338545,1.0109531431,-0.2761497766,-0.0582852194,0.4057040036,-0.792755335,-0.1921033685,-0.514824466,-0.076095255,-0.3971996064,0.064961282,0.4490768741,-0.1252900872,-0.4828014097,0.551530857,-0.7009416325,1.0531796727,-0.0654238306,-0.8806539544,1.0183887774,0.862863952,0.9498320947,0.1269820039,0.4201507784,-0.2135861506,-0.0440198281,0.9594243016,1.078149864,1.021839425,-0.8429593032,-0.4028350026,0.7720122197,-0.7472853084,0.6230511765,0.8744756457,0.2660920815,0.1508355409,0.0380078838,-0.0110935383,0.1402974603,0.8171768426,0.0087672058,0.9969697014,-0.3137023594,0.0019483989,-0.7652155545,0.5793048995,0.8568591956,0.7726193612,-0.8157983149,-0.1755995599,0.6101321038,-0.8511126746,0.9392380354,-0.881190368,0.8013526407,0.2424260005,0.4150328608,0.5734042183,-0.8754529143,0.0632980926,-0.0476317601,-0.1158491055,0.5235489477,0.587487327,0.051026221,0.645936204,-0.4598842667,0.0328771152,1.0397049025,0.4384342204,0.8122046657,-0.3079922369,-1.0000614564,0.4213073643,-0.6129581685,-0.4541955859,-0.6723642329,0.1468540561,-0.3944226045,-0.7229971398,0.282906769,-0.2830610265,-0.8129124468,0.3245557171,-0.8767860668,-0.1316772381,0.6295985502,0.366638817,0.0551703246,-0.8674149453,0.119451681,0.8244403463,-0.4421322898,-0.219013459,0.5284056076,0.5436471307,0.0183453791,0.6910651881,0.1240179714,0.4675378039,0.5942176649,-0.6430437763,-0.8423536848,0.9254057771,0.9511039976,0.4532336646,-0.1211244541,-0.7812838476,0.5376630423,1.012557784,0.3925174195,0.6194499112,-0.0968689773,-0.3114553934,-0.7575780718,0.3807178467,0.3539992093,0.118952375,-0.2466990101,-0.6371726051,-0.7863068186,-0.103583221,0.4835105887,0.0392608785,-0.3203193044,0.4930800602,0.2869440306,0.6288823863,0.8959307242,0.5853329437,1.039301646,-0.5506746915,-1.0057100119,0.9861868572,0.0141141658,-0.719044549,-0.8477055587,-0.454195905,-0.4527746343,-0.5348804244,-0.2925003619,-0.8913531933,0.3233199542,-0.4306840892,-0.1245477839,0.192674345,0.9425491745,0.4430446253,-0.1320350339,0.2499517889,0.8274513222,0.143167746,0.7764158047,-0.2264150709,0.9745637629,0.481722138,0.9702312636,-0.2388232095,-0.343045046,-0.0982563858,0.277025574,-0.0756394568,0.6257194447,0.8268877614,0.6340362998,0.6615458259,0.5809162752,0.1149419617,-0.3800739115,0.6031031119,0.3961209089,0.6658936214,1.0587878609,-0.8498971847,0.3461198159,-0.6765095849,1.0322017632,0.6195248371,-0.2752325307,0.0395482573,0.3451868858,0.1337737574,0.9147264546,0.1804367924,0.3906339718,-0.2545332565,0.487507783,-0.091842275,0.84658019,0.5380383121,0.1173142465,-0.7048926581,-0.8388629042,-0.7586530683,-0.5616034608,0.1994929951,0.3311195078,0.8435481568,-0.4402272883,0.1538360456,-0.5766416228,-0.8562445132,0.2319124921,1.0542304202,-0.1845996082,-0.2454478754,0.5610079436
