encog,BasicNetwork,java,3.4.0,1,1589727845311
[BASIC]
[BASIC:PARAMS]
[BASIC:NETWORK]
beginTraining=0
connectionLimit=0
contextTargetOffset=0,0,0
contextTargetSize=0,0,0
endTraining=2
hasContext=f
inputCount=510
layerCounts=235,128,511
layerFeedCounts=235,127,510
layerContextCount=0,0,0
layerIndex=0,235,363
output=0,0,0,0,0,0,0,0,0,0,0,0,0,0,0,0,0,0,0,0,0,0,0,0,0,0,0,0,0,0,0,0,0,0,0,0,0,0,0,0,0,0,0,0,0,0,0,0,0,0,0,0,0,0,0,0,0,0,0,0,0,0,0,0,0,0,0,0,0,0,0,0,0,0,0,0,0,0,0,0,0,0,0,0,0,0,0,0,0,0,0,0,0,0,0,0,0,0,0,0,0,0,0,0,0,0,0,0,0,0,0,0,0,0,0,0,0,0,0,0,0,0,0,0,0,0,0,0,0,0,0,0,0,0,0,0,0,0,0,0,0,0,0,0,0,0,0,0,0,0,0,0,0,0,0,0,0,0,0,0,0,0,0,0,0,0,0,0,0,0,0,0,0,0,0,0,0,0,0,0,0,0,0,0,0,0,0,0,0,0,0,0,0,0,0,0,0,0,0,0,0,0,0,0,0,0,0,0,0,0,0,0,0,0,0,0,0,0,0,0,0,0,0,0,0,0,0,0,0,0,0,0,0,0,0,0,0,0,0,0,0,0,0,0,0,0,0,0,0,0,0,0,0,0,0,0,0,0,0,0,0,0,0,0,0,0,0,0,0,0,0,0,0,0,0,0,0,0,0,0,0,0,0,0,0,0,0,0,0,0,0,0,0,0,0,0,0,0,0,0,0,0,0,0,0,0,0,0,0,0,0,0,0,0,0,0,0,0,0,0,0,0,0,0,0,0,0,0,0,0,0,0,0,0,0,0,0,0,0,0,0,0,0,0,0,0,0,0,0,0,0,0,0,0,0,0,0,0,0,0,0,0,1,0,0,0,0,0,0,0,0,0,0,0,0,0,0,0,0,0,0,0,0,0,0,0,0,0,0,0,0,0,0,0,0,0,0,0,0,0,0,0,0,0,0,0,0,0,0,0,0,0,0,0,0,0,0,0,0,0,0,0,0,0,0,0,0,0,0,0,0,0,0,0,0,0,0,0,0,0,0,0,0,0,0,0,0,0,0,0,0,0,0,0,0,0,0,0,0,0,0,0,0,0,0,0,0,0,0,0,0,0,0,0,0,0,0,0,0,0,0,0,0,0,0,0,0,0,0,0,0,0,0,0,0,0,0,0,0,0,0,0,0,0,0,0,0,0,0,0,0,0,0,0,0,0,0,0,0,0,0,0,0,0,0,0,0,0,0,0,0,0,0,0,0,0,0,0,0,0,0,0,0,0,0,0,0,0,0,0,0,0,0,0,0,0,0,0,0,0,0,0,0,0,0,0,0,0,0,0,0,0,0,0,0,0,0,0,0,0,0,0,0,0,0,0,0,0,0,0,0,0,0,0,0,0,0,0,0,0,0,0,0,0,0,0,0,0,0,0,0,0,0,0,0,0,0,0,0,0,0,0,0,0,0,0,0,0,0,0,0,0,0,0,0,0,0,0,0,0,0,0,0,0,0,0,0,0,0,0,0,0,0,0,0,0,0,0,0,0,0,0,0,0,0,0,0,0,0,0,0,0,0,0,0,0,0,0,0,0,0,0,0,0,0,0,0,0,0,0,0,0,0,0,0,0,0,0,0,0,0,0,0,0,0,0,0,0,0,0,0,0,0,0,0,0,0,0,0,0,0,0,0,0,0,0,0,0,0,0,0,0,0,0,0,0,0,0,0,0,0,0,0,0,0,0,0,0,0,0,0,0,0,0,0,0,0,0,0,0,0,0,0,0,0,0,0,0,0,0,0,0,0,0,0,0,0,0,0,0,0,0,0,0,0,0,0,0,0,0,0,0,0,0,0,0,0,0,0,0,0,0,0,0,0,0,0,0,0,0,0,0,0,0,0,0,0,0,0,0,0,0,0,0,0,0,0,0,0,0,0,0,0,0,0,0,0,0,0,0,0,0,0,0,0,0,0,0,0,0,0,0,0,0,0,0,0,0,0,0,0,0,0,0,0,0,0,0,0,0,0,0,0,1
outputCount=235
weightIndex=0,30080,94977
weights=##0
##double#94977
   -1.6913449008,-26.5563826785,-19.8267593816,0.5909646878,-27.8361687353,-8.4114767965,-0.182649068,-0.4877306114,0.0320655839,-0.9724712707,-1.3075850438,-2.0838115704,-1.8208483008,-27.6303412878,-0.2480601729,-1.2425277999,-0.1475515255,-0.8075524437,-0.7834387517,1.0935425627,-8.471861553,-5.6760914501,0.1741590216,-4.0183902911,-8.7133691068,-0.5675845712,3.4103094244,-1.4421703988,-0.0596457413,0.8518589409,-10.3731912499,-9.2185467042,-3.4332352501,-5.0522709732,0.2685486325,-5.9507072212,-1.7184559753,-5.4194977104,-8.3213907696,-5.4911408082,0.7287691023,-27.7943624101,-3.2000476585,0.2545992405,-0.2514517517,2.065848516,0.3876964195,-25.4873984626,-19.7223469974,-1.1691547779,-0.1902301584,-1.3924068679,-2.7249212139,2.6129294604,0.6962163774,-3.0024871031,-10.0483608283,-0.5223449206,-3.6843122622,-3.588394155,3.2643414037,0.2337593185,-0.8033009593,-7.7009711407,-0.6276536613,0.1337426352,1.3128619267,-0.3076715884,-3.5640821288,-1.4017470078,-0.5804004904,-9.5882358815,-10.0576456222,-8.7056413014,-1.5477645817,-0.1267829437,-1.6968572742,-0.2858027091,-1.8021328293,-1.7678015231,-9.2737823546,-26.767704225,1.1364388678,-0.6114708589,1.3985666774,-0.0820577778,-4.1394183357,0.9087298672,-12.5877382363,-0.2848519475,-0.2151215988,-9.3108449527,-0.047649792,-0.8236353595,-2.9119168389,-0.6531121712,-10.1658373086,-0.2037199944,-0.2400773634,-0.634945327,-0.4144546562,1.5952670159,-0.4550248208,0.0783899851,0.7509331168,0.4717022588,-3.1606769876,-2.2168274409,-0.4709541501,-1.214723697,-2.4112875281,-5.3053167063,-4.3761171774,-9.1317555094,-2.9964786147,-10.2463571653,0.4138492066,0.8702410341,-3.3759890294,-0.3349743195,-0.2185067053,0.2733307328,0.5640760222,0.1305524838,0.0774574233,-4.5848699231,-2.0670617556,0.4203989948,0.0444975239,-26.9493386146,-1.9926647579,0.2791370563,-8.8986040192,-1.7866585201,-0.0045564603,0.0146658889,0.2820041936,-3.8434127843,0.2663718784,-0.8549682889,-0.3337747882,-27.8364236515,-0.8815860042,-0.1452441072,1.0142735872,-1.7310668956,0.8536730403,-0.0842538649,-8.8731070426,-5.9348064354,-2.7339497102,-26.6140112836,-7.1169904978,0.9249763427,-1.3963420981,6.7420525854,-0.9838170829,-0.6132051029,-8.6056248253,-9.1269845319,-1.8154895802,-1.3025058551,0.4587844309,-8.5564087173,-2.4502482042,-2.3879546498,-0.454377558,13.8666728606,-0.340442311,-27.2892385251,-8.7180928086,-0.2286275304,-0.2901800192,-0.6022004518,-1.9395991063,-24.8680145681,-27.0118497284,-1.8949760779,0.1427767584,-1.578345797,-2.7862941979,-2.6149870126,0.3367566666,-0.3179596819,-0.7468953504,0.226354604,-0.6904891369,-3.5186893627,0.3290205396,-26.7763821772,-1.3495666047,-4.0210224937,0.6117832839,-0.9001353269,-3.0583806384,0.4554692748,-12.0980359579,-0.4361943782,-3.3833373304,-9.6291140722,-9.557934157,-11.5630391583,-1.0016434436,0.4955617494,-27.0322477187,4.1229157103,-3.7754492587,-0.1906030457,-0.4923757573,-0.5100309444,-0.6862263578,1.1621664436,-0.4094699589,1.0052234526,-4.4890537461,-2.1877170107,-10.7298161206,-28.0410404511,-1.0170006676,-8.1647785245,-0.2257491271,0.5290773524,-2.0868854759,-0.5231538386,-3.0237128511,-1.8699771712,0.471178437,-1.0490655125,-2.3882032094,1.0465814731,-0.3848140279,-0.1051551162,-0.5975152516,-0.989029086,0.0359285427,-2.3905195344,-0.8455162352,2.0051556232,-1.3261317244,-8.0484493376,-1.1623960188,0.1496524895,-0.932631718,-0.208444909,0.5098869293,-0.6741989228,0.090146468,0.3705440077,0.2334520761,0.2453765637,1.2802924528,-8.4760319103,0.5066459957,-3.5613060159,-0.2480590026,1.1936588636,-0.0780561797,-26.5821325118,-10.301342796,2.3991175413,-0.097810357,-1.3081639179,0.5849009216,0.4278583594,-0.0568289201,2.3823623089,-2.064477797,-2.280306466,-3.6716056102,-25.2362333722,-0.532204655,-3.3456387796,0.2786432838,-0.4948266304,0.1466883276,-2.1367766748,-24.6095744412,-19.0977168708,-1.4861434134,-9.5177708553,-10.0218993983,0.9500275397,1.0870971933,1.2724660792,-1.1590372823,-0.3821002714,-0.4157249343,-27.5094122156,-3.5840894002,-2.0737989343,-0.9380846116,-3.5542221372,-3.264451641,-2.4626700318,0.0630878229,-2.1557622807,-0.6247659037,-8.6938517226,-3.2233633983,-0.8494995593,0.0633197798,-0.1739289795,0.8147017304,-23.7685822374,-19.0486001241,-2.836296192,-1.8116747807,-0.916927942,-3.7890692462,-1.5981814299,1.0003421688,-1.7331992653,0.2640932799,0.0497730612,-2.4400068089,-7.2415660305,-0.0032821659,0.4237945197,-2.7949122204,-2.1738301599,-3.4135995354,-3.2241101706,-2.7266910281,0.8183182059,-5.2263962769,-1.8878081929,-2.3544612108,-26.9285049583,-9.9893273493,-1.0723926388,0.4623675657,-4.0935838974,-3.7505724704,2.943971093,-3.6090022986,-1.1606897169,0.9016613104,-0.5742397925,-0.4221403135,-0.7689823527,-3.2695985795,-0.1234105111,-4.8274099124,-0.0254758689,-15.8983817758,-10.1366909451,-0.0299601494,-3.8949045344,-1.0361408473,-0.8531282963,-3.6314818393,-0.7697962278,1.7567981619,-1.1590875816,1.0253035408,0.0954010748,-2.6929521418,1.3973440163,-1.1467965182,-3.3029752238,0.3148483743,-0.9261263147,-0.8499562194,-0.2677492019,0.0526025007,-2.5475166091,-0.3516225729,-4.9759206772,-1.0125485095,-1.9939749273,-2.7017253493,-1.2699578993,-3.1876093527,0.7071301673,-2.0610449505,-2.539006824,-2.5284710229,0.0123479897,-0.0834398663,-0.0775009643,0.1521803846,-2.0305913662,-3.79578376,0.6124047584,-1.3984375712,-27.8422357467,1.1999300348,-0.7969469638,-9.9493512469,-1.6131519466,0.2269507598,-0.8756867753,-1.5046608023,-0.2066440811,-0.6168598198,-2.2229269008,-2.6222146687,-10.1200184383,-0.413325009,0.3570123348,1.0455130476,-8.265878898,-0.9700605371,-2.5954789779,-8.1703730922,-5.3892791665,-1.4011624498,-27.3632871671,-4.4617648051,-0.4047819918,-1.669846952,2.6003848416,0.3453055877,0.1157270558,-0.8204378762,-9.2975904302,-8.6931387263,1.4943510901,-0.726214219,-0.7287904503,-7.3811054462,-2.0217513712,-0.2028791717,0.8710067005,-0.6488356255,-27.0296041777,-3.82907609,-0.551990576,2.2503988403,1.0040398566,0.0173849668,-23.3601119053,-9.85111318,-3.4001332764,-1.2048721921,-0.2628144057,-9.9121699835,1.1788591074,2.1419438143,-1.2464993523,1.7493506452,0.5507481276,-1.8968381747,-3.2078787004,2.3585089636,0.4939397193,-7.7268420377,-3.5970798439,-2.6511112021,-3.7312846818,-0.2091843218,-0.4316587514,-2.0836734088,-0.509498973,-0.6622533728,-27.1814187471,-9.0978589363,-10.3057279535,-3.1757853158,-0.5519816482,-4.0704232827,0.4126988754,-2.1673322091,0.1581144528,1.4079125737,-0.3210626457,1.524564521,-1.480105666,-0.1741982046,1.3923645152,-3.3597681027,0.864466391,-10.548640909,-28.0249516625,-0.1667609233,-8.265292147,-1.7890762226,-1.5682609031,-1.8513260638,-0.1911850895,-7.9756062626,-1.1551511269,-0.5487899656,0.4617773707,-0.8909746864,0.6781177024,-5.7704408054,1.3053513623,-0.1722804689,-0.7603320378,-0.181440741,-8.9572377871,0.0829536473,-8.7251663578,-2.2465897299,-4.208155826,-2.5088079021,-1.8576749965,-6.9358704989,-0.9913127506,0.4838499679,-0.8302027819,2.8865366054,-1.1968948145,-3.8213104554,-0.885319117,-0.4295521222,-27.1472808692,-0.5377080031,-1.4049810712,1.751599272,1.0738758123,-12.5127146594,-27.7541304125,-1.5900098435,2.2152051987,0.7908533095,-3.6307246675,0.1643538387,-0.2955590408,-0.3418454692,-0.741825108,-0.2488123002,-5.1931126209,1.8930406662,1.8462929684,0.5997337955,-3.4340748992,-0.9580198194,-2.7244293567,0.4116613794,4.1710597585,-27.1795192545,-13.4528653916,-1.6536236801,-15.4292820835,-12.8134346761,-0.7403464704,-3.6285722638,-2.8021193002,0.6600398943,1.015697484,-0.7786675204,-27.2302156082,1.7605026541,-1.7874622233,-0.0720737433,-2.1642194453,-1.7991197334,-1.8884824752,0.1997355829,-2.1474657989,-8.3566754765,-27.8186082028,-0.5864779151,-1.0406367632,1.2481412305,0.2822284627,-11.5780996324,-24.2851235563,-6.3093801367,2.2586588444,-0.7575766191,-4.880326316,-1.762548448,-0.8021671254,-0.5111177891,-5.4248289478,-0.2424508231,0.5520906805,-23.251900307,-6.8876217665,1.0480456592,0.0586981115,-7.4299761621,-1.9779060037,-3.2704098579,-3.1834619856,-2.242473413,-8.6433169692,-5.9851745168,-0.2568372695,-7.0094439262,-6.3655097155,-0.6532037955,-1.7072834202,-4.1607316355,-0.1107415129,-8.7572810314,0.0375393132,-27.8091748093,-3.0105531154,-3.6913952653,-26.7119919712,-3.7931819724,0.1990111485,2.1133394387,-3.0854875388,-6.3775621312,0.6599159182,-6.3104011339,-26.1777995506,-0.9992829613,-1.2026598012,-2.8122585307,-1.2321589617,-3.2584123121,-2.2828198682,0.0336314341,-1.3639864689,-1.4960831321,0.9557471927,-26.8669851379,1.2219575961,-9.0587992002,-1.0077371577,-0.4504101465,-0.4922064745,-0.7421999277,-25.907531733,-0.2784679476,-3.8590081003,-2.5204917024,-2.9116204274,-2.1779267221,0.552709508,-0.5988309554,-3.2891463174,1.8789148451,-0.1396519646,-3.2692231695,-0.7206561989,-3.2747433408,-0.5274999963,0.4599653252,-27.2188768932,-1.0088633199,-3.3230369335,-2.4030120684,0.7406634578,0.6000116452,-1.8083068845,-18.6012674209,1.3103794668,0.9932925245,-1.9397582858,0.2112577089,1.5564919377,0.276128251,-22.2870865479,0.4954405908,-1.5695836668,-3.458836301,-2.6321600845,0.6964536193,-3.8348792901,-1.0783778367,0.2866055872,-0.7569865203,-2.855070059,-14.0493872559,-13.7969097322,0.0831058997,-0.7104580015,-7.7222618686,-3.1707063051,1.6055058596,-2.8088779338,-0.7799596162,-0.897960391,-7.5581699239,1.0329313102,-1.7064290561,-2.483633513,-0.0420325934,-9.1864211376,-1.7375108925,-1.5246591901,-1.275219029,-12.0365843321,-18.1295291159,-26.9906084457,-8.1636081121,0.0776396321,1.2117523215,-3.4284689657,0.6793075028,-16.5403108361,-18.3521851395,-2.7950506994,-0.1481322116,-1.0928900156,-3.066453513,0.4856717249,-26.3590634408,-0.5982130485,-3.2476693883,0.4940154445,-6.6134976463,-6.7825410942,-2.4919982731,-6.9524141982,-1.7538745801,-1.1457987429,-0.9842576477,-1.9717295462,-0.391861317,-0.9061024252,-4.9361400317,-1.7186099171,-0.8444389231,-7.701886965,0.0947020642,-4.0045792938,-3.1480111294,-7.7979207327,-1.8318508187,-2.7499834098,-19.4881002582,-2.0941678418,-2.4653898399,-7.2062811167,-2.68529201,-0.6392181811,1.0524437337,-2.9692003529,-1.0412893927,1.328975764,-8.7932426464,-8.4689886978,-0.674015613,-3.1995248793,-0.754461937,-0.6283688793,-3.4420211825,-2.1702096963,-8.5007858719,0.9623274756,-0.1542626264,1.0542410131,-26.5254255764,0.623711158,-5.7595234994,-0.9496067282,-0.9632261487,-0.1860314344,-2.5955858839,-24.6839200311,0.11250093,-3.8711062462,0.7682701138,-7.7589598601,1.0960243448,-0.5561770838,0.4899166623,-1.9439807232,0.4026354172,-0.0881165634,-3.6144689331,-3.8968776385,-3.6799890362,-0.6833864509,0.251330201,-6.8152030892,0.1409967329,-2.2791730004,1.2232423762,-0.5445481887,-1.198560862,-20.5075980831,1.4625472447,-0.5740058141,-8.8436223609,-3.9119817743,0.7722174877,0.1000646251,-0.0004881394,-0.4875918197,1.5970738584,-8.795133835,1.0071357585,-27.2458750963,-0.1200980215,4.4480236762,-0.2479069331,1.0785825993,0.3726634939,-0.2276631918,-8.7038047565,-6.8629349003,-0.8136739972,-25.9605415243,-7.9730706239,0.5428019701,-0.3106648557,-0.2551889572,-0.449878217,0.3639188926,-10.0657049441,-9.1908977402,-3.3923311461,-1.9033975599,-0.3138692965,-9.9459981965,-2.85570916,-1.540877023,0.5786899186,-1.6445988344,0.6731345652,-27.2969081854,-3.6847111553,-0.573486611,0.7750298538,-0.0533895316,0.5336191672,-25.4811957602,-18.7047402516,-1.5367617643,-1.1329930257,-2.0892575071,-9.2539107739,0.2724187125,0.9376394817,-3.1238555325,0.0024037168,0.3090948798,-1.9555711499,-2.7592330187,-2.2248656246,-3.2384315106,-1.0018542918,-3.8274164642,-2.5349053153,3.267821089,-2.9244884921,0.3953761386,-12.9386449446,-0.6072869394,-3.1119247848,-9.0488382261,-8.7948154947,-10.9320468534,-0.8438535784,0.2769633563,-1.352168845,0.4948190286,-2.2003743371,-1.2835593441,-2.7492479432,-0.861819451,-2.6949682528,1.1340957623,1.1679090857,-0.4153687739,-4.6192390424,-0.9957034923,-11.4880387107,-1.4366863081,-0.9337929652,-2.3776697234,1.2598135626,-0.5194639566,-1.329243252,-0.1514295154,-1.9068874289,0.5088636657,-0.0539045232,0.7687151821,0.514729679,-0.2401917954,0.0768087343,0.7797899614,1.4303599308,0.7091530051,-2.2847158223,-3.5179849549,0.1759677154,1.9843559814,-8.8524258226,-3.001674599,-0.5448291232,1.4787653946,0.2555999196,1.2747708362,-8.7065139659,0.8067835237,3.3023186813,0.4503595385,-0.8549152546,-0.3403518625,0.4714549038,-4.6820146289,-0.8936626994,-2.7528700296,0.6325924458,-0.1150849833,-1.2786074071,1.1398785756,1.5911476886,2.942406425,-27.8843950685,-3.1072544375,0.8347471863,-0.4352362366,1.0513019844,-0.6923103023,1.9410481783,0.5038778692,-0.8176310542,-8.7418682806,-0.5011383583,-4.0698756833,-2.0595461313,-1.4933273598,-27.0809899038,-1.8403411108,-26.9286484917,-6.2577956849,0.3543721602,0.270717487,-10.7762088549,2.0193586633,0.0691070994,0.936751798,-0.6954867064,1.5969621102,-9.7665075425,-27.2820336974,-2.2077353873,-5.9432013458,0.2051443521,-22.3957118727,-0.7386644525,-7.2866161018,-3.7434853256,-0.0695145829,-1.1670507358,-1.106856672,-2.0931889172,-1.6599185336,0.5331378143,0.074267782,-2.1694156941,-10.2046926702,-19.672241029,-8.8194518356,-0.080485219,-1.9870452193,-0.9355819056,-2.311676017,-1.8505578824,-2.0756384153,-3.1524915508,0.1628225878,0.9096808316,0.7458991489,3.473283766,-26.8851152738,-1.544865241,-3.2346730887,-26.5783196255,0.910667562,-2.7272351842,0.4167904796,-4.7053919433,-0.8140932288,1.0118316402,-2.8532544133,0.1898219378,0.9929523285,-1.8078472948,-3.657752794,-3.2762322189,-0.7292519412,-0.7131335929,-1.6753206059,0.057168396,-0.5262326916,-1.8537800652,-1.1394129912,0.4873679326,-0.6840528825,-0.4375365952,-2.5736960465,-11.9226429813,-3.6900604626,-0.05359746,0.8412477629,-1.0727948476,0.435190925,-3.0962969907,-0.9976572565,-4.2583051518,-1.228192741,-1.7920770488,0.379633353,-26.4342543711,-1.1317114374,0.3297359335,-9.431559414,-0.1972118042,-0.5158425872,0.2722815364,-9.7961361582,-0.7281617837,-0.3567337242,-9.4109267245,-4.7462253535,4.078269609,-8.9567624988,-0.5672210473,-0.7283492079,1.1490881369,-0.8186470978,8.3192759363,-0.5585930012,1.8607677971,0.2733343876,-2.7135455344,0.0742427327,0.1658836779,-6.7119631697,0.74175213,-0.18704951,-0.3965460185,-23.473089245,0.7188018746,0.0209893237,-0.8734072946,-3.1776137502,0.3724578866,0.1035337596,-0.6839101789,0.5343450964,1.1204208834,-3.2070975304,-0.1562433596,0.3558646851,-0.3097822023,-0.0368920858,-0.3767400282,2.8491632387,-0.9318946299,-0.7666126193,-9.7606308458,-5.9357175496,-1.1777301225,-4.1356266596,0.0561316045,-1.0676288295,-0.5435279578,0.4458066988,-0.850936025,1.0158482254,-0.3159013963,-1.4355955489,-3.0901413736,-1.4378508962,-2.6138001718,-8.7212139206,2.0410830012,-1.9476963703,-0.7620368722,-1.7987361886,-1.6110086854,-0.2741435555,0.7694253645,-0.7187279888,1.1014917646,1.4511942225,-1.8276046756,0.4888150796,-4.9873646302,-1.8254242783,-1.4304552717,-1.7676173244,-0.1206955149,-0.2607186247,-1.3389065297,0.6233458931,0.2346441164,-0.2364577674,-3.4643355933,-2.0728612666,0.4452344901,0.7741074944,-1.235785835,-2.2411098043,-3.0051508178,-1.2724562384,-2.508538378,2.0405948588,-6.1123283252,-1.9429361847,-0.445813051,-1.3267908053,0.0353568125,-0.3489966887,-1.1530262305,-0.1900010935,0.854866288,0.6684413448,-0.7347240506,-6.8152022428,-2.5270500847,0.8986935816,-1.3808644031,-0.7403359952,0.3249746643,0.938289494,-8.0611066021,0.7557312883,0.5572292145,-4.6020807683,0.3449462156,0.7607872805,1.584029784,-0.5934106161,5.3487018267,-0.1569992806,-3.0422472589,-2.3809571289,0.9325540431,0.6200823572,-5.2336698117,0.3133758419,-0.5798461065,-3.3043889894,1.536864434,0.3273193364,-2.0260355058,0.0612419338,-0.1115952107,0.477646701,-2.9665757554,-2.3760216606,-2.0412881784,-0.4701745739,-2.8033273772,-0.6216998162,-1.7537664523,-0.5188756579,-2.6281167757,0.6721514066,0.7797158943,-0.1677950177,1.6725836724,1.4004222321,-0.6962454437,-0.7761001582,-3.6764424873,0.3020246534,-0.0929513777,-27.2702983351,-0.9397336577,0.7229831622,-9.709479421,-3.2510726804,0.6670133829,-0.9647055545,-0.7077486043,-2.1396258008,0.292733629,-3.3294541373,2.3243189522,0.5408499969,-0.5362920921,3.1189818295,0.4019135966,-8.3454479181,1.2579847933,0.4821999245,-9.9801161862,-5.9708151836,-1.2546014148,-27.8799863697,-13.1372206791,0.3640616438,-0.1995807829,-0.8018766682,-0.5575623909,0.5776006194,-9.7919149501,-8.6796706462,-2.540285954,-2.6148403914,-0.8306358022,-2.3925688237,-2.9796661015,-0.3235158307,0.9012334931,-2.0585484229,0.0504004154,-27.7683815553,-1.1930433206,0.0517508692,0.5853467378,1.0993224144,0.1157130311,-27.20511382,-22.6041100759,-3.0151061985,-0.2245730971,-0.5480962944,-10.4905003469,2.5649168474,-0.80936957,-1.2233425354,1.1579630573,0.630004205,-2.4268169519,-7.0050300948,1.1156409913,-8.3179942889,-3.8534854176,-1.4799467943,0.19712863,2.9768692418,-1.9205516109,-0.5760457513,-3.8269177185,-1.3069739826,-1.1254634007,-9.5645583887,-9.9166490595,-11.9172614195,-0.4253932274,1.2573792686,-8.9990728471,0.4379451333,-3.1569952091,0.5468886711,-3.3289755923,-0.3102662157,-0.8930674801,0.4961028526,-0.4933301015,-2.1196745471,-4.326854597,0.7556733215,-14.7626339498,1.1850691551,0.8888293445,0.8832156463,0.7524780169,-1.0569447858,-3.7547440263,-0.6334028813,-3.8675644172,-2.1172222932,0.8299880174,-0.3110260211,-3.128781627,-0.2985059946,0.5545937559,0.4121851972,0.9948658101,0.0362895334,-1.3676565115,-2.1488870533,-0.3590937276,-5.9863680404,-3.0293385951,-5.9940599795,-3.8686688162,2.619964754,-2.909804351,-0.0432592328,-0.5351025117,-0.9602976608,0.6305064848,-0.0146309204,-0.8600341808,-1.0832903531,0.9892757672,-1.3339067825,-0.6314984854,-2.6387662151,-8.2512840462,0.1976128479,-5.279919709,-20.2902698154,-27.5330035545,-3.7648079776,0.423811998,-4.4162308197,-0.2101170093,-0.4119642978,-0.3177548628,-8.6576769305,-9.3876511453,-1.4489708114,1.9035261192,-0.2718097478,0.456616298,-9.9954124518,-0.3891133177,3.5994627147,-9.5250455718,10.4729166201,-22.1030587931,-5.6907249819,-0.5131461638,-1.8255218879,-0.1369561833,0.6725191505,0.4993372719,-9.966744341,-0.1898181446,-0.3063344653,-3.8600149824,-4.9127953594,-2.8444151851,-5.0027312959,-0.0441403511,-6.6663586166,-4.3719389305,-1.9035398988,-9.4006641646,-3.8661878287,0.7443300394,-25.9240002886,-0.1519162511,-0.4070236093,-0.7918203867,-8.4523262977,-5.3284407858,-0.8079737058,-2.4219168664,-9.5519589924,-0.2963235283,-10.0241975109,-8.3162717554,-0.0655054632,-27.8802203586,-3.5862666634,-9.7707744963,-0.4980786062,-6.7386962204,-1.440613492,1.0722955919,0.9020599858,0.0870716398,0.7841173752,-6.2341005205,-8.4159022303,-2.4217097539,-25.94369191,-5.8362437867,0.0948356678,-4.0746369576,-8.9373243919,-1.1812418337,1.4665979585,-0.4532066717,-0.1583926545,-3.2930659796,1.6191662214,-5.1095011952,-0.5579947966,-9.2367830887,0.944381169,-2.2099155648,-1.1492992242,0.4919070225,-9.1499428319,0.1342458903,-8.8856465064,2.7234520967,-19.1576028459,-0.5111537182,-9.7901556724,-3.1856034322,-1.130866347,-2.6583956807,-7.6928570962,-6.7083966982,-2.2384919004,0.6732091094,-1.0756517518,-1.8650844884,-0.6756320794,-27.8179236903,-5.9517638927,-9.4865695826,0.9244922028,-5.9870385215,-7.3668578045,0.3190227572,-3.0837235482,-9.0288455113,0.0405796479,1.1327636993,-9.7722706349,-2.4533324639,-8.4964864488,-1.7904043246,0.4501849602,-8.1408809057,-8.71884813,0.1018815167,-0.7670056519,0.844039136,-27.5335551069,0.5224863994,-4.6036297403,-9.4834418529,0.3010139071,-0.1529552264,-24.9529812814,0.6247999512,0.2942308747,-8.7208336042,-2.0658856404,0.8485532108,0.0766078416,-0.5122997764,-0.0090435756,3.1071566029,-0.9004557233,1.8221048049,-27.4106331999,-1.0954028873,2.3894365559,-0.4143454198,-2.8262090143,0.4622334962,-2.9453356649,-9.305216818,-5.2516302148,-0.8385406326,-9.1458304408,-4.6600911467,0.3965125274,-0.2481522215,0.5451637552,0.2419874263,0.8670827697,-9.576351781,-9.4644648037,-9.0175305052,-0.3020297957,0.0691312819,-8.7164186567,-6.2915140812,-6.4425882395,1.1375378262,-8.8617704376,-1.0474705659,-26.8807306042,-3.6800792977,-1.0581808891,0.7734482716,-0.2876862977,-1.0538305315,-21.9474101942,-22.5114555077,-3.6899590927,0.3520474076,-4.7236957764,-8.2202532163,-0.4636767526,0.1586838571,-1.5514136845,2.6385230761,-0.3216000377,-1.0835743901,-2.3651648173,-0.5560142262,-3.6111436777,-1.8349103042,-2.5677671113,0.84833898,2.785398698,-2.4443432231,-1.4941053672,-13.4754994893,-1.3346145844,-2.3674933494,-3.79136719,-8.5921164929,-12.0046034765,-0.9372038757,0.3822361468,-2.8032525381,-0.1770582093,-2.1643421038,-1.8979179987,-9.5013432732,0.3427143171,-1.5378302858,0.8849127905,-0.8550412181,-0.7271991497,-3.1507205926,-0.6058232894,-11.0185580656,-7.4630505277,-1.169115851,0.2800306633,-2.4751616199,-1.0003693,-8.4800891909,-0.0648700195,-8.2794033308,-1.889070713,1.324718285,-1.107187336,-1.066930775,-0.4981150764,0.2205793494,-1.0705146855,0.1813818172,-0.9027862728,-3.77845735,-8.3052657862,-0.369891357,-0.0996776548,-9.555600298,-2.2870130468,-4.0106780986,0.5437763967,-0.7131426269,1.0397917519,-10.3052909555,-0.2958800613,0.1213758286,0.8464162846,0.5363069022,-1.3558396768,0.233084946,-27.222739614,-0.0436401557,-5.1433119951,-2.0506688053,0.9486464428,-4.5860127967,-0.052904311,-2.8395273665,-9.4357833839,-0.1526394448,-4.2297574933,-0.1813808859,-0.380651719,-0.6859817896,-3.8952808954,0.1165081746,-2.943504798,-3.4284808864,-28.0829631102,-0.9704270723,-0.1204992447,-1.0134625878,-2.1042900635,0.9062087925,-0.3380792905,-2.5871343979,-6.0602363956,-0.0090948709,-0.8048168736,-10.8946745551,1.3460610185,-0.4143473006,-1.0322477833,-0.3628728432,0.8396459246,1.6784447974,-6.3037569413,0.5004647754,-2.7780518495,-0.4879492449,-21.1413414147,-1.2526434547,-1.3402684369,0.2579124487,-0.7004584408,-0.5915012082,-0.8684861671,-3.2793277833,0.6944341041,2.2913975985,-0.1645553077,0.638376107,-26.6621851969,-1.001317273,-3.3868206777,0.467310498,2.0195770651,0.7108066855,-1.8380769685,0.179396788,-2.5775644193,0.4438241439,0.8687775496,2.1725484685,-8.0042411866,0.8182930804,0.9432531035,-0.0480615248,-0.9119514644,1.0891412628,-2.6622082924,2.6771539416,-3.4671858792,-12.2190320066,-0.9244471837,-1.1175760989,-0.0923746119,-1.5529998895,-12.0865058862,-0.5622981538,-0.5565343793,0.2058801715,0.0528730101,-1.6795862459,-0.9606614658,-0.8785058327,0.0671474857,-0.1396678939,0.4027727332,-2.5372471029,2.9753928705,-0.690027624,1.1684485063,0.5236944771,1.23483984,-0.7808550417,-1.1773017318,-0.4744921637,0.1927061709,-7.572857075,-3.830199497,-1.9133226687,0.3500973228,0.6931981893,0.4728276729,-3.1213448393,0.3640190444,-0.7911490358,0.2513273802,0.9609714187,0.570387733,-0.7161296618,1.2113786742,0.177424356,-3.2947645638,0.367649033,-0.0031548353,-0.9357269125,-0.765719036,-6.4592624788,0.2757598887,-0.6725104032,0.4305242585,-1.1467817074,-0.4741213465,1.9479507813,0.1984793212,-0.2138268133,-26.1575113169,0.2351286414,-1.3049157743,-0.0761445621,1.0993275378,-4.9503811926,-26.7993328835,-4.8989872517,-0.405345605,-2.2081285407,-4.0206929456,0.5340082491,-0.5491588957,0.641533523,0.6877347263,-1.636472269,-3.5754479236,0.5816910376,-27.6946136161,0.3253010673,-2.1307945443,0.917752323,2.3178624161,-3.2070811704,0.9582941226,-9.8126335752,-2.2202420251,0.2921664853,-27.3298879026,-11.3804251482,2.1649001808,0.4775966977,2.5258432879,-0.894076965,-0.5668830045,-10.2982771143,-8.2648074269,-0.1302535883,-2.2268329137,1.0241158675,-8.0807558378,-2.4942678088,-5.3522955865,-0.8148835586,-2.0998369403,0.5636622993,-3.4068291281,-2.9267317871,-0.020783359,1.4866782309,0.0786853347,0.7374109846,-24.175001576,-27.79131992,-0.5982534236,-0.8247936045,-1.7581256174,-9.2581974448,0.8979817766,-3.5211829946,-0.5991919128,-0.548105488,0.0669259208,0.1667766449,-3.729130825,0.5505630707,0.5346935834,-1.3389331419,-1.3741683961,-1.5741334764,0.3980916983,-0.756060384,-0.3879813172,-3.8404810861,-1.479837726,4.0143119144,-1.3890655329,-8.4331680981,-12.2762376319,-0.6439255649,0.3514964902,-0.5931803396,-1.6747663156,-8.7883717845,-1.4245735424,-4.0344915292,-0.3641396505,0.9329886835,-0.6107810036,3.0991714513,0.0945194342,-5.6860740802,-0.3398174389,-11.3999198587,1.2080505145,-0.4230231739,-9.2180080206,-1.0467536914,-0.1405182879,0.9081627073,3.5927819005,-0.3711502934,-0.8031784935,-9.9810850722,1.1140013155,-3.0449639547,-0.6672615226,0.924821923,2.0311290974,0.5067311166,-0.0727371577,-1.128252912,-3.4517457919,-0.8324194993,-2.8974594982,0.3100846685,-4.5239266465,-0.5862013975,-0.5808888077,-1.4366389967,-1.7780855606,-1.4280340401,-0.584609771,-3.2228013183,1.0434281037,-1.5421978424,-1.0614190072,0.9101286153,0.1443359649,-0.0311863737,1.8720292384,-2.5349999806,0.3631366152,-5.442151388,-20.4098123854,-9.6755999262,-3.1973670694,-8.1776800563,-1.780802568,0.5039137639,-0.739495895,0.2081600311,-9.1860648768,-9.3489762312,-1.7260010525,-1.4900818886,-3.8673229987,-0.0038023819,-2.9405824502,0.7732599441,2.7425041925,0.3901714473,1.6702025703,-0.8256291862,-6.1472555301,0.363394589,-26.4058048416,-0.2288880269,-0.1001835341,-2.8550924318,-3.0898777955,0.6923830702,1.0061548259,-23.0076682687,-0.1865011976,-7.8426829056,-3.9566985174,-1.129999326,-4.6791087449,-3.9409152285,-4.37787773,-0.4201801758,-2.7813413312,-0.2975977791,-27.3076448918,1.2721873753,-0.6965582278,-1.9477263242,0.1376598224,0.0402849063,-18.3868922158,-15.9315112788,-3.7578765256,-0.6810218987,-2.6396826806,-2.5802552734,-4.1355333942,-3.4376772169,-5.4510084288,-9.3672859037,-1.1039063876,-0.1065215826,-2.7806584982,-3.6252158928,0.5377675105,-1.5122211986,-1.7132077326,-3.0684233908,-8.4588613664,-9.437439884,-3.3212397227,-6.206804986,-1.0122165629,-5.6721085482,-8.7556742678,-8.4646599417,-7.8956225647,-1.3459398616,-0.4189745008,-0.2619816338,0.4021942807,-3.2704872528,-1.610069548,-8.784367038,-0.521667792,-3.1704862692,0.7966233449,-3.4349723379,0.1062783655,-3.769244987,-3.6775485387,-3.4692566634,0.1177936947,-0.6987212049,-4.8868426736,1.8718600282,-0.4991326103,-3.0784142358,-0.007936016,-2.1112708546,-0.9631068101,-26.3034027606,1.1873079489,-0.5258254925,0.9993316164,0.3077440352,1.7260089965,0.1991756719,-0.8058103995,-4.2480913374,-8.5681264013,-0.4182954932,-9.2693402946,-1.8964246416,-4.806099392,-4.2318480595,-9.1385136761,1.4052716112,-9.7473724784,1.1155447772,0.3132823823,0.5881218991,1.2834530941,-3.6862281123,0.0375425995,0.9644707462,0.6804762434,0.2112449421,-5.9637356174,-9.0586521391,0.7478842939,-1.2704989447,-25.7454676885,-26.7475685746,0.9984330503,3.3160163051,-3.8989745202,0.5227161571,-1.1756892239,-0.038303418,-0.4797473017,-0.8991037335,-1.8561327194,-1.6423035788,-26.4233337689,-0.2909753105,-0.7848339168,-0.3033997449,-0.3636629988,0.0349179239,1.4414111626,-9.9079902361,-6.7776096753,-0.9573906743,-4.1612144957,-8.637404684,1.8419370739,1.8081576299,1.4065901035,-1.1645624543,0.5950745648,-10.6113072369,-0.7432239984,-3.3010585269,-0.2655686724,1.462716063,-15.9887467497,-2.7009783753,-0.3398143504,0.3952664155,-0.7451289909,-0.0594704794,-26.2509783669,-3.263504633,0.5342138239,-0.1270421026,1.284587866,0.3660971516,-27.724198458,-18.4511228857,-0.393815748,-0.550911448,-0.2441359935,-9.8205499763,0.5314336634,0.0471919526,-1.9364120807,1.0816838352,-0.1249753207,-1.0845723963,-4.2880222239,0.5949385485,-3.2370700735,-3.5751246662,-3.0531665205,-1.3414702673,2.518525826,0.6004669554,0.9193533462,-3.8705063711,-1.1581298881,1.5464065237,-9.3088905839,-0.4047098453,-12.2368280578,-3.2998120126,0.7784457589,-3.4769371138,-0.314539197,-2.0518239188,-2.4488941005,-3.4674542884,-27.2377650604,2.6521289489,0.9833401755,1.1649512697,1.6685383004,-4.6000274424,2.4961859332,-7.97330775,-2.1961956082,0.3458604813,0.2557556735,1.0740083123,-0.5615218775,1.3248847023,1.7416149995,-3.5551898092,0.853126184,-2.3473157767,-0.004819159,1.6150401879,-0.3449959575,0.7528330974,0.3658989348,0.7214967459,-0.7723387929,-1.2625085088,-0.1107763775,-0.2389929233,2.2050324117,2.1175270776,-6.8414001901,-1.2597496522,-0.7444812906,-0.4624618416,-2.1110487769,-0.9175144896,0.7348723671,-0.4606817799,1.0078612485,-1.2097548616,-0.9947647245,-1.38691138,-0.169043174,-0.0896230539,-3.2639251284,-9.2690484431,1.0248421625
   -0.0226722721,-19.6511105092,-6.2507115911,-0.9242488902,-26.7883960368,-2.768821324,-0.4310792539,-0.2434356362,0.4374284405,0.8288564439,0.0813151684,-3.6035333663,-0.0215174682,-26.5810420182,0.3471190758,-2.413031626,0.4878465282,-1.8117770017,-0.909897952,0.7876422285,-9.7366076818,-5.8971070335,-0.7648242205,-26.825345734,-10.9456180265,1.9369685904,2.4917975721,1.0737350671,-0.1594947391,-0.8218235134,-1.0102653885,-9.2087546001,-3.463447452,-2.7359570945,0.2461435512,-7.0133464881,-2.9044595997,-6.3843443985,0.4688111432,-2.730880779,0.8936246584,-26.9565511522,-8.1273718002,-0.0753178304,0.1193201968,0.5457776469,0.2227255993,-25.9013231477,-15.1026964438,-1.3026407119,-1.1151795305,-1.9586245433,-9.8036830777,-1.1299343135,0.5860628959,0.3378513937,-1.5889334403,-1.5473012603,-0.6774739882,-2.8310707587,-1.5112308962,-8.2494228876,-2.6035653278,-1.3436263753,-2.434568357,0.7719903267,0.0816325745,-0.6114830316,-5.5264198006,-0.8579593783,-0.1399294959,-9.307382945,-9.4594675585,-11.8572124831,-0.4886062658,0.4977286482,-8.1253208646,-0.0436625106,-2.6720515706,-2.4402215813,-2.8186779001,-0.5833463726,2.9450740594,-0.858012893,1.7776144379,1.0449558287,-4.1711149739,0.9324719082,-12.101599439,-2.8716205565,-0.2090461876,0.5030084554,-0.6991790043,0.1201975271,0.1364548801,0.3051630687,-2.5915799359,0.1224219346,-1.063975926,-0.852744455,0.7175827057,1.4447171506,-1.9375089231,-0.1074941371,0.8937380418,0.0427005061,-1.0050639342,1.4583730875,-0.2411168251,2.4257800888,8.6072901888,-5.6542812171,-0.5018390826,-2.6764935931,-0.7913695399,-3.1304442588,0.0226220125,0.7214967281,-1.0419842862,1.0756482748,-0.2641886455,-0.0003806371,-2.2340725878,-0.7705060151,-0.8646347023,-1.7787302112,1.1805538128,0.3587580612,-12.4384463916,-0.5533511315,-23.444983872,-4.0532957254,1.4521299483,-4.2524507995,0.0249589908,-0.7485787104,-0.8049891966,-2.6930976606,-0.5093393648,0.7067188035,-26.422288956,0.5356563453,-1.2173726421,-9.3142993108,-8.7633392825,-3.2678220701,-0.8768660453,0.0510140348,-0.2531375785,-3.9975302426,-1.2635259587,0.3169217807,-7.7298755396,-3.0110099635,-2.6152865116,-8.4746782404,-1.1267139392,-1.1676593897,-0.1950609406,-27.1848528921,0.2172659486,-6.3552602092,-1.5460511797,-4.1658786984,-3.3167118536,-6.2024144416,-0.8882360998,-0.2755218189,-0.3284181727,-0.6774411366,-3.1474176364,1.1930507691,-0.3036038795,1.137365487,-10.2093240183,0.796602337,-18.6294570542,-9.0198587133,-0.0893991368,-0.2268960343,0.5488136737,-2.7163700692,-1.1995866804,-2.6746741514,0.284024622,1.4356490575,-2.4988841205,-1.3332345571,0.9196622505,0.655378038,-2.7596159724,0.024896124,0.8679688908,-9.3911919591,0.9699687476,-27.8406315045,-3.0416349631,-1.0012289798,-1.898387605,0.1279014013,-25.4153778806,-0.5161316772,0.1729081804,-3.0670442014,-9.6927647135,-27.9502954455,-16.3212186429,-1.2317760669,0.2878114982,-0.8418181275,-8.9655037208,-0.1183015181,-3.3510689414,-1.0904531791,-2.5193387831,1.1615706465,-12.3670239007,-0.9019409599,0.0958662517,0.9621903714,0.3766888164,-1.2798481096,-2.4127980844,-0.1068576976,-2.3229850935,0.4442498829,-0.2204194192,1.1225971541,-27.2835950754,0.8264210719,0.8596039288,2.4530478724,0.0394818073,-0.6810525455,-1.127041726,0.0459065262,-0.0314400546,-9.1165941194,-0.0641511289,-2.2487121244,0.2539647976,-3.4980529106,-7.2656323603,0.4448769859,0.9005114276,0.3846568588,-2.5907823865,-3.6194677186,-2.4244961107,-0.9478778631,-0.7311787461,-28.0607934579,0.1972498766,-1.0617679116,-27.5639506288,0.2700463075,0.1732475331,-7.3708405104,-0.9967658777,-2.6557006411,-26.2518961085,-2.6982725049,0.4503481652,-0.3108438811,-0.4877626357,-1.3957937103,1.8049040095,-9.2551825672,-1.8317655164,-25.7569824484,-0.9386507794,-1.3129298457,-0.4698665947,-3.0077283992,-0.0950858471,0.7754294906,-8.9678853572,-4.3085791943,-0.2186500657,-27.678423574,-5.9947304683,1.2072256513,-0.4498844256,-2.344934307,-0.3981133157,-0.4153663789,-0.9205480832,-8.6028665298,-3.6038588567,-4.7263478274,-0.1262671438,-2.2706656606,-5.5403287238,-0.6413683764,-0.9676813525,-8.1545814726,1.1632924339,-27.9483732515,-8.9670054677,0.7166251738,-0.8859878468,0.8795195132,0.7145397376,-24.2329263973,-18.2158837731,-0.9247180041,0.5374324637,-4.0079705838,-27.63159571,-2.4537645761,1.8133776851,-2.4119497406,-3.8693662265,-0.0806358396,-1.8014295829,-1.5808462371,-1.6121665709,-10.141783363,-21.3705308483,-0.8776704867,0.4837440248,-2.0111079883,-2.0236199467,1.5505409974,-13.3315014416,-0.5437574187,-2.8886955061,-2.5901039362,-8.5714528901,-11.5603582895,-2.4237175672,-0.147677112,-1.889841139,1.3443898546,-8.9498671528,-1.6220792742,2.5283446391,-4.2792853101,-2.3471209817,1.248690178,-2.7395324807,2.2140426174,-3.2708672379,-0.6477363974,-6.1551389467,-1.4549338045,0.9016359973,-3.6771447315,-2.005509167,-0.4644740273,-8.8897744368,-0.350244604,-3.7321536993,-2.0028929406,0.0741598015,-2.7782745854,0.0279328317,-0.7509904198,0.7660313782,-0.0164228563,0.0767298718,0.5999509217,-1.0697134135,-0.6560564323,0.3529958632,1.4963883343,-2.7698409317,-3.9672931736,-1.6070643777,1.4404924575,0.9962711708,-10.1649021998,-0.4355142666,0.8305362921,1.9992535471,-0.1162390739,3.2929851655,-0.2514827328,0.7939644469,-9.2009509277,-0.2313415936,-8.3674253159,0.866438121,0.5768894275,-0.9263164373,-28.0074830891,0.7101320957,0.6179238143,-27.3992966821,-6.4144584658,-0.0943805958,-0.6331281285,0.2224584934,-0.2391771694,-3.4705124278,-1.1108923517,-0.0941226058,-26.2720953994,-0.5209398597,2.7481452989,-0.8945359664,-2.6656467468,-0.1614032837,-1.328795417,-7.5128282417,-4.3897700858,0.0304551984,-1.3009660757,-9.2237791473,1.2664572246,-0.6641544165,0.987517734,-0.5585111406,0.4167635566,-3.7339753527,-8.0920290537,-3.3540991309,0.7522599629,-1.0687485727,-3.326519897,-2.0717381348,-1.542393457,-1.1857406068,-0.6178683104,-0.1176692355,-27.2693885358,-2.3159927097,0.396581614,0.1819167316,1.9720338573,-0.2821567576,-22.8742679989,-16.4596738573,-0.2141521802,-0.3743203698,0.0775254072,-9.0640501444,-1.7117311249,1.4176530565,-1.2932290357,0.1295477161,-0.3973712949,-1.2645999296,-2.7298323041,2.9299647636,-9.378242785,-1.0121255635,-2.8687704717,-2.8591209422,-1.7587915226,-0.460886858,0.5213818667,-6.1614911755,-2.070393512,-0.676621191,-10.002045875,-10.0189540225,-11.0678180078,-0.4648915997,-3.609754723,-1.4808724939,-0.1266175491,-3.115335098,-1.2112535137,2.1563825908,0.572067003,-2.2524780306,0.3373517902,-1.0670121521,0.0861456713,-3.9936460063,-2.040563192,-10.6396068859,-7.1647888683,0.0604175359,-0.8803677677,-1.1283882559,0.1881051433,-2.2891630027,-0.7226685613,-3.8109197362,0.0847042545,0.2300896048,-1.1299220395,-1.1034981644,1.0910926622,-3.1313841972,1.1782169969,1.4929233289,0.8773996403,-1.9367431521,-3.1194390447,-0.8309220103,0.3932381051,-3.6883258354,-5.0497956138,-0.8082625998,-1.1705399454,-1.8679536409,0.4742605175,-0.0257101724,-0.0270382498,1.4021374795,-0.0015134221,0.3165304726,-0.3908929529,-2.9599332769,-3.3322483731,-0.6254341998,-3.0313455918,0.9126196193,1.3231552244,-5.2174462914,0.1348208216,-18.0024002335,-1.1179269581,-2.592874127,-1.4775898038,-0.8441277343,-1.4065182033,0.7386323894,0.2245277046,0.7674486563,-1.7024761863,-2.7651863885,-1.9079178687,0.2158907242,-3.7851880483,-3.3090885736,-0.3046970268,0.142993782,-3.716089472,-3.6583566993,-4.3680691651,-0.9853309408,0.1240505499,-10.1802377844,0.1514608531,-1.9676371441,-3.2000359657,-0.8817446422,-0.4053949819,1.4140810458,-9.4331370708,1.0515123046,-1.7831411233,0.4240458754,-4.5424184899,-3.6338932458,-2.5063263541,-0.0238952116,-1.3207287004,-0.2951851311,-0.5817422923,-4.0196659356,0.5602427231,-0.1221642654,0.3906184636,0.011646215,-27.9354134861,-0.5432733006,-4.1299977516,0.7566509356,-2.2316406991,-0.1618337189,-2.9554363683,-3.3456309795,-6.6320975081,0.9538645955,-0.7841532708,-1.1804495179,-3.6664221718,0.4286089767,0.6101496844,1.0167041248,-2.9508452428,1.0779988261,-3.4133265438,0.7306704934,-8.6796084917,-14.0171273031,-1.5786582112,-0.5220716443,-2.471305188,0.3617672076,-0.8274834131,-1.5683354868,-3.1001107024,-9.1010490313,-0.4901137641,-2.4446393665,-0.0117593193,-3.0403049971,-0.2153291287,-1.5891735678,-0.2404123514,0.6067354396,0.9689858364,-2.7051195833,-0.8521244377,-18.0049571267,-0.4664793507,0.4678940525,0.0208594482,0.7070719391,-0.405291327,0.2236942511,-1.9503769524,-2.5369111162,-0.0414109953,0.0266417813,0.8167130505,-27.5981553634,-3.6334528279,-13.5576186836,0.65580182,1.4094526805,0.5134179754,-3.4049212906,0.9900358187,0.117422386,3.6273921138,0.2698790542,-8.044561577,0.3903183098,1.3591259003,1.7218058229,1.1060776225,0.3839200048,-0.468761006,0.5660746178,-0.6406837025,0.7999882015,-0.8027874693,-0.0061471815,-27.7050558016,-0.0981226699,-8.281602417,1.4084795484,0.5396419408,-4.6477518789,-0.2586699795,-18.863474024,-3.8579252344,-1.4318708292,-1.9018453818,-0.7266651259,0.024146362,-0.2978885117,-9.8678722863,0.4449433555,-2.0937127349,-26.9869258753,-2.7066663866,-0.06237046,-8.1875336495,-9.6476781104,-6.8429237465,0.3936229138,-3.0561919263,-2.7816716877,-6.4878008449,-1.0631326412,0.4272709626,-10.0251232976,0.3341445512,-1.6189602347,-8.0049186792,-1.0753726573,0.596706288,1.7568451629,-26.3989690714,0.3474803259,-5.8191546244,0.7651963528,-5.5109260429,-2.9209133834,-2.6816994446,-1.4384700918,-1.6295345514,-8.4626918807,1.2032102202,-7.5054619304,-0.0271523985,-0.8230318547,0.9265684298,-9.8827673051,-26.166272704,-1.6998746347,-23.6734488826,-0.1902075157,-3.0164765021,-0.4192672641,-8.6070444869,-28.0197491349,0.0033964842,1.182647229,0.6362676999,-3.5344267423,-2.0531093883,-1.1947023013,-3.8459841336,0.9333227018,-1.6750097498,-0.1788747223,-7.83764763,-0.805618285,-26.2965857346,-13.0307743936,-0.9408761128,0.4968629522,-3.0707746063,0.8127355387,-4.3105835691,-0.5144552816,-8.6598050987,-27.5652203407,-3.4167844086,-14.3222828873,0.6487218762,-2.4556115317,0.7587982303,-1.9018358385,0.3301649492,-2.3597005689,-3.460771813,-1.8660166986,-0.6150048236,-18.7326349031,-0.6706693042,-0.7958694667,-0.4872337484,0.1400100495,-0.6337234713,-9.2158369758,0.399859789,-1.1855618217,0.6296717876,0.5801007459,1.222911598,-22.2651098305,-3.6273481619,-27.3907852323,0.6933539674,-0.2204395945,0.149622685,-0.3162705209,1.5599162206,0.652212923,-26.5406716876,-0.9767129961,-2.3196238007,-0.3556391987,-2.510572414,0.3908870977,1.069810405,1.1491560246,-0.1328297373,-2.2352712654,0.2639666326,1.5805648626,0.0608179747,1.1145788533,-27.0442410117,0.2442119795,-5.9072881049,-26.5793743397,0.2286460573,-11.5374517866,-22.2481119934,-1.2815343139,-0.0821217155,0.933188465,-7.0102269942,0.1368688765,0.4353736397,0.336286545,0.6982862004,-9.8377609035,1.0730297293,-1.3346716585,0.5972623741,0.4956430138,1.1855934184,-0.5214334014,-0.4188669801,0.0157672245,-3.0800955408,-9.8732844063,-6.8486728537,-1.281719413,-8.613251519,-0.0917238678,1.460320803,1.2058030594,0.1941122559,-0.7620083456,0.6656543439,-9.4791818852,-1.6477901546,-1.4602625396,-1.7120678477,-1.4726577483,-8.4226140441,-1.6350849244,-1.4230401755,-1.7033450072,-1.780822075,-0.7804039157,-26.281718237,-1.2699229104,-0.8969227857,-0.8334827062,-0.1905196249,0.3718043928,-2.7579239604,-7.0750178725,-10.2181204441,1.2079311971,-1.5715281817,-10.2215176711,1.5270366991,-1.3248887709,-1.6315583413,-0.2673269637,-0.3602521317,-0.1186491554,-4.0231241692,1.0185485678,0.6278692831,-0.4060491008,2.1285579116,-1.0729865164,-0.6955814926,-1.9409392064,-8.5263268393,-5.8107582176,0.160810882,-1.5649945586,-9.3469443699,0.1867296865,1.2117676181,3.9351921167,0.9061428547,0.2017177204,-0.391924802,-2.6421455983,1.8913109262,-2.774755207,-0.5864671126,-0.2720639677,0.6957253526,0.9801775541,0.3147367432,-8.7548857675,-0.5066594024,-0.1391764212,-27.3697504842,0.3475698929,-8.7067024098,0.1533740361,-0.8373596975,-1.0605638761,-0.6710766772,-8.5312046197,-0.6393304635,0.1057454504,-2.0247450389,-0.9833654807,-0.4382760105,-1.1249528995,-0.5397070245,0.2922895557,-0.7285748563,-4.053558492,-9.8059460904,0.5841652828,2.4512596392,-9.0905572145,0.8447662004,0.8353653735,0.1650230384,-0.3534930795,-9.8559341596,-0.2127607852,-0.266216776,-0.4555509311,0.0230909244,-0.1250617792,0.1014069605,0.0361273137,-1.357013864,-0.4285007251,-5.8132929619,-9.0574382692,1.193383018,-5.0626962378,-9.1659628708,-5.8379410342,-3.2824566386,0.6916995462,-6.3777704642,-2.002624798,0.7433978323,-0.0919322179,-8.562191745,0.7864080952,-4.4606084873,0.1390564426,-9.0041077252,-0.0555875271,-1.1725034397,-1.1220015523,-7.1760129415,-0.5966899956,3.7399164093,-9.9312028579,-12.2302438307,-1.3772488586,0.708228962,-10.4425432937,-2.3985755447,-9.0817330598,-9.5499833871,0.0408691635,0.1215921536,2.5403389164,-9.8685922741,-2.9601191185,0.4992212182,-1.0574905026,-4.6812370574,-5.3733500286,-3.6953783447,-10.0398350922,-5.7762423542,-2.1871469734,-1.0696613267,-4.0637308287,-0.8871468781,0.5103676935,1.0810472622,-0.0878085555,-20.286899329,-16.508137313,-10.2886725177,-1.7663994987,-2.6513794095,-3.5325707774,-3.1421614792,-26.7127219469,-1.2323599979,-1.6841071523,0.6087038176,-9.8475883922,-1.9957799746,-5.8919641536,-1.0133097607,-8.9447450398,-4.3129456777,-3.4990399367,-8.986378337,-3.5598923704,-27.116984784,-0.7403333582,-0.3608037481,-5.5150082091,0.9819506368,-9.947218182,0.3406806628,-2.9298197834,-9.3091717233,-8.592824993,-8.4532605553,-5.6812995618,-2.805261981,-8.6224291697,-22.1188500182,2.0471545695,-0.1043889169,-0.7412138254,0.4288371269,-6.1991099136,1.128015919,-7.6007844859,-5.2218893724,0.4493517042,-9.1416918327,-0.7202056579,0.132415326,-8.5709665321,-7.1578795071,-7.8038583093,-0.5071806628,0.2216588854,2.1914961364,-27.2958115048,1.7859081768,-28.0017965494,-9.2050873947,2.2770949069,-0.4009685296,-0.3007342074,-10.1671080068,0.1951776505,-9.5192454241,-9.0806157109,-5.6690134234,-7.6349135865,-3.4978667177,-8.5691350878,-2.5076743189,-2.7462552295,-0.7331835016,-9.8219745239,0.7877829016,-2.5754302045,0.1359518091,-3.1178734728,-26.1123269573,0.3854211359,-3.8862602976,-0.6296505486,1.2382524896,-3.7728696657,-21.304829852,-26.6217423012,1.0783648081,-0.4175858751,-5.411296103,0.8169472873,0.6021101377,-0.4135886485,-10.2215846896,-9.8725496977,-2.9035133989,-0.9607572767,-0.5016874208,-0.9847535845,1.2473525939,0.0507421535,-0.4346032782,-1.6073457906,-0.4257407038,-20.3484223034,-4.7910285413,-1.0891952667,-1.8457959024,-0.661168878,0.8229732371,1.1267125873,-8.4617732423,-0.6615746652,0.0718995853,-27.0045123897,-6.2805435408,-3.3229139266,-2.1941527757,-1.1510775903,-5.383043381,-1.2735095435,-0.2617131131,-9.5325015767,-1.476095519,-6.0104083625,-25.5786494091,1.2037183734,-0.3275175061,0.0118233469,-3.249228713,-3.4573284036,-3.2895904076,-10.9616262613,-26.7585891668,-2.1313000522,-3.7949419228,-22.378168243,0.814133324,-27.8822227879,-0.9387925271,-3.3756432862,-0.8307910903,-6.0371131034,-3.171592525,1.070626037,0.2651814533,0.7971124986,1.0793473012,-6.7206202593,-9.386839212,-7.7827424041,-27.4837544825,-12.6284432273,-0.0980016573,-1.7767093992,-10.0178238938,-0.7211731362,0.9744800182,-0.647320233,-0.213333293,0.398961204,0.7125316635,-3.2752283318,-0.7871723799,-8.2941362254,0.6864977898,-2.4121506348,-0.7944054664,1.8723494782,-9.5551494404,-4.0396575154,-9.6737868588,-0.5247980769,-7.0336041028,-0.4736822851,-26.9310182613,-2.7414875343,-0.6503775671,-7.6867709078,-7.3682642489,-3.3612389122,-2.1522382099,-0.6615492773,-3.4880364571,1.1281166605,0.9055108831,-27.7691109997,-3.506588323,-8.8659643311,-1.2219711192,-4.1739815405,-7.0454809311,-0.6759961667,-2.6730733974,-9.9044517055,0.8116189325,-2.4286598869,-2.8589611306,-6.5111394445,-9.0828714341,0.8734535082,1.1971921791,-9.2064548932,-9.7585420187,0.9467465339,-0.9304816351,0.7574609522,-3.0370657469,0.1819732231,-4.8499113755,-8.5013746193,1.0442732183,0.8440144016,-9.6897444103,-0.0817280044,-2.7534973513,-27.561805106,-1.9394499897,-1.2168462405,0.1939367544,-1.55708165,-3.7888199486,0.3158816148,-1.4284351474,0.1830093225,-27.9273405906,0.6987693962,-1.6979751724,0.1336605252,-0.4730410109,0.4312653842,-3.0340789874,-8.7029806712,-6.268833969,-1.0878685188,-26.6152519931,-6.479801421,1.4010427852,-0.2856484742,0.3097466841,-0.699736967,0.5658628773,-3.6090625536,-9.8587019659,-2.8416539661,0.6311562159,-1.2368133683,-8.5611892504,-6.0650898309,-1.5819655125,0.7327563311,-0.17327369,0.3206132695,-27.2142752693,-2.6057792995,-0.7059734295,0.9244210973,0.005174536,-1.2051924691,-13.941119003,-19.1105447088,-1.076623008,-1.0904958979,0.7814723029,-2.753578119,-2.7813489802,0.5625694261,-0.7695522505,-2.5985471342,-0.9484450129,-3.0250301534,-3.9948772353,-2.1220229561,-26.753831978,-8.2179687494,-0.6757750872,-1.3427843393,-1.0224327531,-3.0813557378,-0.1073912548,-13.1594637841,-0.1272703608,-8.6562208434,-27.2333038464,-8.9477435763,-13.6898854502,-0.2015170321,3.0738239176,-27.4579321242,1.642338885,-1.9747941922,0.3986931895,0.3030917977,0.0818497086,0.5019075268,1.174858318,-0.7497593371,0.7360049898,-10.2877601773,-3.5616307058,-10.1746373811,-27.9609965514,-0.3197728241,-0.3595016193,-0.4134131149,-0.6935788593,-0.0423922023,-1.084248937,-6.2831965732,-0.7405116399,-0.0946058266,-0.5253470387,-4.0958961609,1.0727705583,-2.3880973873,-1.2184318327,-0.1164253734,0.9116265448,-1.1527066522,-9.1565673679,0.3768759951,-0.9225877587,-0.1221572607,-8.2166090938,-0.2508295283,-1.1935685176,0.9794768758,-0.0978862011,-0.7212897751,0.0918737169,-1.0254693931,-0.2711232523,-0.886926525,-0.2615921963,0.1774056938,-26.7637620229,0.0465723173,-1.4575458357,2.4168201558,1.1774327591,0.8962200989,-3.9718464271,-8.16741992,-0.1582952274,-9.4739311904,-2.1749069395,-1.0095603993,0.464092886,0.2797941276,-2.0943878399,2.9337645019,-0.9903120289,-0.8459450546,-24.6526743497,-0.7162745492,-2.486400115,-0.0562518253,0.6040028195,0.928497623,0.0524368091,-9.9100298408,-6.0284203779,-0.7840476496,-27.2646546019,-4.8132528667,-1.3159399657,-0.4960007233,1.6986589136,0.6119572656,-0.9259529334,-9.9829952493,-9.8233537988,-7.4379951681,-6.5735998848,-0.6841388158,-4.5625350694,-4.8033032884,-0.1310243211,-0.2238933322,-2.7538479368,-0.1343513052,-26.3428362882,-3.7999037782,-0.2060119754,0.0645685584,0.4554855357,1.5315937467,-24.7212836029,-16.3107718422,-0.1985606442,-0.1064107382,-4.2322732194,-8.8888785272,-3.1366648085,-0.3654325911,-8.1786044535,-2.5827286877,-0.6460395679,-0.1784429748,-1.7892623155,-0.8965787948,-9.8220711942,0.1277119717,-2.216717369,-2.3122284474,-3.2322092137,-2.0919680354,0.249043755,-4.7857099404,-0.4228327428,-3.4617599314,-2.4387343274,-3.1545147451,-11.0489288335,-1.7541523961,-0.7685464123,-0.8550858422,0.1016147105,-3.3053065402,-1.651921607,-2.2837316696,-1.2950959664,-3.3189776171,-0.5905304115,2.2510101034,0.3476780896,-3.4224040716,-2.8479910727,-6.9755988587,-0.9692532495,0.8179539371,-5.124730598,0.3429756095,-1.5130646267,-2.022701741,-0.7095429645,-8.4542384423,-1.9957021012,-2.8166936544,0.8554931196,-4.0539719642,-2.3087094955,-3.6526626271,-2.1470572486,0.8424945986,0.150331454,-4.9349550913,-2.0647751738,0.8042679939,1.460965289,-3.779830556,-0.8692739651,-3.2449790941,1.2686549346,0.5255012454,-8.3255749164,-26.1382401815,-0.2524436229,-1.3693779895,0.1162540037,-1.1894613302,-0.1142881782,-0.0912803587,-3.3143590612,-0.78897413,-5.9884603743,0.7215941869,1.6210287411,-0.2207588551,-27.022402203,-0.743831113,-1.0925985463,-8.6932114314,-1.2186270094,0.6452052522,0.1169096704,-0.7372485517,-2.4870275745,1.1189465662,-2.3717123776,-1.15906056,-24.6287726524,0.1707311888,-0.3312755582,-0.6225219967,-0.211214938,0.3880831486,0.4340827061,-9.0604306945,-7.1083262981,-1.0431495948,-9.8989589176,-9.03798279,0.9045667167,0.9055058723,0.9098586721,-0.8744981114,-0.4676047244,-9.276105159,-9.8098689346,-3.1787366787,-6.3334381478,-1.4648155337,-3.9297338967,-2.8890044972,-1.517163914,1.7216948453,-1.0662574602,0.2174044432,-26.632133762,-3.1523991634,0.0425477191,0.5128712102,4.1552135762,-0.2654375103,-26.8904936313,-23.028763914,-0.2664546729,-1.086847557,-3.4035605041,-7.9270215879,-3.2325601805,1.4951399536,-1.4067739364,-1.9654571705,-1.169651038,-1.8189575517,-2.6669862341,0.8399158354,-8.8871957851,-3.3424270769,-2.2308207629,0.2089840211,-2.2574447287,-1.9684565155,1.0284608048,-5.8505139855,-0.5351934517,-1.6878253473,-5.8139177092,-9.3084624874,-11.1853903828,0.0054147289,-0.39293929,-26.5604957522,-0.0648234693,-2.9977579606,-1.7762050385,-0.1026461586,-8.4951778324,3.2115432071,1.9040018509,-0.3770027878,0.6738000304,-3.6864163532,0.8547084233,-8.9854330476,-27.5497345749,-0.0347967954,-5.2787996226,-0.488554686,-0.7004566713,-8.5956585921,0.848277029,-0.4444402654,-0.3823642484,-0.3132246741,-3.0049758003,0.0690035394,2.4488996498,-9.6481112935,-0.8761428251,1.1626466556,0.2575985035,1.5332940688,-3.2429519388,0.2824609733,1.0160176439,-3.5058551028,-5.5449110921,-1.8109082233,3.9577940185,0.5458931243,-2.706222885,-0.8483808406,0.8401673652,0.0286311682,-1.0549244112,-3.0850902421,0.8055984988,4.0454127442,-28.0894488457,0.3780976908,-8.1925716536,0.6082641214,-0.0873165918,-3.5460411672,1.105908821,-26.2833630282,0.0374264276,1.6491344742,-2.4685245501,0.7068144214,-0.2875989026,0.8282510066,-1.8019771981,0.2841282161,-1.3485898744,-8.7165634505,0.2064053777,-0.8302050073,-3.773601778,-0.3101110188,-3.7151156379,1.202044681,-3.2166935536,-9.2968170308,-9.7207065636,-2.0021718318,-0.8511792196,-8.4157149905,-2.9811942494,-0.3753738734,-2.9582721999,-0.5077199162,0.140102219,0.2961709421,-26.4185310121,0.0236096357,-5.8868714985,-0.0523807672,-11.1497511124,-3.0458869833,-0.0536426919,0.4948591729,-0.6348126684,-26.5534947617,-0.3510279462,-3.572436814,0.1379184946,0.8875938882,0.3837457666,-10.8082972548,-21.6661810822,-0.0559663668,-9.1167208812,-0.2718030544,-1.0177833401,-0.0741212873,-3.636561395,-1.2019475379,-4.1342102893,1.6468398998,-0.1113510708,0.0116230575,-4.1342752634,1.429251892,-0.609546369,-0.7012433353,1.2917648224,1.3998540893,-3.3769692355,1.518610515,-26.4773339353,-10.6874944449,-0.9533093821,-1.4743949604,0.5847782314,-0.0187316143,-12.0214901185,-3.2916526595,-3.4968438917,-9.2884801759,-3.5695568734,-6.7187657432,-0.8499168711,-3.9147452348,0.0020378137,-2.9997615025,-0.2909560853,-3.5781661378,-3.2341992313,-1.3270577124,-0.1074856916,-12.99559293,-1.2243768398,-0.9307462577,0.5918517928,1.1151145545,0.5877980572,-3.3355585851,-0.8927919797,-3.3666877883,-1.2910354789,-3.2518126456,0.6700256131,-27.4835298349,-1.5159633409,0.3717692418,0.3013408272,3.9661925964,-0.5876564845,0.2333937509,1.3393705511,-0.3282629826,-2.5704540636,0.6575764593,-7.1072516118,0.6891750386,-2.574727179,-7.1692241896,0.8387008103,0.8278017117,-0.9074367274,-3.0257612573,-2.9976232831,-1.6690981076,-0.2329894745,0.941028351,-27.9036125885,-0.9502106766,-2.3182331902,-27.4806266245,-0.1858380297,-3.7755568536,-0.7542789663,-27.3138714202,5.047458696,-0.6431261159,0.1361645886,-0.8374189495,-0.5816459681,-1.3672491812,-3.2980230982,-0.6856812419,-1.5024881635,-10.0900438142,-0.9523907668,0.0198228245,-3.1062738852,-1.5341198923,-1.9798441642,2.1700366661,-2.1694748877,0.928077831,-15.1229076353,-0.3647205072,-5.6616685069,-7.1348416821,-2.2614817091,1.5244262326,-2.6241419082,0.0238945249,0.5510429648,-1.3998014844,-2.9171409767,-3.1439465599,-1.9125031214,-0.4579705337,-6.4142832395,-1.3336760801,-2.5922972353,-3.1642036218,-1.3489898783,-22.6980691256,1.8956936768,-3.9469722268,-2.2070016061,0.2715576799,-0.0202368025,-0.0048898741,-15.0605795012,-22.9871359811,-4.0655424584,-0.716522867,-0.692945431,-2.9250734337,0.4347267778,-9.1702665681,-2.4635303929,-2.4800273463,0.1391215102,-7.8902530094,-2.6631233315,0.9837910977,-9.8494454351,-3.3853860061,-2.5260999741,-1.7999391533,-3.5310483421,-0.2755391873,1.0662516646,-5.9832485419,0.0078260176,1.0228639097,-6.6042825863,-2.8537804131,-0.4447105933,-2.6351805791,-9.9146241442,1.8858037663,-3.197794139,-5.5578116096,-1.9255703785,-21.5539807536,-1.2498094563,-3.3825332945,-0.0159485267,0.8133780693,-0.7056347627,3.0136139946,-3.6686634843,-8.0232539521,0.0540012082,0.8743768707,-4.1918343483,-0.1087555286,-0.883043276,-3.9729253482,-3.2565394126,-2.0061694301,0.6674614145,-1.7294973924,1.207787881,-26.2588254487,-2.9493401382,-1.0282462233,1.1969232134,-1.0962957648,0.4539908062,-12.959178128,-21.1867461828,-0.4116618301,-3.3620883149,-2.0778686564,-2.6789260749,1.010748005,0.9084349454,-3.5041434483,-2.7938862465,-26.3609275062,-1.3267063989,-3.8666114095,-3.1630229064,-2.4062890328,-0.0893959309,-3.7263826925,-0.7298156365,-0.8627977022,-0.3838954185,0.8226071163,-0.7853867941,-4.7598243747,0.8072613738,-1.1542571402,-3.7377274637,2.7878089311,-3.4505990448,-0.2646920938,-1.3879711483,-0.7219610509,-1.3711641882,0.2467643028,-0.1328595368,0.5927423326,2.0897526989,0.0214185556,0.981439486,-0.0934872446,-2.4327914873,1.3528837522,-0.7549456741,-0.1237096552,-1.5536088357,-2.3101447483,-1.7834797175,-11.6722070643,-3.6238505764,0.1454051133,-1.6690044676,-0.0007584093,0.1333389708,-0.0373401199,-10.1336826227,0.5758123566,-2.9291436634,-1.0794871797,-9.1091345029,0.6955620921,-5.0692567388,-1.3014559001,-3.2401896589,0.1453222194,-2.0740337925,-2.415519559,-0.6304025362,0.390823646,0.4714922018,-1.1736454019,-27.5635079677,-9.639400503,-0.6468558277,0.7485457092,-0.5181170315,1.4431754258,-3.9627264814,2.0340442109,-1.0170088719,0.6799648931,0.5806798197,-2.2456092194,-8.8533362187,0.2241032199,-2.2417222322,-1.391496642,0.6271041728,-1.1196186198,-1.8262273059,2.3938816551,-27.1375329456,-12.697012837,-1.0345783269,1.1462669898,0.2164819002,-26.6400095264,-12.6357570753,0.3150975771,-1.2288535455,-0.3746718427,-0.024391121,-0.5258201727,-0.1947003805,-1.4507688016,0.597311321,-0.6957098488,0.6476713711,-8.6221496532,0.8017718307,-0.8404183872,-0.7531429608,-18.7490115349,-0.8675335389,0.2355121249,1.929548228,0.6341574273,-1.0194720279,-3.2948964937,-2.3598043531,-7.9777038533,0.0770030059,0.1371907179,0.4144815487,-9.4963122903,-1.3654750358,-1.1186552799,0.0931800122,0.4630712596,0.1893636414,-0.8266870393,-1.9585745978,-0.0385537079,-0.479484093,1.6584694411,-7.6021506587,-0.5815135919,-1.5127116493,-6.0068339578,-3.0682234392,-0.5864510643,0.7389120856,1.3135336682,-0.5642789391,2.5477011883,-0.4847445526,0.3019512107,-26.3363151629,-0.0243459513,-2.2405444022,1.4885718822,1.4032415575,-4.9357752337,-1.1389104587,-0.0025868659,0.1990824027,-1.7016764974,-2.9722658155,0.6772267932,-2.2728959554,0.0426762562,-0.8182827834,-1.6588789147,-4.0168823954,-0.7126903808,0.4413388746,0.322293704,0.4726070575,-0.4363718368,-1.4325341559,-1.0991380696,0.7257990647,1.207922763,-6.4666880548,-0.9450926627,1.1212946263,0.6083743783,0.0963752947,1.1563308279,-3.9747109421,-4.8487897674,-0.8385061139,-0.3560482025,1.627387501,0.9254956866,-3.1404531128,-0.8736582347,-5.835320599,-2.233073333,-2.2104182406,-1.087572626,-6.5168706889,-0.4629355225,-0.302759406,-1.2564892802,-2.2415664764,0.5512457185,-2.878143079,-0.7784422731,-0.4820421111,0.3738942833,0.6756511229,1.0303598983,-2.4509285785,-2.7644161446,-2.860919543,0.8158659363,-0.1467178549,0.3324934838,-0.5716981775,-3.2958612011,-4.3051806042,0.1273808037,0.4127526876,-3.4097337906,-2.7348914988,0.0037202592,-9.6771198765,-9.1846174053,-10.1923048892,-0.2072700506,-0.0407638636,0.00984478,-9.0178120133,-0.010169301,-1.3576813262,-0.0033580331,-0.4861349142,0.3255175848,0.5208351156,-9.3786961895,-2.7415254284,-0.419789651,-1.2125971031,0.366987507,-0.006651407,-8.9072847907,-0.4369567109,-0.0635306199,-3.0607010833,0.4155246079,0.9326641078,0.1814248539,-8.2472620287,0.7482619657,-0.9527880955,-3.7420423016,-1.9955971658,-3.0237132453,0.9094978098,0.1726556404,-3.6785605116,-2.5064631996,-3.0727615166,-1.1520361956,-1.1820842415,0.1427217017,0.3713808785,0.9318379567,-2.9344301106,-0.321006769,-0.3243194333,-0.7009518078,-7.2755257565,0.9463089136,1.2983447889,-2.5305047284,-0.3756066765,0.6495563123,0.8474587496,0.4246828321,-3.0578161762,0.6980989556,-0.8382209335,-2.5289218954,1.1669368926,0.7523173451,-6.9096016482,1.4997468537,0.8025111444
   -1.4044623793,-25.778817363,0.5538438005,-2.0478262675,-8.7770997013,-2.9173463412,0.5120401696,-0.193032218,0.7687308514,0.2194482,0.6283950962,-1.9550669556,1.2083478353,-26.2026239673,0.5653926771,4.1021273533,-0.1956160657,-2.2387468673,-0.3352287834,-3.2687469702,-9.9742671485,-5.0102602994,-1.0592195552,-8.3767974438,-6.9541787715,-0.5524808966,-2.4246613361,-0.4750394011,-0.982165067,-0.4088201307,-9.744665007,-9.2583485538,-7.2968247727,-2.8606780155,0.2377580479,1.7375555401,-5.8916718623,-2.3824064091,2.4128577744,-1.461996005,-0.9080853324,-27.3599783273,-3.0765446306,-0.3057039167,0.4876984861,0.2134606541,-3.9648438394,-18.7019151945,-15.0329352233,-3.6096624049,-0.907087007,-4.7025147414,-9.166372218,-1.3437740927,0.4627992301,-0.3501894375,0.3647903201,0.9118264863,-0.801335006,-3.2085799057,-2.9171329322,-3.9931839132,-0.1944353429,-3.439496898,-1.9462207516,3.0199437121,-2.4875170805,-0.2186861171,-12.5204233523,-1.3844941775,-0.2406852236,-10.137521227,-9.0077460177,-11.9149503402,-1.09279485,1.3043057857,-0.2213428356,-0.3195487439,-3.6571597066,-1.2757843925,-3.5975094716,0.9430946838,-0.2933507846,0.3470373115,-0.0489094414,0.4480937086,-3.6908413125,0.5587327087,-11.309584717,-3.3598858487,-0.2088451405,-0.7058870266,0.0507383194,-0.1248006465,-1.5565685998,-0.8973164969,-7.8314047351,-0.6267559909,-0.9561510878,-0.0594128872,-5.2200121882,-0.7826504455,1.1956195207,2.3368323775,1.1824402336,0.8245361091,-1.4766625496,-3.0859124299,-0.06119974,-2.7768357937,-3.5977905954,-3.3473308137,-1.204115633,1.2027249758,-0.6206796364,-2.1146584928,-4.1104482866,0.3822976721,0.9484451156,0.159019845,-1.137348294,-0.8226075566,1.1260647717,-26.885725283,-0.7069251111,-2.57174196,-1.9092443788,1.104962263,-4.1994714428,-26.569773348,-13.2170098284,-9.5969293933,-9.0968098146,-2.7553530273,-0.80637714,0.319313685,0.8127791395,-1.0447977882,0.502852858,-2.878912283,-0.2401513112,-25.021385701,-0.0510864056,1.8658495388,-0.7339880689,-2.5178031899,0.8892538832,0.3452499081,-9.4373541357,-6.6595079111,0.3902379658,-3.4663167007,-6.1617130995,-0.6095301153,0.9312547536,-8.8354458613,0.4385265866,-0.2957130912,-9.0189084857,-9.6241977571,-7.15581101,-5.9715946135,-0.6428767588,-6.0780777606,-1.6043297722,-6.5894453048,0.4353760145,-1.5737472196,0.9139832628,-27.4165209613,-4.12000204,-0.6649387618,-0.381184136,0.9607970245,-0.3069622977,-21.6561930108,-18.2012659598,-2.1989274609,-0.0294413584,-4.7533398231,-8.4826642908,-0.1175284888,-0.2199352551,-2.1635165863,-0.1778726399,-1.0964070807,0.1509360075,0.1298161392,0.3946596931,-1.5438686961,-0.9656665005,-5.8371701398,-1.9745491564,1.6152159783,3.3696200593,-0.5178359159,-4.1981601636,-1.173635787,1.8325287082,-9.9529472534,-10.0195507316,-12.1127450286,-2.9195004308,-3.606105416,-4.10731152,0.8327982177,-2.1209093141,-1.3000522311,-8.1328566863,-8.6573947453,1.5015360486,0.5258645206,3.8181732353,0.1286184565,-1.0672062385,0.0170960905,-10.6864438472,-3.1674540336,0.2404715556,3.413187753,-1.3272497226,-1.4211815834,1.1459218534,1.6015277694,-8.9529372539,0.391125541,-0.7448704743,-1.6122655509,1.1231053386,0.4524121572,-0.4376703312,-2.3193733642,1.5635302338,-0.6117765145,-0.0272843508,0.6170751854,0.2986917767,0.4792379011,-2.9588945968,-5.8462817066,-2.5322237407,-2.4497367013,0.8577886577,-0.0660368644,-1.6707492355,-0.6607945182,0.2625304029,2.3321460969,-3.526975718,-0.0305404618,-0.49286465,-4.7343347214,-0.0266443716,-5.5154757964,-4.0982187849,1.3013618228,-1.7375787248,-25.1190683837,-2.5801247132,-4.728022994,-25.6998021862,-2.3167091764,-0.8651286156,-1.4429243849,0.6129636775,-0.1285170478,-2.6128937765,-7.4688917515,2.8783627813,-23.4431590299,0.3966318979,-1.070406841,2.4013803579,-9.1939381471,-2.2507629302,1.6325010358,-9.2558052478,-4.858736302,-0.5343253863,-8.8213144731,-11.3677230479,-0.3617719739,-0.4658323849,-8.986498597,-0.6794783015,-0.4100662834,-26.2350059403,-9.7827116057,-2.1652520732,-6.3358830663,-0.1195144704,-1.9486962501,-5.4775493408,-5.0927965446,-0.0903303876,-6.113466172,0.2941487617,-25.4865525056,-9.0190995909,-0.3012152902,-1.5046371778,0.5217203706,-0.1255659294,-24.3992008615,-18.6523812422,-2.8356484906,0.4689617525,-4.1769525978,-8.5063319723,-1.1163399097,0.1804319416,-0.0108478954,-2.7488114257,-0.7339334415,-1.3326329954,-1.4779086832,1.4682703116,-2.3295330914,-3.6811190456,-2.7166741314,-7.6374731336,3.422624492,3.7746354068,-2.4134495692,-4.1855718889,-1.7643198422,1.5449198712,-5.8810242749,-9.8498270751,-12.1607528245,-2.2578517712,-2.1930683473,-8.7397999047,-3.6501638528,-3.806965613,-1.4441911524,-1.0302763589,-26.5727951082,-0.1861907941,-0.504037737,1.9801406139,1.1910851878,-3.5668164098,-2.7977413662,-7.5629220139,-8.5252209079,-0.1170424094,0.6017810114,0.433994419,0.0182814966,2.3265871944,0.4906198222,-2.4391014224,-0.7245666969,-0.0196417711,-3.5342237801,0.6939675048,-1.0370491646,-1.1640499718,-2.8854740667,0.3905412674,-0.9125337384,2.3337971627,-7.5786089073,0.2558177993,2.6505812155,-3.3916158977,-3.4297509352,-4.3029323397,-2.9547739733,0.1404412011,-2.2421882812,0.6772955347,-0.4683107257,1.1260838136,1.2763645481,-3.3525942412,-1.1987271877,0.4842163282,-1.5991543398,-0.5035218947,-8.2734869742,-8.1687498978,1.152265805,-4.9238547119,-26.1604771055,-0.8622334568,-8.290417607,0.8425532771,-4.9563442913,-0.6439348953,-0.4339003663,-0.4826101638,-0.8892786938,-3.2109491452,-1.9227440503,-3.7877285552,0.4718577522,0.5112109249,3.4708319707,-1.1864137707,4.3825945726,-3.8634786038,-2.7805309164,-9.4255165439,-6.4550986061,-1.4320166228,-1.025106631,-13.4766564612,0.5093436443,0.1031524936,0.3514899736,-2.482684535,0.6820946871,-0.2521354806,-0.5350179009,-3.2428856765,-5.7352084309,0.0638841098,1.1843453753,-8.8408415711,-2.9327818002,0.6225171899,-2.7199788154,-1.9815258651,-0.5518303207,0.6254042812,0.1640180542,2.0558632715,-3.7935639867,0.5392555849,0.8426480802,0.9927717018,-4.1283301689,-0.4409722941,-1.6586315529,-2.9633696739,-3.934409496,-0.3676629138,-7.0015735846,-0.2302064335,-1.0985275018,-3.3018472177,-3.9842883814,-2.9708554837,-0.7623202435,-3.3633784471,-3.5143051347,-0.8036384868,-1.9573632984,-1.809630024,-9.1894008006,-2.3833532303,1.544284544,-2.9125812199,-8.9672695334,-9.8362189382,-4.4742439588,0.9166610517,-0.2027658875,-3.8226760319,0.4977354189,-3.8827077395,0.2398217096,-3.1005068362,-0.8624005674,0.1149412579,-0.5389369355,-1.7438631932,-0.5947352664,0.1789129907,-9.7437080734,-0.3763547316,-22.9877221346,0.3054381652,-9.0034827066,1.1451020112,-1.4802170118,1.4535281072,-2.4293305143,-3.9877280009,1.1341439776,0.7036377951,-0.8100843575,-1.8396473952,1.1333966891,0.1574144526,-3.8469402495,2.328486109,0.5976700051,-1.9534707189,-9.9324185501,-0.0379474252,-0.2737638363,-9.4636961577,-6.2691200308,-2.6300563395,-2.1085023885,-7.7392470009,-3.4214988012,1.5764951146,-0.5218280798,-0.1624879332,-0.8942887715,3.2592155537,-1.0256005258,0.7672417895,-9.6118714757,0.8076614117,-7.839180609,-8.1952157962,0.4238646792,0.4948451782,-7.2473308171,-3.3293209957,-1.9497439039,1.2991905204,-3.5664871118,-0.6903784531,-0.5910521959,-1.0557881173,-27.0047422973,-2.9360481195,-5.0937305978,1.2310969643,0.5575256225,-0.7626832505,-2.5696392603,-8.8818232756,-3.1767672433,-1.645313597,-2.466622713,-9.1660873048,-5.7200324572,-1.6875247089,1.2043363649,-11.1471296269,-0.0196997497,0.2449753508,-0.1515394246,-3.2238185885,0.3657026785,0.7571789229,0.4985773028,-2.0477136052,-1.4465612671,-0.7141356093,-6.0541181767,-1.8582724319,-1.2154544318,-1.2920788209,-7.124775706,0.0502882293,-26.9402092661,-3.5651877331,-0.3844127501,0.8386940007,1.0021753854,-11.0991690662,-27.1971155815,-1.3949963843,-1.9671847703,-3.2846755877,-2.3725202716,-9.5835250044,-3.4037037678,-26.2815109269,0.1166739483,-9.3799377539,-0.1956773206,-3.3758859105,-4.0056955024,-2.593944786,0.3230214629,-1.8238660166,-0.7994178279,0.358687075,-0.0863902952,0.0122994177,0.5283060029,-0.832164885,-0.5966263479,-3.721815198,-4.1504158587,-2.4203548022,-10.8236246002,0.0029049383,0.1006678489,-8.7866867221,-3.9222744509,-2.5358841093,-1.0217268174,-2.2323494017,-3.3924083025,-3.3838173619,-0.3757228402,-3.4549134247,-2.7542322346,0.3419311831,0.5483947467,-12.711004913,-0.2557974265,0.0874158143,-4.0554563158,1.4995072349,-0.4971902866,-3.3372738135,-8.8799611612,0.4138857404,-0.5634232386,1.0872058362,-4.0696200665,-27.3634894915,-1.0485714997,-2.7466863794,-2.7497772374,-1.0057473828,-1.0596298454,-7.2352451655,-9.7053912946,0.0422710408,-27.9246022166,-0.3042799298,-0.8087637182,1.164842617,0.8667834633,-7.2284879139,-1.5014288934,0.4197511449,-0.0312532459,-2.944106716,-3.9492986948,-2.2694059656,-0.8251547016,0.6308683144,-9.172334158,0.3943474317,-2.5642960439,1.3352101628,-0.7435731679,0.5198438677,-27.5750968988,-0.0366638931,-0.5075003303,-10.2749985144,-3.0810279081,-0.0009925926,-0.4378946253,0.0736305635,-0.4903961241,1.2160929269,-2.5722354902,1.2613868105,-27.8590718406,0.4393270054,3.2184597947,0.6525750274,-3.3080256498,-1.3722572111,-2.1184372828,-3.6117466947,-5.7991085388,-1.74791741,-25.4461348573,-6.5710019819,-1.3751174573,-0.9353310461,1.2546956138,-0.9298702561,-0.5702859418,-3.6347458041,-8.566974682,-3.7660050523,-0.1001215421,0.2462049805,-9.8167432701,-2.6016606428,0.6176802356,1.0907639083,-1.7550887911,0.2110686999,-0.7522155635,-3.2534475014,0.7188153197,0.7510733739,-0.0700068993,0.3608917812,-27.1947849145,-19.0706543785,-1.1338888421,0.5413036999,-1.3729071855,-2.5967805,-0.7957521555,-0.705981772,-1.679350726,1.8360128725,-0.5744810268,-0.1640272887,-7.4377713511,-3.1986555024,-2.5053976316,-0.6870330632,-1.5373226068,0.2326448068,3.5029288538,-2.3020202846,-1.6974553089,-12.3114072985,-0.4758634363,-0.3609763446,-8.4099442322,-7.8691984312,-12.0644385486,-1.9900101174,-0.3666413625,-0.4632734304,0.909413498,-3.2808056793,-0.8392221037,-2.5150987052,-0.7753862561,-0.3821638856,0.1814166485,-0.1586270553,0.6593292431,-3.9526094717,-1.8397425044,-7.8175727146,-10.3419402953,-0.9120403647,0.4115843031,0.8814451969,-1.0933313011,-2.7301256697,-1.1238349616,-2.4148949341,-1.4771300787,0.8588924003,-1.147926497,-3.9594522851,0.4848732912,0.7619696406,-2.5762415066,1.0846776027,0.5618670793,-0.801735961,-3.8106045236,0.0372737796,-0.1689907558,-3.0544521556,-2.1558743435,-0.2140037191,1.6422489047,-1.1214226159,-6.9958117302,-0.9392710021,-0.1428745427,2.9868446311,0.9871438088,-0.271606958,0.3471645286,1.056079659,-27.7879386513,0.6605246053,-2.142939655,0.8050520862,0.4758095265,-12.7562058421,-0.6426416715,-27.2094702399,-3.4633129074,-0.8523260202,-1.8149363782,-0.5087361364,0.3955065618,-0.7269253509,-26.1193348809,2.2910360981,-2.0845899917,-26.5304309447,0.2354969741,-0.8083294956,-8.1393894117,-27.9491103909,-13.1286665351,1.6705380256,-2.6611760864,0.016744292,-1.1544620806,0.179920281,2.4925843632,-6.3700189475,-1.5537705922,-0.1254637681,-2.7467836088,0.5811870384,0.6101646193,-0.1767358217,-27.0825542668,1.9543880052,-17.1328980355,0.308212206,-6.2302084845,-2.3038989866,0.4281792044,-26.8802213443,-1.2368870475,-22.2092225997,-6.3798330965,-20.3581674465,0.1578095301,1.0316549591,1.5513754226,-11.1894932653,-9.9578924682,-2.2353002569,-8.7724458599,-1.01505368,-1.5540537341,-0.4369746225,-27.1825408009,-27.5085601426,-1.1794206339,-0.2651835403,0.9820108696,2.3953764501,-3.3955608116,1.0091872157,0.6623305682,-4.7301179551,-0.5314810605,1.7329045328,-2.4124248236,1.5958298257,-26.0953125985,-12.6125736855,-0.354381708,-1.2060598332,-3.1836662093,-24.1562770678,-13.7075388513,-2.6510618518,-9.3297028793,-3.6568434734,-27.8212107652,-11.9028892737,-0.8393601703,-3.0152598938,1.0630782013,0.0193314263,-0.776073614,-2.8807153002,-2.8315742412,0.2372155128,0.5870065712,-10.6013243321,0.8326814034,0.473694446,1.5839002009,-0.2268853087,-0.0867076031,-3.6742839616,-0.0306711664,-6.9082453063,-1.0043570291,1.7288138324,1.6540580569,-14.0175874211,-2.9520998072,-1.1644483214,1.5300102243,0.2010879137,-0.6467753559,-1.2309035384,2.3120525969,-0.0178246617,-26.744942453,3.638238484,-4.9477533556,-14.5587134807,-2.2963348008,-1.8664557647,0.6331591406,-0.4964853048,-1.2286898087,0.0947977904,-2.8369208307,-0.2637508658,-1.0335257869,-1.0680233036,-25.7727628387,0.6843940498,-1.1591610795,-27.1361341669,-0.6533182155,-5.3925809463,-22.851116952,-19.4096591833,-0.7305019402,0.8064911361,-0.3137272687,1.4712488679,-0.3165833135,0.138341996,-4.1863255572,-9.2779587369,-3.411180065,1.4587312156,-0.8758509733,1.1879884861,1.8121292901,-0.0870436993,-7.9948289982,-3.4859933127,-3.9664738445,-1.2609672197,-6.0258335278,-1.8995866006,-27.2626381861,0.879646681,0.659343172,1.0404757127,-8.1528300717,0.5704933034,-0.7287375346,-9.2792870318,-27.908374627,-3.0926954957,-4.9467746754,-0.51908292,-7.9336088078,0.9507019348,-0.9709251687,-1.6960219223,-4.843978771,-9.8337292761,-4.1605992676,2.1070554432,-1.0354240954,1.6371401693,1.0503202945,-3.9506383657,-1.0551684863,-5.4205531966,-9.8159612018,-0.881244042,-3.3232882792,-23.1686726887,-9.247368799,-27.9265440124,-5.0627409287,-1.9944812541,0.9456792379,-18.2536380614,-5.2762524415,1.1090306581,0.8705411978,-14.1239260829,-2.832078372,-2.4984031701,0.3057955756,-2.6955890625,-10.2767971839,-2.4150318579,-2.2127454629,-1.888985859,-8.6507361978,-8.5561010986,-0.1110231118,-3.8514097619,1.2681778797,-3.8705702423,-1.1420097942,-8.552576709,-4.5189733839,1.3155227706,-27.0165263343,0.4490573427,-0.9232941102,-3.2426613208,-3.9841277835,-4.3245597503,-9.3915186254,-1.1792390632,-27.6594470806,0.5314932028,-9.2118320962,-3.6914203626,-1.2531474788,-2.9753575558,-6.0060230817,-1.7519352423,-1.8072748061,0.7567808041,0.7058855723,-0.5630749422,0.9779185835,-27.8691205403,-9.6744042877,-3.0494780148,-0.7444464747,-9.8998353739,-24.7104487968,-1.3471849102,-4.0632739765,-8.9037505271,-0.2760773121,-3.7450760059,-9.4939533757,-7.3975882521,-8.4808343681,0.3514766657,-0.9902848333,-3.8125678312,-9.1606771748,-5.7366529621,-1.1824182824,1.6132586813,-10.1554042831,-0.0810234718,-5.7364060155,-10.2677277853,-0.0961505648,0.2927548679,0.1521294198,0.4323168334,0.4923855442,-1.2152783299,-2.828638795,4.9618024157,-0.5571709992,0.7474459711,-1.9964868634,0.6728383094,-0.4554584789,-5.9905192895,-27.7260360639,-0.9261074577,1.5944189838,-3.3623244412,-9.4882765771,1.1995305168,-8.5398284278,0.3134596544,-5.285150699,-0.0803992294,-0.2127302858,-2.8630301521,-0.587793182,0.3455267495,-9.3075335814,-1.0685077878,-0.6143055961,0.3131019516,-2.2593150908,2.1752869232,-5.3867242022,-1.5964391391,-8.2974514656,1.7384851594,0.6574993773,-0.9167047429,-6.8190357694,-0.835731602,-0.7344188475,-3.7515837006,0.8144593509,-0.6076918378,-0.6229937832,-4.471167668,-2.0294386071,0.2762768415,-10.2022090546,-0.3125395469,-2.9314757772,0.321698079,-0.7386479474,-3.794160998,-3.8657956907,-0.3643723607,0.688844025,0.3628838184,-3.3298922721,0.9871316926,2.1105513168,1.5250708012,-0.3219137851,1.4974529106,-9.4543924189,0.7507295531,-0.4269761279,-6.2265149711,-1.243922947,1.0027469806,-1.2935251664,-0.3022522419,-0.0452626201,-1.2454592381,-3.8774014506,-27.9043523663,-4.0007121311,-4.0023957701,-0.0257309346,-8.2525602592,0.967361555,-1.5801369182,0.1414071327,-3.0702103571,-9.3341585868,0.7217903265,4.7221700905,-1.1909583295,-0.2367599105,0.9053274203,2.3379880326,0.6638627253,-0.3744884849,-7.5784315754,-3.1188992491,-9.198331678,-0.3029160751,-1.0137960157,-0.3457844678,-9.243749114,-0.0770158875,0.5681334252,1.0928744425,0.7143593694,-0.6066952085,-0.6506834576,0.6353749363,-1.0591932262,-4.1233112897,0.5496281335,-8.5556854531,-2.3175017458,1.5808459406,0.4295680165,1.0667121302,-1.388574486,-0.4840271438,-9.0070854627,0.8636054375,0.05331793,0.3806380939,0.2616768003,-23.4329358663,-0.6833660062,-7.3472441491,-9.6021187418,-0.0432696516,-3.6637426338,-26.7825092006,-0.1151756929,-0.7606488723,-24.3456636004,-2.1367050627,-0.5016662511,0.7434809226,-0.8122916054,-0.2712899469,1.6150295587,-4.1557675304,2.1291145615,-26.9580321901,-0.9519749522,2.1152956107,-0.0829211881,-0.7396692129,-0.7207812984,-0.2979483794,-9.3401856405,-5.527321307,-2.6999577489,-2.3473858089,-6.1511275428,-2.1669541686,1.907073614,0.1018391027,-0.1102842166,0.7160393442,-0.3446845607,-9.6112975099,-1.8794630493,3.4344961399,-0.0824892645,-8.5427668648,-2.565871537,-1.6871379116,-0.3336023348,-7.3785389967,-3.4952455265,0.7678305899,-3.4459452809,-0.4186190964,1.513473696,-0.0727284877,0.5688415034,-25.9373981278,-22.1053019664,-2.4511468573,-0.2129600069,-4.7414689137,-8.5492112681,-0.6968606263,-0.5595426583,0.1205732912,2.8695012779,-0.413923447,0.7886235549,-1.6143845667,0.3984330609,-3.7452508301,-2.3166550201,-1.8412201718,-0.28332393,0.9738671699,-0.2162673198,0.4169001029,-13.0587890301,-1.5562062397,9.8541668034,-4.0396745467,-8.7653585381,-1.7558082361,-0.8585181407,-0.3496434299,1.0680425314,0.1020852122,-7.7996419065,-1.4307580721,0.3855464798,1.8625061552,-2.48984804,0.1671555141,0.7145226474,2.0317673695,-3.3929337191,-1.1648175937,-12.8930469604,1.1223221218,0.4105424489,0.2900672612,1.1049567363,-1.0194099321,-0.4302984217,-0.590778107,-2.1700837673,0.3733442571,-0.6871340738,-2.7805333475,-2.8807969058,-0.5458023304,1.3936794384,0.5177405703,1.6265988062,0.4207229641,-1.6570422005,-1.1354692836,0.7436946189,0.4980443715,0.3856925265,-2.0418921122,-5.6208249163,-0.1082848494,-0.0522577732,1.9643906499,-27.9399394143,0.1050829992,6.3299568231,0.6404960171,-0.5357384668,-0.1557014652,0.4874687708,-4.5360925569,-0.6413298024,-5.0725472285,0.9982725552,0.9044420335,-5.2891160219,-10.028837806,-6.7238261626,3.8031437669,-2.4194777275,-6.3089530513,-0.4957874648,-0.6928867834,-0.8609110748,-3.5365043157,1.4165070099,-1.1348781229,0.7195262581,-27.1807748394,0.4165918108,-2.1269615246,3.0480572147,-8.2870040006,-2.052858423,-8.5055120711,-9.3766654051,-1.3745852803,0.0913672412,-9.1949198469,-13.5426967956,2.2184847853,0.432101303,-1.0227395933,-0.7791151922,0.8856278271,-0.8787669002,-9.8372659406,-3.1349217396,-5.6263994128,0.1332447317,-9.3263354936,-2.4255016602,-2.2133353942,0.5965892737,0.4471892513,0.4671070847,-0.0211770133,-1.550531944,0.8653600123,-0.5053155931,-0.6208923116,-4.5216647447,-24.8162927759,-18.8980564848,-3.7225764128,-0.6448568093,-3.4127220955,-2.3038062834,0.0141869194,0.0751748915,-10.3087107523,-2.0005913031,-0.4595589908,0.5296503731,-2.581835404,2.303449926,-10.0913819822,-0.2528800065,-2.0385454435,-9.0842204933,1.1527096095,0.095558084,-3.2951149039,-11.8965102269,-2.9435394117,-2.4818971667,-9.7406890795,-9.4920937128,-11.423701591,9.4768633878,0.8857425996,-9.5319014777,-3.8729926915,-0.5923308368,-0.8411928469,-0.0530095575,-1.2142383416,0.822027423,-1.4541469516,-0.27419799,-4.0291820043,-5.1022147169,-3.0550675893,-19.0074747236,-13.443826164,-0.3711107362,0.3829675556,-3.1670041244,-0.4931279318,3.868312738,-2.2865035971,-3.3262383904,-0.5574584963,0.0470674707,-0.5020312223,-0.5911230495,2.4361679498,-2.3302576605,-0.8164583348,0.863773398,-0.8123771144,0.3201595656,-2.5428373581,0.2190130903,-2.0539999127,-3.9473891743,-5.8300963304,-3.4998448535,1.8804654339,0.3234794733,-3.510242869,0.3088130349,0.1989671546,3.7137012797,-1.617847022,-2.721531871,-0.1345923082,0.6885816692,-0.0842595832,0.1699465068,-8.8203327243,-0.1848116542,0.6930069617,-0.0460985748,-26.9041300039,-0.4703880298,-9.3175712249,-8.5276834991,-8.4471704674,-0.543652879,-0.4418806216,-0.4779158678,1.2041606208,-0.5484805112,-1.5375804238,-0.894591394,-27.7905661267,-0.2423904667,1.6622592312,1.0898688288,3.995801833,0.3846882082,-0.8139770744,-2.7119240293,-5.1157743865,-0.8951842918,-26.9159712869,-3.5245289848,-0.2210091495,-1.1717400628,0.7621457352,-0.7800949638,-0.115981869,-8.8468052672,-9.6050693361,-8.1969910073,-5.5139524172,0.3387752136,-8.2055366618,-2.3702846535,4.6292106333,1.3151014453,-1.0133057939,0.38504326,-27.6720196437,-1.2460280201,-0.1496733102,1.4116919012,-0.0357518271,-0.6856783311,-27.2527330064,-18.2753470128,-4.1585324526,-1.2952571969,-0.9879392392,-9.3373245991,0.8868663192,-0.101007533,-1.4934357938,1.1356362036,0.2739606053,-0.1828476049,-3.5920716154,2.3458117432,0.5489726594,-1.2404276931,-4.8421439293,-0.4089436111,1.5112659658,-0.7973053936,0.4314997576,-4.0971762452,-1.4503205696,-3.6970656545,-8.4851460284,-8.9092469205,-1.842496453,-1.5985233801,1.616982991,0.7430242598,0.1429689698,-3.4621963655,-1.2379474139,-2.7160072768,0.0601284378,-0.435914348,-1.0136073256,0.0445504647,0.1514808494,-6.4727676571,1.5937971017,-17.8968882948,-7.5560939149,-0.4129293719,-9.3676901878,-0.4439883981,-0.2067313822,0.7835792778,-1.8587985664,-7.8208739523,-0.4234833119,-1.0280636408,2.9069777055,-0.2478399962,-2.4651584308,-0.6393687965,-0.1010141824,1.4285764588,-0.5761686572,-2.1040728019,-8.0787528188,0.7879229809,1.9905460623,-1.6639062573,-5.6310215993,-5.6502535689,-1.0158180089,-3.553131678,-1.8089375883,-0.4262232322,-1.2525891622,0.4929958979,0.9203865942,0.1204838977,0.2214461291,0.8088294534,-1.5926543016,0.2232052304,-6.7885376788,-0.1914054878,0.2918209443,-1.2696874281,-10.1801012641,0.2811329048,-0.2488004684,-0.9868608432,-9.4737944503,0.5725781778,-0.4569890406,0.7364650436,-0.6651807686,0.5386558194,-3.6674694351,-1.2698970952,-26.8288101702,0.4998615465,-3.4899170003,-0.1443497749,3.5948762301,0.3619947713,-3.7149729156,-3.579327214,-1.5314639889,-2.253132009,-26.8860162774,-2.1995311103,0.4850642699,0.0544666918,-2.820077745,-0.5400306384,-0.0916043929,-0.8735262432,-9.5150848293,-3.1329514425,-5.6891282515,-1.013218231,-2.131368481,-1.9542431673,-1.8046549697,2.2761690313,0.0469314211,1.187838756,-27.1928696364,-3.0073143546,0.243522755,0.7211337387,-1.3983971386,-11.3728781821,-23.1765335164,-19.5485119814,-7.3908505494,0.7151981687,-0.715955543,-2.6706708133,-0.2978603681,-2.5949879007,-3.6098870002,0.5129683612,0.2675994272,0.4146170378,-0.5141933869,0.4936671091,-1.1012936131,0.0796966642,-1.3268522052,-1.9903933043,-3.2882856686,0.3289992731,-0.4935364972,-4.0622507425,-1.3720284618,-0.9392863284,-9.7387229364,-23.5978816755,-11.1725329774,-0.3905898779,-1.0927295266,-0.8220812509,1.7485609671,-2.2578218357,0.3541684689,-1.9104055033,1.398151451,-2.7248225308,0.5169745686,-2.6059263243,2.5871594133,-15.0183700536,-3.383321276,-16.0112487064,-1.5505142553,-0.349304989,-2.4298268518,1.3406762925,-1.0375786406,-2.4827821216,2.6821952035,-3.7329018576,-0.318204414,-0.4988083242,1.8371665574,-0.8191249003,-0.1802281127,-1.0025009167,3.4844654462,-0.6964289207,-0.3606026481,-1.3061382421,0.0127471642,0.5086791172,0.4323989356,-3.1388003361,-15.457234302,-0.5407886732,-1.5326346712,1.1899881641,-2.0901713326,1.4678070554,0.7947071803,-0.4464167499,1.2445161743,-0.2987521346,-0.5428321266,0.7409897777,-1.1292665056,0.7917266626,-3.3748187755,-3.0252640825,0.1711673251,1.0099490643,-9.1651982744,-5.8813062534,-0.2294724217,-24.5325363301,-5.9418579247,0.3430771581,0.1324974882,-0.0839629044,-2.277847714,2.2285873227,-1.6421972541,0.3369383439,-27.0734112468,0.6388015356,-3.9830513954,-0.0006679923,1.3434518057,0.6924608052,-1.1422581236,-9.3870952937,-0.1353805227,-2.3893549227,-9.1040383886,-5.3364202076,-0.1233430559,-0.7036006073,0.8438570703,-0.3907119736,-0.9166847316,-9.7601906128,-9.8670939731,-6.5069760328,-5.6251445422,-0.5391191694,-1.0031388533,-0.3042390755,0.0833582074,0.8409304957,-2.6531100322,0.4448282844,-27.221948404,-3.6234856852,-0.2284316106,1.0650834425,0.6570063646,1.1913111087,-22.1999725257,-18.4350394262,1.192924029,-0.2259460469,-3.5594217687,-8.8353368136,0.4869661161,-0.0284590585,0.5234129106,-2.7405447684,0.5303404193,-2.0123482005,-3.5485278779,1.0023189322,-26.2390317,-1.485295746,-2.6077481777,-1.0087547596,-3.2479538473,-2.8270424047,1.4550013225,-13.8925989688,-1.4646397747,-6.9695302704,-3.6705421309,-22.8790437248,-10.1056858546,-2.7926367636,-0.0653594617,-8.5332583465,0.8132966932,-1.0350966362,-1.7367414663,0.0411481966,-0.6953443916,-0.7831174928,-0.3887226677,1.090709772,0.313445324,-1.5254199361,-0.7513675095,-7.9730533613,-3.8467106017,-1.1213153266,0.108759203,0.1600728451,-0.4831339316,-1.0090998254,1.3131737845,-2.9844492712,-0.8333986616,-1.1634850475,1.0254413779,-3.7184699414,-3.29162196,-1.5840835143,0.2450756057,1.3775228963,-0.9618944192,-3.8206661169,-1.2287013451,-0.5935685966,0.8092838773,-0.0441867302,-5.455495338,-4.2708135634,3.1845876713,-0.0897246419,-3.3354423785,-17.8438340957,0.2451329647,-1.6203251953,0.9027843029,-0.9578019098,-1.6716286522,0.245358035,-26.6744479893,0.952650715,-5.9186854929,0.9519828699,0.4565551409,-1.9643505763,-4.2511846574,0.0391588703,2.2857461332,-10.0831910107,-6.3613404557,-0.9157052245,-0.8278133743,0.6577798273,-2.6957477483,1.5160730752,-3.5245309425,-0.0025675285,-8.8929349115,-0.3673240158,-0.4114213182,0.5987862713,-8.3974444428,0.3526189489,-0.1377172683,-8.6701152322,-5.8016526103,0.2308851434,-27.0292742434,-10.6657902743,-1.3628578366,-0.5349977029,-2.8066806294,-1.099922291,-0.234854383,-10.1432816809,-7.9419354694,-1.9886289921,-5.118357681,-1.0696016488,-9.4633519814,-3.2670122704,-1.462095371,-3.4361018935,-2.4183433828,0.1313425733,-26.2451536661,-3.5599780747,0.6536407065,0.2684752876,-0.4539592169,0.4201045458,-23.4724801907,-18.0176255978,0.7278345871,0.1851370012,0.458691555,-9.4519110038,-0.4897652631,-1.0071608935,-2.0019513731,-0.8370376155,-0.4125440617,-1.5067780941,-3.0793441542,1.726136675,-8.8919242973,-0.666482881,-2.3058985893,-3.2707581661,-3.4731130524,-2.1427150977,-1.8080233775,-13.1443507085,-2.4459081899,-0.850089336,-3.4168610157,-9.0777960936,-10.8544193619,-0.8471647266,-1.1707995038,-9.6060619493,0.7997599203,-2.1279206323,-2.390539394,0.1946057727,-0.0646163943,-2.5567813654,-0.4758105326,0.5415144015,-1.1790833627,-3.9510394992,-0.4585890974,-12.1320153034,0.2030619088,-0.4025463438,-0.0040070944,-2.6817279175,-0.9471744413,-2.9585075984,-0.7127175859,-2.9623409012,0.1116664001,-0.8622573991,-3.0531275308,-2.93022097,1.0367519321,-1.5830990496,-3.0312519362,1.7960399906,-0.55249768,-2.7200273159,-2.9035070916,-0.4237782166,-7.8027828815,-0.7154907725,-5.3697194591,-3.5527098861,3.531130193,0.502721541,-3.3994635873,0.5858714607,0.1890988316,-1.6041199327,0.1374613016,2.3442387413,-0.8540393776,-0.6209584462,-1.2035959173,0.7969839986,-3.184059071,-2.8490533972,0.0560591495,0.9725107363,-9.9340938247,0.6014551462,-1.1090522067,-9.052250095,-1.8855872496,-0.9632946188,0.1571059408,-0.6379151453,-2.1751806771,-1.4405534856,-3.8998628042,-0.1354818119,-9.3101400629,-0.0563603973,0.7968860117,1.5548416778,-2.9354261378,-0.3320453979,-2.0993551928,-4.1470936342,-13.2169403602,-0.6333780652,-25.9321643452,-10.5552015713,0.644290755,-1.5846798358,0.3182318672,-0.7792499787,-0.4882386894,-0.0262676906,-22.5143996541,-1.9163186339,0.799659043,-0.4998740375,-2.4132377321,-2.1839024967,-2.8217551146,1.0601106181,3.6958527581,-0.3929518039,-22.9863745442,-3.6210729886,-0.9001273118,0.6531860343,0.423200647,-0.6510310591,-12.333627121,-17.8788481941,-2.862587111,-0.098421619,1.1990262619,-2.7465422095,-0.8382213632,-0.4668351067,-2.196092257,-3.3275402887,-1.009550603,-7.2957963194,-0.7614105647,-2.3390592771,-8.2143072373,-2.2841558563,-1.3077039246,-3.5793396003,-2.0890846376,-2.6319515816,-0.0626803764,-5.0269419526,-0.998019528,-1.7473504429,-22.067108567,-6.9339337145,-9.5357732997,-3.7643342054,2.3525441225,-27.5659569638,0.4618506045,-3.7228141792,-0.3141304003,-3.5103957293,-0.9940459327,-1.9403465763,0.2448332332,-3.561567435,-0.8360698564,-4.2473781897,-2.2020184888,-10.1506830238,-2.1135495444,-0.3594390506,-3.1287771548,-3.1446984663,-1.0302454457,-3.1715691669,-3.3617156771,-2.0406611096,-1.9487879557,1.2149567088,-3.1543933623,-4.1429963383,1.1858312302,-1.2083154323,-0.6132437972,0.0301131909,-0.6216150569,-1.2009741535,-1.6709330706,-0.1052676612,-3.0938381971,-0.2135814089,-4.8530951775,-0.9805535982,-1.0625480294,0.1573259694,0.9725516923,0.7173048567,0.8466748572,-3.5379261819,-3.7389141105,-3.4488538645,0.9125483403,0.8164115503,-18.9519587701,-0.2911466222,-2.3256635239,0.6702020968,0.3742470205
