encog,BasicNetwork,java,3.4.0,1,1589931639198
[BASIC]
[BASIC:PARAMS]
[BASIC:NETWORK]
beginTraining=0
connectionLimit=0
contextTargetOffset=0,0,0
contextTargetSize=0,0,0
endTraining=2
hasContext=f
inputCount=510
layerCounts=235,128,511
layerFeedCounts=235,127,510
layerContextCount=0,0,0
layerIndex=0,235,363
output=0,0,0,0,0,0,0,0,0,0,0,0,0,0,0,0,0,0,0,0,0,0,0,0,0,0,0,0,0,0,0,0,0,0,0,0,0,0,0,0,0,0,0,0,0,0,0,0,0,0,0,0,0,0,0,0,0,0,0,0,0,0,0,0,0,0,0,0,0,0,0,0,0,0,0,0,0,0,0,0,0,0,0,0,0,0,0,0,0,0,0,0,0,0,0,0,0,0,0,0,0,0,0,0,0,0,0,0,0,0,0,0,0,0,0,0,0,0,0,0,0,0,0,0,0,0,0,0,0,0,0,0,0,0,0,0,0,0,0,0,0,0,0,0,0,0,0,0,0,0,0,0,0,0,0,0,0,0,0,0,0,0,0,0,0,0,0,0,0,0,0,0,0,0,0,0,0,0,0,0,0,0,0,0,0,0,0,0,0,0,0,0,0,0,0,0,0,0,0,0,0,0,0,0,0,0,0,0,0,0,0,0,0,0,0,0,0,0,0,0,0,0,0,0,0,0,0,0,0,0,0,0,0,0,0,0,0,0,0,0,0,0,0,0,0,0,0,0,0,0,0,0,0,0,0,0,0,0,0,0,0,0,0,0,0,0,0,0,0,0,0,0,0,0,0,0,0,0,0,0,0,0,0,0,0,0,0,0,0,0,0,0,0,0,0,0,0,0,0,0,0,0,0,0,0,0,0,0,0,0,0,0,0,0,0,0,0,0,0,0,0,0,0,0,0,0,0,0,0,0,0,0,0,0,0,0,0,0,0,0,0,0,0,0,0,0,0,0,0,0,0,0,0,0,0,0,0,0,0,0,0,0,1,0,0,0,0,0,0,0,0,0,0,0,0,0,0,0,0,0,0,0,0,0,0,0,0,0,0,0,0,0,0,0,0,0,0,0,0,0,0,0,0,0,0,0,0,0,0,0,0,0,0,0,0,0,0,0,0,0,0,0,0,0,0,0,0,0,0,0,0,0,0,0,0,0,0,0,0,0,0,0,0,0,0,0,0,0,0,0,0,0,0,0,0,0,0,0,0,0,0,0,0,0,0,0,0,0,0,0,0,0,0,0,0,0,0,0,0,0,0,0,0,0,0,0,0,0,0,0,0,0,0,0,0,0,0,0,0,0,0,0,0,0,0,0,0,0,0,0,0,0,0,0,0,0,0,0,0,0,0,0,0,0,0,0,0,0,0,0,0,0,0,0,0,0,0,0,0,0,0,0,0,0,0,0,0,0,0,0,0,0,0,0,0,0,0,0,0,0,0,0,0,0,0,0,0,0,0,0,0,0,0,0,0,0,0,0,0,0,0,0,0,0,0,0,0,0,0,0,0,0,0,0,0,0,0,0,0,0,0,0,0,0,0,0,0,0,0,0,0,0,0,0,0,0,0,0,0,0,0,0,0,0,0,0,0,0,0,0,0,0,0,0,0,0,0,0,0,0,0,0,0,0,0,0,0,0,0,0,0,0,0,0,0,0,0,0,0,0,0,0,0,0,0,0,0,0,0,0,0,0,0,0,0,0,0,0,0,0,0,0,0,0,0,0,0,0,0,0,0,0,0,0,0,0,0,0,0,0,0,0,0,0,0,0,0,0,0,0,0,0,0,0,0,0,0,0,0,0,0,0,0,0,0,0,0,0,0,0,0,0,0,0,0,0,0,0,0,0,0,0,0,0,0,0,0,0,0,0,0,0,0,0,0,0,0,0,0,0,0,0,0,0,0,0,0,0,0,0,0,0,0,0,0,0,0,0,0,0,0,0,0,0,0,0,0,0,0,0,0,0,0,0,0,0,0,0,0,0,0,0,0,0,0,0,0,0,0,0,0,0,0,0,0,0,0,0,0,0,0,0,0,0,0,0,0,0,0,0,0,0,0,0,0,0,0,0,0,0,0,0,0,0,0,0,0,0,0,0,0,0,0,0,0,0,0,0,0,0,0,0,0,0,0,0,0,0,0,0,0,0,0,1
outputCount=235
weightIndex=0,30080,94977
weights=##0
##double#94977
   -3.6842033462,-6.4295492358,-18.5310255395,-1.9772088872,-5.5638217119,-18.2254782641,-6.5911874298,-18.9398989264,-0.3526626661,0.166799692,-0.5893644584,1.3024370514,-1.8900371302,-6.6478855562,1.0768392113,2.2433514279,-18.1899880863,0.0209954453,1.3384599832,-0.5837671795,0.1338107869,-0.149573455,0.8886648902,-1.141047708,-2.4410633193,-5.7745881954,-2.5892150906,1.6370941458,-1.5427953649,1.6051406636,-0.3081000535,-1.5811300482,-5.6960636879,-0.6558356343,0.7937804375,1.8730650581,0.1318345403,-2.6125170016,-0.8788380203,-0.9945978523,-1.8774944798,-19.6206418781,-6.2850182183,-6.0491972829,-0.4115360145,-19.253829477,1.2895132344,-0.0906596918,-0.3744651935,-4.6302439219,-1.288794851,0.340921822,0.7253702243,-1.5432175927,0.7965570654,-5.2615834071,0.7556140081,-6.7753282554,-1.3731283637,0.9912915197,-0.0867587279,0.7275704277,-1.7622482322,-3.2482123727,-19.604231694,0.5812237638,-7.068484697,-0.6005266108,-0.679639342,-0.7534405052,-6.5138990858,0.5321713319,0.4547078057,-1.4548702244,0.8568267785,-2.4412722228,-5.023557984,-0.8295243749,1.3782704953,-1.6635364704,-2.4808996986,-2.7782665158,0.6437243344,-0.7260716273,-0.448120196,-7.3220890214,-0.6883640291,-0.9174584222,-1.093229645,-0.3246233623,0.7716677128,-18.9619335443,-1.5570068185,0.2994564086,-0.3762927543,-1.2650143731,0.4760978871,0.1004780105,-0.2731865113,0.114567356,-17.510355502,-0.9044093321,-5.9723797196,-4.5297367556,-1.299064777,-2.5754908264,-12.4619820647,-1.3984677776,-0.0757851087,-6.8096653441,-0.3200145515,-0.0554073027,-0.2485818075,0.4134188796,-1.9666277369,-1.7183879803,3.0227026862,-0.6484251134,0.3921490385,-1.4199165684,-0.7981565471,-1.5527733639,-1.5580495009,-0.4284521166,-4.210961628,-1.3238921691,0.1707074962,0.3778930577,-5.3162988654,-6.8365118335,-1.0076365275,-3.9431552407,-6.3539484614,-18.0318353437,-2.4356453634,-18.4802686271,-0.4022252454,-0.0608836515,-0.4157265473,-0.179398038,-2.5290007237,-2.2741059966,-1.466689675,0.1906024807,-5.5814886563,-0.7761133993,-0.8491075689,-0.8124028561,-2.0297943641,-5.8903300201,0.6404462407,-0.5916226483,0.9714320954,-0.076194556,-6.2455394237,-1.7182363329,-0.8358748189,-1.9531745983,-0.6836594872,1.7354760127,-0.7175593034,-0.2190946508,1.2719434087,0.2650507325,-1.7985935283,-0.5150336173,0.2138304804,-0.8723758427,2.1434649243,-18.3028697189,-2.6593100294,0.6502390491,-2.3909601362,-2.3936525144,-2.1729829432,-1.9027182196,-0.7196736314,-2.7392349931,-2.2331215998,-0.4567674848,-19.5846029643,-3.0311418223,0.4432140417,-6.1992082543,-1.6467556804,-18.0948827915,-3.0822959503,0.1312037744,-3.0210327745,0.3815853885,-2.6964141529,-1.6197827221,-13.8387608578,-1.9118106365,-1.1279542901,0.8585527907,-0.890132706,-6.6813445764,-0.9090532726,-0.8358676476,5.0698899341,-2.4015067408,-3.0105085864,-1.1361729935,-0.9837259201,-2.4283471661,0.7172678999,-1.6233008205,-2.4322388783,1.3819995178,1.1640875513,-5.7272826785,-1.1296039289,-18.7046711777,-5.1440867831,-6.9034978607,-0.8842783321,0.2311437716,-0.1827783852,-18.7144306339,-1.4842516424,-1.2293006798,0.5299854526,-0.6190843243,1.6155511405,-1.8392306999,0.5555027003,-0.3343420946,-15.1670976645,-0.8499360953,-2.7841802489,-4.3121477709,0.7279394192,-3.6821098698,-12.2151658147,1.2904423393,0.7082806497,-7.0119880622,-2.8447755575,-0.3620723592,1.6427530191,-1.0100267815,1.5301977925,0.1509707223,-0.1696175205,-0.8388764473,-0.2878743751,-2.4480440103,-2.106011422,0.3581180469,1.3504133623,-0.3986357785,-5.1322384888,-6.7518011095,1.0111844741,0.8095007828,-3.852249704,-6.7646357749,-2.3007654087,-12.3424424857,-5.6407150696,-3.0398050634,-17.9943511804,-4.8425803323,1.3164244824,-0.3728803824,0.7300642578,-2.5615092274,-1.3804975458,-0.5381177385,-0.8438977936,0.632703576,-18.6543381404,-0.4159974597,-2.349562851,1.2728126989,-1.5731598502,-18.143127007,0.2778393468,-0.2842403808,-0.9892537232,-3.0971515686,-1.6840913707,0.3364495926,-2.1426219965,-0.0223986977,-1.472463773,2.2316569899,-0.8901311673,-2.5471429051,-2.0595337862,-0.2657554799,0.5507568155,1.8499462846,0.6183600322,0.4101668802,0.8891749471,-18.0256865068,-1.8653979448,-2.1368123282,0.4156965974,3.1246542675,1.3224564423,-1.8665648461,-6.0363442404,-2.2932878908,2.0436449692,0.5205236452,-1.5144988955,-2.340925065,0.1867384062,-2.5487411659,-1.2934147782,-19.4254910391,-18.2907181229,1.1782279855,-0.3112852237,-1.6175083812,-18.0005780936,-0.3159609138,-18.8989237862,-0.5067133825,1.3510782671,-1.8990103607,-0.1395379059,-2.6661954272,-6.3494028343,-1.2483415156,-0.2854685804,-2.3827980444,-0.2759781005,-0.1876713966,0.0368093395,-0.4365356771,0.8980705886,-2.2681220132,-0.5653709161,0.1529357421,-0.1466469829,-0.7125838032,-1.0061986356,-16.5129870835,-2.1147884135,-6.0767821546,0.288781395,-1.5094532501,0.2703875804,-18.4401296068,-1.5109795542,-0.8876632552,-1.9785663676,-1.7341263756,0.6596121463,-1.415012298,0.7617673929,-0.3104014471,-4.6833986482,0.2766588006,-1.358391119,-5.9656687358,0.1969950471,-4.4116504268,-13.0553007385,0.1237770847,-1.0957944013,-17.9731028286,-1.5622071573,-2.6179198968,-0.124840611,0.6140316294,-1.7196657073,-1.7395847638,2.6241974163,-0.5473455035,-0.4275563362,-1.1675834638,-0.860435775,0.5565951841,-1.6677798827,0.491944581,-4.4087825566,-7.2093203279,0.5039151311,0.7914400988,-2.0369617269,-5.4599427475,-0.2772471173,-2.450176802,-5.6669589014,-6.8708098609,-1.4688660366,-18.6133817594,-0.7194910646,1.13377957,-0.5756617993,0.5816154056,-1.9294360311,-0.0552858712,0.6275332921,-3.0271295185,-6.1666255212,-1.1977362187,-0.6281082552,0.3498013162,-0.1890264806,-6.5075165416,-0.3631539797,-0.4518576482,-0.4263629425,0.9102369684,-2.1805063611,-1.5748395997,-1.1979428525,0.659289403,0.5242283471,1.3904801558,-1.2711402878,-0.2681450612,-2.4572319693,-0.2188586179,-1.556392835,0.4304855784,1.7265021685,-0.9679074056,0.406786261,-19.0308255858,-0.6507571848,-1.1165469356,0.8741692439,-1.0086246696,1.8599232834,2.8762560265,-6.5672041245,-2.9739565814,-1.2077334923,0.1027980477,0.3962158084,-2.2136086943,-0.707244319,-0.6342269096,-0.5210292354,-18.7658832484,-7.394253615,2.8775661835,-1.5853292739,0.3195194617,0.1811535989,-3.4295825534,-18.180983994,-0.0384369599,0.3676978911,-1.0738573568,-0.185250091,-4.7184946955,-2.2587781772,0.0464675723,-5.6447153623,-1.2135016163,-1.630271195,-0.1602985251,-1.1776333269,-1.9202574386,1.0910307884,0.4686603921,-4.3513590999,1.0838431416,-5.1674771731,-3.8468532384,-9.0809893251,-19.6375004027,-5.7495234036,-5.8183821502,-2.0219164684,-0.5481552701,0.4966544222,-7.0709774146,-2.8755466197,0.5964763367,0.1555378041,-2.5792228179,1.1192662477,-2.2614509101,-0.7306366237,-0.033770906,-19.5551690484,2.2057645156,0.9627038584,-5.6049936197,-0.3914679847,-4.6602442875,-11.9821179955,0.3907210991,-0.1438203956,-6.9589890595,-1.2683842041,0.0215277501,2.2939497231,-0.5112906425,-0.2483449872,-5.8937231659,-1.3806562894,-0.1581048003,-0.1943622586,-1.2289214569,-0.6448416344,0.214780993,-0.5232885209,-0.1758014812,-6.1510838266,-2.6878289113,-0.2943623766,0.2635635856,-4.8992758,-6.7559640821,1.4225493226,-0.7071649524,-3.8357544357,-18.4565542254,-6.9244057344,-3.9050339248,-1.7265972954,0.6699218082,-0.6085939343,-6.7227928899,-6.5897428398,-6.7982187926,-5.2733816999,1.2428510483,-6.5376027146,-1.8148911486,-4.9982523574,1.0565475853,0.4839351283,-2.1699171397,-1.9697337509,-19.3919082383,0.3208848772,-5.8715800819,1.2301496485,-2.5663105079,-3.8341785502,-0.0967774866,0.1987169337,2.1521365764,-1.6141422907,-0.320521583,-0.6741627999,0.3882873398,3.8868672232,0.8505954264,0.7599721744,-0.3252929163,0.022603167,-0.0752581253,-2.1668742308,-1.2106817655,-19.4294601261,1.3013420648,-6.1395185347,-5.7336739467,0.336070942,-1.0809980106,-0.6155277633,-4.1084950885,-6.5114815875,0.5635965974,-5.3204319707,-5.7240143513,-0.4418303708,-18.306260626,-0.6907027079,1.9585322363,-1.1619109365,0.6323613289,-17.9288644669,-3.8408295385,0.8275465559,-0.4904218408,-6.9252339003,2.683354505,-1.162208773,-6.4369607762,-0.9317534704,-1.4077854564,-6.2542035053,-4.0954172095,0.6182983982,2.7747887965,-5.1367192399,3.3245755558,-1.4854520727,-2.1059117457,-0.187271016,1.6634758231,-0.7135830707,-7.3756034109,-17.7776834179,-18.9740193469,0.4426999819,-1.7689527229,-1.7636712695,-1.4969187085,0.8241228471,-18.6249549921,-1.7809112275,-2.9952423987,0.5422350778,-3.9572829184,-0.9179599262,0.1777818618,-7.1106216889,-0.6281878733,-18.1805098726,-5.1699859359,-0.5084175307,-2.0111244425,-1.4891457146,-5.1602567961,0.3042624074,-0.4913138226,-6.9799760412,-1.2374643173,-0.6067437627,-6.1512812919,-6.0846563458,1.5428003622,-2.5069405826,-2.6517398701,0.1632671389,-1.0470736288,-0.4453652094,-5.6410718518,-2.8499444023,-0.0538923138,-6.3748047249,-0.3546847788,-5.4083632764,-2.871529077,-6.4610068434,1.6157746173,-3.0984594823,-6.0422798255,0.6822803097,-1.2790979653,-4.9046007097,-4.7771355528,0.0206985079,-15.3485139054,-5.535334676,0.8621625426,0.2574229771,-6.380751915,1.1805426564,-5.9587175271,-5.7811567449,-0.7629108742,-7.095044453,-1.5123628718,-2.6642082802,0.5570209209,0.3664290328,-0.6503326516,0.0216270778,-12.5272763749,-5.6998220991,1.3296745296,-0.9759444765,0.2686957158,-1.6503459194,-0.8870347105,-2.2459150303,-1.2948516113,-1.1777680102,0.5940652789,1.0672176586,-19.5363253181,-2.1117563576,3.2115726356,0.1861759461,-0.8497404,-2.3691945671,-1.6708812541,-6.3007603037,-7.1392924781,-19.3402050646,-6.244697274,-2.1564798665,-5.7096443685,-6.5673293563,-2.7001295502,0.1837334461,-6.8195485904,-1.4074941232,-7.1748377021,-0.8258751593,1.9426745525,1.7688740324,-12.9210146432,0.301797232,-2.3881221731,-0.7548879782,-0.5827996169,-10.8715758343,-4.5368024152,-4.7622599594,0.2644668754,1.5370005961,-0.0846787487,-0.1338219706,1.0354892728,-1.7996453021,-0.9171758072,-1.8398002186,-2.4812291502,-1.250394786,2.9413893101,-12.0821130735,0.7010643823,-0.6766207276,1.4515488742,-2.8755342759,-5.2390030214,-5.6194460834,1.593880569,-7.2224893472,-7.2134394553,-5.9043545479,-2.5099593424,-2.1628387618,0.246978016,-0.7337877927,0.2334402803,-4.2171560694,0.4516731383,-0.5840915302,-1.9139348851,1.2763996168,-5.6775853439,-6.4049525445,-0.516904907,-13.0682865109,-2.4711607321,-0.4379438588,-0.161706919,-0.9346196588,-0.0716670947,-5.2428170794,-1.5350379011,1.8934605806,-18.0537957267,-1.3617422204,-2.5499560614,-4.7827952855,-6.2291592353,-1.2349016577,-6.8331349267,0.4091547317,-1.7424512362,0.2536130751,-6.562750545,-1.408665786,0.3755654154,-6.8926175103,-0.6305061134,-1.3205165891,-7.2113102123,-7.351291627,0.1174602849,-4.8089044446,-2.4670825713,-6.3296155026,-5.3898590214,-6.7003523773,-3.5254463494,-1.5387638909,-14.611118031,-0.7321072024,-0.1960453929,0.7526286999,-2.8101684363,6.2168014399,-1.6443305288,0.1610594663,-1.53379134,-2.4293615252,-2.3237896235,0.8607470062,-1.4445845487,-0.4386072934,-0.5727065968,-1.6305166637,1.0497881882,2.8381570391,-2.983262023,-2.6762765067,-1.1415749263,-0.91787591,0.0754836184,0.7106318212,-2.5027734409,-0.3113410221,-0.505741099,0.1445716393,-0.3052575052,0.3024828858,-1.2986565374,0.3903700615,-0.2814762595,1.6528397553,-14.6397942618,-4.9108125646,-1.4713121295,0.6839164039,-1.5602272209,-2.2209082924,-2.6883959191,-5.1399107788,-3.6885397833,1.7873741279,0.01160672,-1.1009703004,-5.6264389417,-1.8193897267,-2.2070518615,-1.662217136,-6.5407045493,-5.8789995079,0.35978931,-1.7557540104,0.6837949278,-6.2583863599,-1.7872208693,-14.9159858396,-4.7262292263,-0.7533430271,-1.1937187711,0.2250451002,-2.1362606545,-8.0678400125,-1.2338100405,-1.1233567567,-2.8351088392,-1.5005410243,0.9591537238,1.0256252188,-1.6087491858,1.0145031377,-0.0281178491,-1.3854758154,-0.5862401407,-2.7381536298,-0.6709201599,1.5094763649,-15.7090420599,-1.2885995733,-6.8970081413,-1.1480638324,-1.5099881217,0.4969634292,-14.6858760381,-1.9269219606,-2.5459872615,0.5038484511,-1.5540211236,-1.2240717292,-2.8865374367,-0.5025245889,0.1003249374,-14.8930358644,-1.0062039452,0.1350678304,-4.9158319949,0.1855126998,-3.2232457069,-11.1397735247,1.0066792903,0.4641976538,-15.3442312007,-2.4993586025,-1.4558755515,0.1636075198,-1.4818982701,-1.1476608989,0.0779222508,0.0554306445,-0.0732433212,-0.7428349206,-2.0730923439,0.0562515283,0.456267726,1.8720895676,-0.3300212364,-6.2959594236,-19.2115115081,-0.1073027422,1.1293901228,-1.6834945594,-6.7723057237,-2.6940161845,-11.6768169759,-9.7967837512,-0.1115004187,-3.0548973941,-18.633271232,0.4612137674,-1.5113858524,0.6365491357,-2.1204438893,-2.4641109117,-6.2348341829,-1.2514849936,0.4589581396,-7.023479627,-0.8556306276,-2.3711369393,0.8003718045,0.7853375498,0.7492526801,-2.9690597699,-0.2738162399,-1.482744061,1.6694535712,-0.6406346109,-2.7568786354,-0.7302535389,0.4768359327,-0.7485657405,3.3494399648,-1.2227534836,-2.5332013535,-0.6583671627,0.400054023,0.9999079626,-2.7888137384,-1.1868790085,0.4899622776,-0.3173381015,0.2763079685,3.9319473573,1.3349186459,0.7452292703,-0.9439056667,0.3857732893,-0.4876247253,3.0696907759,-5.5847597606,-1.5431161993,-2.7275702928,0.4891306558,-0.5237675921,0.7008818455,-2.0921588409,-0.2868759903,-0.0507391279,0.6934066728,-0.9417267979,-2.7122620753,0.7271585891,-1.3410908484,0.8723199933,-14.9185151035,0.491500247,-0.8074392307,-0.3022812272,-1.3242351744,-2.9477483733,-3.2728473682,-1.3525872535,-0.4018475574,-0.9724926853,-0.9321511675,-0.753871785,-2.53737183,-6.8452280962,1.4994003583,-0.6155307119,-1.8152935899,-1.7729363139,-0.0181837224,1.7459831742,-19.4693716466,-4.0344379297,-2.7768434426,0.3989961524,0.6324064906,-0.9277949295,0.3260707871,-6.4249571584,-2.7086633101,0.8471568411,-2.0976213179,-1.9343475871,0.2288902376,-1.5242690106,0.9932447063,-1.4794428575,-18.2828474575,-2.8618590587,1.3310156251,-0.5734162157,-0.024575209,-3.0794178285,0.1971443644,-0.6607356555,0.494983011,-6.2096546837,4.037041199,-7.3411144301,0.6697255261,-6.9250264516,0.2373449395,-0.7927214989,1.2960702441,-1.8454064539,0.9432254758,-1.2196578063,-3.219988341,0.749470298,-2.6546982035,0.7448253251,1.4661542956,-5.6958892026,0.4674067823,-0.1477551446,-3.6363860056,-5.536719173,-1.0766806528,0.4872297465,-9.2724924227,0.2271628603,-6.6927454146,-15.9226858636,1.2491765119,0.534283519,-0.3047951157,-2.3879170445,-1.3361499153,-0.6161400255,-0.3671327468,0.1788517812,0.5324283279,-0.2356168644,1.0929571844,0.5124345596,-0.1014724729,-1.0888072755,-1.393540588,0.7621172001,-1.9344190149,-2.6498932767,1.443041778,0.3420038009,-1.6389404964,1.4948297708,-0.4030356929,0.8171381346,-0.4616555076,-5.8182785532,-0.5007392546,1.1936939311,-2.1243323589,-1.3900851373,1.2067822026,-0.6735812928,1.0687367206,-0.49182206,-1.6878018087,-0.7328055671,0.4532571729,-0.0494394188,-0.854492521,-2.2842978941,-2.9214163184,-0.2855095718,1.2594410475,-0.7542875158,0.2145892279,0.0277525826,-0.6767011233,-5.9353808719,0.1976969605,-7.1857539176,-0.090139374,1.0408250991,-1.8690904426,1.1278386178,-2.9776570426,-6.3910033757,0.6102170664,-1.0231353328,-2.0098110023,0.4053118102,0.2672726107,-6.8413322895,-0.6428770839,-1.4343789794,-0.1317957535,-3.2305300673,-0.3045917042,2.9805606703,-0.5101099934,1.1995708229,0.512621041,0.5709967909,-1.6850212943,-2.5677217722,-4.1909162398,-1.3507981114,-0.8763898036,-1.0125112462,0.7004108912,-6.3911672814,-4.1136682974,-1.4505730886,2.0741773665,-16.2986002789,1.3802926916,-0.5265231786,-0.5125273028,-0.7662828926,1.3673916696,0.0892586664,2.9446345407,-1.2978416374,-16.5170377841,-1.9004563311,-3.2321202926,-5.6784862378,-0.6460190699,-5.3270428235,-12.8167674814,0.8323889098,-0.2668854863,-6.0350401427,-0.4861301537,2.1666035694,-1.0246469119,0.4187402919,0.3559818141,-0.4519483634,0.3676961317,-1.6954599282,0.7985294913,-5.752932276,-3.1092341889,0.0406627377,-1.8822350823,-0.3767399876,-7.0336010259,0.9364782987,0.1436386127,-0.10767247,-2.3786252337,-19.3591458117,-1.7345122636,-10.7355862082,-3.9747967001,-13.1084079178,-5.6397697971,-19.564626819,1.6111764629,0.8296861917,-0.5638868938,-1.1013314948,-1.0961618972,-2.5836594832,1.2954944207,-2.71933535,-6.8111028758,-0.1207143046,1.5884954327,-0.6169050033,-0.0482755584,0.7351096726,-0.8012354076,-0.7922751069,-0.826877169,-1.6212990973,-1.035466991,-2.8191922674,-1.3411593353,1.4084393166,-0.6544103783,-0.1034639998,-0.7934303383,-0.5373458203,0.6529763802,-0.8416923357,-0.5136496533,-1.3312234932,-0.7402124468,-0.6569003396,0.6653404788,-18.6122793597,-2.0016945458,-0.0844452757,1.468393883,-1.8120685115,0.5732329179,-1.1792559619,-7.2117757517,-8.2142248287,-1.3845581111,-0.8926865268,-1.5545286513,-0.5348944795,-1.4497605392,-0.1449245689,0.0948690747,-15.4107579456,-2.8186222795,0.920937447,-1.016739872,1.5173993618,-3.0852018835,-0.1560318061,-14.6944764267,-0.5250208799,1.5824955893,0.4911931494,0.2893645426,-2.7526700341,-1.8746128347,-0.7404767816,0.0747911163,-1.9624691846,1.3054379087,1.2383374076,-0.5580556302,-2.4606514445,-0.9014881388,2.0147555572,-1.4476198398,-1.1722713053,-0.7089172604,-2.781474577,0.7515780553,-19.0237073531,-2.5009296626,-16.5160255445,0.0205914245,-0.9720582739,-0.1709345339,-18.6796308049,-0.4031525541,-2.2942204137,-0.9102637181,-0.9906850141,-1.0701219649,-1.7581565717,-0.5542832112,-0.8148316047,-19.1635473512,-1.8058995026,-0.1299346038,-5.8917603996,-1.7510281991,-3.514086438,-12.5244257186,0.7856560745,-1.6581889129,-6.5479439066,-1.1238533588,-0.716501834,-0.8840593587,-2.6782492732,2.2939270822,-1.4391812281,0.8607965657,-0.7393055197,0.3444160392,-1.9188479728,-0.234708684,0.6410473035,0.5507947947,0.694340939,-5.8201750549,0.0630063216,-2.3390816212,1.0660737205,-3.3958304268,-12.3315875397,-18.6338757711,0.9970744558,-3.8167747106,0.3295282567,-1.1796477921,-19.606163768,0.7026934901,-1.8405896034,-0.1012397537,-0.5028089175,-6.340514521,-14.4530355093,-2.6983123795,-2.357907459,0.358014461,-1.5651020847,3.4102490904,1.3236201915,-1.4015364307,-0.2657615113,-6.9046293983,-19.0415367105,-4.9875239197,-19.3633127142,0.2700928643,0.0995334174,-0.0796080084,1.5675770877,-1.3024863573,-19.1723038033,0.8362180852,-2.9189567932,-1.0823843276,0.0849226994,-1.6609651753,-3.9893230585,1.1208466498,-0.8525827916,-6.6126708695,0.0212580617,-18.668821102,-5.9779998254,0.4524872268,-1.2567590937,-1.9792707932,-2.4032308029,-0.6296941092,-1.5280653193,-19.1155637003,0.9173393786,3.2212963567,-6.2857795301,1.4580168967,-2.6868484821,-0.9947515242,-10.0702643747,-2.2354933202,-1.7612224218,-3.2493282864,0.2275591124,-19.5129706193,-2.1748746564,1.1473205704,-1.4587023351,0.0926931978,0.6201309958,0.3558642855,-2.3806879649,-2.0225434165,-1.8826598443,-6.2983420303,-1.2494641758,-0.5129226455,1.4053699842,-4.4573517195,0.5655183236,-7.0132547767,-1.53225853,-1.6240341457,-2.8396958503,-5.1408574108,-17.6964411684,0.8645442299,-19.0777492428,-5.5185877889,-1.4501099547,0.0102440834,0.5075042438,-0.6646576736,-18.770573437,-0.6552289881,-0.7647866848,-0.7849358607,-1.7331575996,-7.2019962482,-1.9791180312,-0.9128506212,-0.9903332187,-15.7158870114,0.237026521,-6.8268515496,-5.2681486279,0.4169332937,0.2172998933,-12.6269133643,-2.1892074355,-6.474342123,-11.759117178,-0.6894293026,0.4279030256,-7.1748096183,0.3090951409,-6.7759480136,-18.7450830671,1.1974092747,-1.0529002725,-0.0362011656,0.7807751628,0.5830993901,0.1203870107,-7.1822708277,-0.6900072671,-5.358437537,-2.1833164121,-19.6063277336,-0.2574620873,-1.856644575,-5.3307148528,-6.6377501629,-3.2880555045,-6.351793104,-18.0475694567,-6.6340780327,-19.571353095,-0.6334222065,-0.0164339973,0.9305638691,-1.7134838727,-1.6269954953,-5.8217069757,-0.2227864424,-1.1296303458,-6.967636083,-0.8960947177,1.0627413151,0.3455996625,-0.7449705804,1.8173810656,-5.4393186081,0.8346754897,0.8014415072,0.4701729825,-1.4649675838,1.5628743643,-1.4293364023,0.7373407552,0.0045123705,-1.8043572395,-0.4284396137,-2.7562464938,0.2623135487,0.106293663,-2.6381114068,-2.1243248521,0.6347133156,-1.171961934,1.2792706588,-18.0903044552,-5.7230107503,-3.0508018611,-0.667459881,-18.9515436144,-0.5312189657,-2.6873104772,-17.8522666233,-2.4894868864,1.9450996824,0.1291745183,-6.3753931245,-2.7417256012,-2.2597907883,0.2544273131,-0.8012968274,-19.4868193431,-18.1145524844,1.0894798144,-0.3816466777,1.0940249711,-0.5358914075,-2.4003617699,-15.0562655638,0.2972357362,-2.4738059623,-0.6969927592,0.1010480072,-6.2429741682,-0.8973570601,-1.2765446894,-1.4895887084,-2.1127158738,-0.7842141378,-0.6043284979,0.1519047547,-1.674825529,-0.4299721602,-0.4873674777,-1.8348592847,-1.7373216229,-5.6824810338,-2.958451202,1.0542886755,-18.3854029332,-6.6117320592,-4.2424427036,0.1033089051,-0.7167592465,0.879575942,-18.7761371473,-2.324809311,0.1203622384,1.5050988125,-1.6598028802,-2.0738018867,-5.7314068911,-0.7949225266,-1.0439491948,-14.9988149981,-0.827624597,-0.7216602714,-5.1277333576,-0.9488236665,-2.5799526438,-12.7255496837,1.0050992225,-0.4175541469,-5.4640986847,-1.5583034179,-2.8855858081,1.234906889,-1.5352795765,1.8032701299,0.5815811756,-0.8105851206,-1.4488427381,0.2746985203,-1.6476792627,-1.5919231301,0.858253035,1.899490486,-0.0178660271,-3.7014244042,-7.1389921484,-1.9937515742,1.1245864881,-3.3119028894,-7.0065190367,0.1369529046,-13.2677170021,-9.4751080865,0.1721363555,2.7259821101,-0.3247162995,0.459118119,0.8654562264,0.9391996201,-1.4737137397,0.7453043154,2.6602778179,-0.7703952558,-1.0646865247,-0.2087078789,-1.8912442382,0.3346732842,0.6472443742,1.2016990672,0.3453372973,-3.0185185085,0.1574745409,0.5487868993,-1.3204310296,-1.1651206353,-0.1724286213,-0.9706674415,-2.5233695933,-0.1304484464,1.9806845441,0.7801459529,-0.1903196771,-1.5265915527,-0.3059016336,0.0196048677,-2.559176449,0.7788416357,-0.3429045391,0.6545774746,-6.2302201077,-2.4806554598,0.6419421209,-0.0091293408,-0.6600283284,0.3816193373,-2.0476883409,-18.4828998989,-4.247961399,1.0771708276,-3.023102307,-0.5102142492,0.2231788382,0.3539357398,-6.078743933,1.0745093847,-15.5005673186,-0.1850161871,0.3438562558,-1.0709801104,1.2477617734,-6.9162784209,-2.6942891349,-6.0485172307,0.7216846259,-0.0206491156,0.9555358445,0.6735756915,-2.1329872742,2.6623218222,-2.6145723279,-2.1725970078,-0.4029247222,-1.2815768162,-2.4437513588,-4.7674980983,0.2192359302,-0.8551411242,-0.7544471703,-1.269355541,-1.6391250719,-4.8632489238,0.8129822005,-0.1784511518,-19.463411224,-2.7718417415,0.0959196664,-2.2831477966,-0.8240744354,-0.4257206064,2.1248580203,-2.9632753929,-2.8966323553,-0.2636743016,-2.1869804376,0.8552126598,-1.9265690076,0.7091468044,0.6086277313,0.5823185541,-0.0738494178,2.833838156,-5.1773756483,0.3803266288,-2.7861764307,0.3973938461,-0.0152673213,0.0497682888,-6.9523972124,-0.8986190162,-1.7917351965,1.0074391424,0.770096186,0.6399230482,0.3085571151,-1.1714281877,-0.9797134692,-0.0207095678,1.1845405969,-1.0623524147,0.8548457406,-1.2398796383,0.5402156528,-5.4724691841,-5.6517083189,0.2702918341,0.2508218455,-1.5833143741,-6.3478405111,-19.3561153878,-4.357697645,-4.5686723172,-0.2162248322,-15.99756947,-19.2003435301,-0.5283720298,-0.8885232075,0.4532665546,-1.1138052234,-1.224635243,-6.1750371731,0.6160280848,0.9315428278,-6.6402607217,-0.7016384338,-1.7217341142,1.0380955859,0.9010393501,-5.9521029661,-0.96016142,0.716095437,0.324792116,-6.7612320836,0.1187374963,-0.2657601548,-0.0366841785,2.3075319223,0.8802140684,-1.0676205252,-2.4091338639,-5.8201583327,0.4631742307,1.235167791,0.0086976299,-1.260899121,-0.2065278159,0.2643800567,0.1268050257,-17.7806406173,-5.5612698511,-5.4382661595,1.2447667825,-5.9281518037,-7.2759493396,-1.7145237844,1.9110655377,-3.2441651957,0.9691005606,-0.5593589725,1.060600125,-1.7908959562,-6.2744366629,-6.0083598528,1.6073885786,-2.3852362162,0.702285173,0.24843105,-1.9317758318,0.4864513232,-2.8440872528,-2.8341507721,-18.8174395753,-0.0552770979,-7.0644417454,-0.1182794191,0.5219242483,-1.7906637179,-0.0217392642,-0.5639677604,-2.2101593982,-0.0403398892,1.0888976162,-2.1596108299,0.0654596853,-13.4792412216,0.0339797175,1.0572845428,-0.6207827935,-2.1251905791,-4.2141317787,-0.169164609,0.5733739647,-1.3400868626,-1.3110294882,-0.5786297126,-0.3271349724,0.0433981426,-0.1983752517,-18.9075503147,-1.4173563334,0.9269103928,-4.1620244991,-2.487329835,-0.2555287931,-0.6475098177,0.5132043231,0.3331485904,-16.2782661862,-2.0095309815,-6.673657987,-4.641924434,-1.2388936663,-1.9379616509,-13.2236876711,0.0446769832,-1.0028771615,-7.4043530465,-1.2726700157,-3.1388343096,-0.6219831957,-1.3826106885,-18.331804716,-0.444278773,1.1277641631,-0.418059881,0.1710142427,-2.5645456664,-1.5291236768,-1.9150263589,-2.3153896007,-1.6413497735,-5.3997932524,-6.4779663777,-0.9799616138,0.7006588932,-2.6623956124,-3.6204765813,-6.6658204016,-4.6957622725,-6.7440629309,-0.1631970236,-17.279750497,-19.5767079261,2.9933365358,-0.4798443181,0.2923794928,-1.0702489979,-0.9880549665,0.1414507031,-2.7207754181,-0.218632603,-6.8009910087,-1.0372144823,4.0241598692,-1.5769843845,1.0298806472,-1.0546965635,-0.5218652141,0.1573781867,-2.0534506028,-1.8157084643,-0.6758862108,2.1327406984,-4.3548346908,-1.6159709784,-0.9422841491,-2.7315018641,-7.2136866155,-6.0222428879,-2.6991399467,-0.3047204618,-0.675265632,-6.8185333062,-0.6120285657,-0.4686674646,-1.8627715077,-18.7606828369,-7.1514850953,-6.6353983998,-0.5980446785,-1.5793066536,-6.4507113156,0.7598656336,1.0634305235,0.4873693421,-2.3558121143,0.8095471471,0.1925373755,-0.022172988,-1.8935942231,-6.9471485403,1.2882117855,-0.7666989363,0.9275005324,-1.5136389296,3.26419206,0.4934670028,-0.9291158541,-4.5998822125,-17.7041901538,-1.0461897806,-5.593151715,-0.1792811919,-1.0146092527,-2.2669582242,-2.3098846891,-0.8691807365,-1.3958618313,-3.4906178752,-1.3862871279,-0.7233951577,-0.1392788853,2.3074726382,0.3647655295,0.0774765357,-2.4919381466,-1.4477753591,-4.1764274023,1.5452939214,-0.5639652826,-7.1267339663,-2.0529018631,-7.1655969089,-0.1120062226,-1.3307153166,0.2877046011,-1.1300796514,-2.7477689205,0.5108688682,0.007524978,-1.2406249997,-0.6993448698,-2.0306831611,0.4221046578,-1.2796857186,-2.8482508685,-2.1598734482,-5.2298981735,-1.9209846691,2.3556392706,-9.0283931072,-12.9419165519,-2.0629766536,-1.37871839,-2.2960604607,0.6968836001,-2.9628707147,0.8170196104,1.2687252379,-0.0857606426,-1.9157521909,-2.3455334971,-0.6499466746,1.0475933856,-0.1941941512,0.2074018588,0.6641451696,-2.0624020641,-1.3130462181,-4.309801648,-7.2171638058,1.0082310443,-0.1730932659,-5.7010674197,-5.7335222147,0.0366872115,-1.7209620018,-7.0656472097,-1.0494743349,-1.8094092092,-19.5742061485,0.0791643019,-1.0251801814,0.9569358456,0.935247438,1.0544612187,-2.6651909495,0.3543696419,2.7802811358,-7.3621308845,-2.304855835,-0.113435834,0.2239164255,-0.2554408716,0.2042404931,1.8056249484,-1.4851678418,-2.1996326115,-6.0192059335,6.4209981314,3.3887421347,-1.7115644964,1.2589036103,0.7649051439,-0.8916300923,-2.6373287689,-0.4554371028,1.6960046021,1.4228555781,0.0917037901,-1.2385083345,0.1105786802,0.6550370131,1.0621576575,-0.5391859626,-1.2334471403,-1.4043616272,0.2366477094,-5.5727994424,-0.4358843242,0.5191269851,1.195404364,-4.9384824068,-0.1829597907,-0.5561381127,-1.7347357467,-1.4325113597,0.3299964309,-2.8024409481,-0.4288107932,-5.570864277,0.1137760009,0.7481665653,-0.5506659877,0.7756170232,-1.851590359,-5.0121161955,-18.2030121303,0.5628655035,1.5731843251,-0.9795338679,-0.1966376772,0.8154228255,0.3530270511,0.1148762523,1.1361512249,-5.2023972196,1.3484684088,0.5603196118,-1.7920551684,2.8652439088,-0.1759058401,0.9510738975,-1.6248143207,-1.0983922921,-4.3357507204,0.5108505239,-0.9427722441,-6.488613734,-0.4557511399,-1.4629028082,-0.6170495999,-1.8835456821,-0.6955518013,-6.4073160602,-1.0848342775,0.1396521103,0.3148068113,-0.128797008,-0.4453336348,1.9363987217,-0.9855869758,-1.5424367146,-12.7491422486,-1.5912769849,0.5874031756,-4.2469990401,-0.4140495377,-1.6908791988,-12.5060465998,-0.4460293654,0.313760823,-18.6561237513,-0.678214406,-1.9435517189,-0.9185940253,1.5755183398,-5.9186506896,0.6655663167,-0.018700147,-0.9707900652,0.0892265141,-1.0823735247,-2.0915676976,-0.2986188122,-2.1030507867,-1.265300904,-6.1307872079,-5.4498937449,2.1590159397,0.4794107645
   -5.1904487821,-5.1413392833,-6.7605353987,-5.8496206648,-1.5952747574,-1.2693884048,-6.0942690006,-17.8474342369,0.3777155527,-2.2804688914,-0.7341475233,2.0072492791,-5.3857242317,-5.7678519886,0.6066688737,0.968495742,-5.9565368718,-1.5494088292,0.1348659734,0.2899366278,0.2658339451,-3.0036772812,1.8483281449,-5.8271397158,-1.6036685426,-6.3887043123,6.4097439511,0.3448995061,-0.6285783646,1.0583428267,-0.3480910997,0.155399222,-1.2947268244,0.0110186383,1.9241996882,1.6167964578,-2.3573078306,-6.2619966695,-0.1204882335,-0.2669335309,0.1160333628,-17.9429322177,-1.1901304335,-2.6834292818,-0.23714345,-7.1608620122,-0.2404834029,-5.8897298974,0.7306788456,-4.1536388546,-1.1751319509,0.4176129058,-1.6677673752,-6.5124746006,1.5778263343,-5.387150507,-0.8431378902,-6.4910381218,-1.2745585786,0.6812642484,-3.275247637,0.3379254745,-1.0454864828,-3.1845243137,-16.1418360657,-2.5040601098,-2.1814479975,-2.9223982768,-0.4885277848,-5.1331401477,-1.3121150498,0.8343097176,0.6884322205,-1.6066800097,0.9003561332,-6.5056257088,-1.0603828424,-5.2583372572,1.3953178471,0.2867526189,-6.0750095822,-5.8730511993,-4.1308880209,1.1378002855,-1.9514495212,-3.2901089616,0.7129588527,-5.3703918626,-1.314304899,0.1128800565,-0.78630186,-18.3401185733,-2.057563672,1.0547120094,-0.4490007647,-0.7491738205,1.0847274359,-1.4556721313,0.5958644188,-1.1145324867,-17.8926635693,-5.4394473974,0.2349484902,-5.2311356604,-2.3597376261,-2.3147642228,-12.5379564189,0.8623207834,1.1804890518,-3.1521530178,-2.6183204992,-2.8216761375,3.1210500999,0.7527830053,-0.2012286029,-2.8926580035,-0.1975813507,-0.1698987842,-0.6207025673,-5.4278083003,-1.3169239706,-1.6549144815,1.5319258228,-1.8787784974,-5.0538537934,-7.3781290519,2.3203366269,-0.2071830888,-2.1277447902,0.6960590285,-0.5424377254,0.4474736918,-1.1164847057,-19.5116365596,-7.2144684996,1.090923771,-0.4616953645,-1.3740218993,0.8112877969,-2.4856484787,-2.230009156,-0.836955078,-0.891156247,-1.6291818265,1.1084547836,-3.5823915966,-1.1312939158,-0.2426945503,1.5400598991,1.9285030833,0.2372964075,-19.5022527319,-0.8483695347,-18.9426085804,0.6213007601,0.2485415434,-0.3648715716,-6.2233699544,0.6292231284,-1.1674404487,0.0548029682,0.2363701613,0.5149442971,-18.4989033663,0.8943656339,-1.1760013821,0.6071507551,-0.3374635283,-2.6651329208,-18.734908141,-2.384652588,-1.1626337328,-18.9326810924,-0.433543542,1.3298092666,-0.1401364287,-18.6132860829,-0.2826848993,-0.193000472,-19.0650414849,-1.8788737663,0.3838351503,1.1684281457,-6.3917588267,1.0559934761,-17.8985224657,1.0687010887,-0.0930297631,-0.5971780491,0.9377907606,0.1031489609,-1.9807897212,-7.1642734387,0.1316873745,0.7774234227,0.7350875033,1.0325939913,-2.1589418377,-1.5442572653,-2.3823568178,-6.9847700013,-3.4848862983,-18.5071441181,-1.7691163176,-4.6110488032,-0.3174886594,-1.8951092506,1.4223146079,-0.6013912216,-2.2056517811,-2.1957470885,-6.0928308949,-0.3681887388,-18.2009314637,-5.4059535449,-0.0839695972,-1.3711147922,0.2390315241,0.2315686704,0.532580332,-0.4610988179,-6.872558258,-1.0544955075,-0.6417650251,2.209452949,-1.1250027957,-1.5086061799,-0.9832063435,-4.3078695578,0.1749208939,1.0186874202,-1.4154712092,0.5804797533,-6.5929108549,-5.1933993237,0.2678529994,-7.1232645845,-17.8622355581,0.9957934336,-6.0070533,-6.100593515,1.1911334218,0.1008362895,-1.2593168937,-2.4662703361,1.0068042481,2.2159913534,0.3557756865,-1.1865441954,0.8302354336,-2.182567266,-0.4575888718,-1.5415916377,-5.7021266168,-7.0164657713,-0.3150501081,-4.0540009249,-6.2854712516,-17.9433842673,-4.7887146327,-5.7846983493,-0.7463600992,-13.2627400677,-16.051037891,-1.1074787644,0.1011290424,0.6677615197,-1.1226374964,0.5594820758,-5.9343414392,0.7509733507,-0.3508728937,-6.2836911994,-0.7574109193,0.5655719073,-1.2573312483,-0.364823657,-1.0160298831,1.1853262921,1.5804926008,0.8057611126,-0.379812555,-2.0256566768,-1.7891581305,-0.1554581161,-5.3958197062,-0.7813219119,0.1824802791,-6.852898034,-5.7704406571,-0.5020604541,1.6102552169,-1.7731408656,-0.9882818883,-0.8500911269,-0.3850476639,-0.1268993805,-18.7704535662,-2.3803117971,-0.0458827726,-0.5864884105,-1.6603425291,-2.2255285271,0.1972217916,-2.6074881141,-3.7547038045,-1.2973398016,2.1566735252,-0.8851066727,-6.526825759,0.6140628269,-6.2609619406,0.3121522756,-0.7069419247,-0.7247839252,0.0512975711,-0.5425874615,0.3207004621,0.6088675667,-4.0979081981,-14.6579604962,-1.9312701231,-2.0642768621,-0.0396446163,-1.2471873122,-1.5630850712,-6.2115900564,-0.3410946348,-2.118967319,-1.3866100985,-1.1932569447,-0.0268336391,-2.6271348363,-3.8328495641,0.6826626932,0.9201645826,-1.8525795838,-1.0444652161,-4.227056826,-0.5288242804,-1.2046340354,-5.8324180607,-0.2790945058,-4.5029797908,-1.720770031,-1.7412533382,-1.0436474675,-19.4969372338,-1.2754795065,-0.305756481,-4.601467091,-0.7520690687,0.2265661544,-6.0262063841,2.3697068502,0.1442713241,-16.3715106924,0.8893783811,-6.7995057713,-5.0178154472,-0.9642818657,-3.5868826864,-8.9729988126,-0.7605401345,-2.3893414071,-6.1765991864,-0.6604270299,-2.8175610543,-0.5236129311,-1.2757339046,-2.7643056556,-1.9095619545,-0.3573975019,-1.6247810352,1.0309217478,-2.3905515081,-1.9384037163,-1.4748628082,0.3050351675,-0.2528346245,-3.8120097731,-7.0342366431,0.489309544,1.4186025709,-1.6823393506,-5.7438089263,-0.623046709,-16.8863010238,-7.1988289221,-1.0968073412,-0.5781165457,-19.0714648342,0.5632941337,0.6565285832,0.0649522174,0.2927441471,-1.3290906318,-2.2026414319,-0.2732294248,-0.3811874556,-7.0378205053,-0.9048784375,0.590678927,0.161826007,0.8700049507,-1.7739741467,-0.2697017975,-0.0759950104,-1.3256177155,1.1128227531,-2.6187623533,-1.2719729997,-1.2247244541,0.8153904852,-0.3565499549,0.8336766246,0.3652018721,0.3279297131,0.5274800177,-1.7030951422,0.1467226835,-1.0482420886,1.531946658,-0.0522810258,0.4925232389,-19.3858279183,-2.7842566276,-0.9969141913,1.2065195182,-2.9750780253,2.0491867822,-0.1594947579,-6.8359986132,-2.1097116793,-1.5945660092,-0.0125302839,-2.6542801007,-1.4016590154,-1.0036994972,0.4916219508,-0.8630394634,-0.5182061834,-18.3620975578,0.6572788625,-1.4618342562,1.0009782304,-0.4053226576,-1.3990876286,-13.2062577561,-1.4331894502,-1.795547869,-0.0646377462,-0.3047922924,-1.6907682958,-9.191884498,0.0340098666,-0.6320014975,-1.1301208545,-2.5995845445,0.1070360564,-3.6471976193,-1.9247804361,0.8636609962,-1.4806754467,-2.214599108,0.9954757078,0.5970676532,-0.6716517873,-6.1976421255,-11.2252701592,-1.0750335847,-5.6002894439,0.0437897177,0.0423521978,-0.3440466702,-18.8057197322,-0.3845724304,0.1323580258,0.9867415536,-1.6925166888,1.020568784,-2.4109432338,0.5951147602,0.4588279357,-18.1798177668,0.8758442794,0.2567674077,-5.4490257929,-0.1060485581,-5.0166165116,-13.7207154938,0.7390409089,1.2889903028,-5.8257558398,-1.7149959216,0.0891198677,1.9758405896,-1.0141448247,-1.8514310154,-0.4986149267,0.4228613326,-0.4254929893,0.4418123269,-2.6711971899,-0.8199683956,-0.7104210342,-0.874387224,-1.2070327766,-7.0242676781,-7.0219593033,2.2575814826,0.8115170866,-6.9636607147,-5.544231215,-0.3329774725,-6.8646836327,-7.5318811538,-1.898625273,-2.667174508,0.468551575,1.128454246,0.5837123727,0.0075189196,1.0261213794,-5.4232187349,0.8728889277,-1.2526046348,-0.0423097903,-6.9403272112,1.1711940267,-6.3629345834,1.0319733808,0.5816290108,-0.5201159486,0.595810867,0.8527409589,-1.8910736909,0.0967861201,-5.0384550214,-0.9902107339,-1.9274584793,-6.16025091,0.639876821,-0.3508815113,1.1611858004,0.3098333651,1.8141747701,0.7688237707,-0.4462211015,1.7334948232,-1.0007721832,-1.0065268077,-0.5492995461,-6.278051276,-2.8294229272,-4.3244066599,-0.6593075792,-2.8656081804,-6.725258552,-1.0363299864,-6.9345656179,-3.2899367861,0.6558970584,-1.3058145382,-2.5128559279,-0.0797222616,-2.1161082712,-7.0015040994,0.0962242791,-2.4718793094,-0.4769525303,1.2073308133,-0.5453103956,0.5615670779,-18.5929405517,1.2980616603,-3.3516440602,-0.8884614046,1.0046331581,1.0641887604,0.2195490298,-5.5318795408,1.6458435346,0.6837564057,-6.9246728649,-4.1734885167,-2.66000371,-5.6459874201,-5.4691933255,0.8231862962,0.1238156397,-0.2236176834,-2.2259043904,-5.8092199271,-3.4458562422,0.2564369683,0.3992048625,-7.2322505826,-5.2054300426,-0.4999804526,-0.6539885497,-0.7009046112,1.4041236209,0.2567810539,-2.7631530503,-2.0260048005,1.4187152467,-4.2147076128,-0.0382239888,-1.6309091817,-2.1509668715,-0.0387866263,-1.343775108,-1.0755946392,1.5452827682,-5.0505064419,0.2892448669,-5.5503043748,0.5549363701,-0.2357445394,1.321279495,-17.9337659901,-1.2815759539,-19.0572242815,2.7879632474,0.2329350289,1.4617543908,-6.304138078,-3.5034552975,-0.4634425425,0.1807211542,0.85139324,-1.1351124981,0.0449154115,-6.0461418381,-0.1121242846,-5.7545480307,-5.9200630248,-6.2883997587,0.6182970246,-1.9051695404,-2.7120733811,0.8793274333,-4.7839303824,-8.6629983032,-19.3293693788,-2.3130055011,0.4803280775,0.8512022492,0.0704886318,1.1565756468,-5.6046178491,-5.1454809348,-0.2568041668,-2.187679816,0.3277122403,0.871988256,1.2591080408,-2.7894863757,0.5023860102,0.022519361,-0.5120075007,0.0777083582,-18.5800350752,-3.0668627661,-18.5915921328,-5.2564144873,-6.2095038785,-3.0292239912,-5.9071622901,1.2061134248,0.9882562809,0.4354256986,1.3056782661,-1.5295005236,-6.3578959803,0.6201172982,1.8278718483,-5.7038243697,0.3356576432,0.3815689703,-6.3252437758,0.0149356849,-2.7546149971,-17.8257054604,-0.3455420482,-0.9301701457,2.5871803292,-17.9734033465,-2.1595142027,1.412352871,-18.949932819,-5.6864809439,-0.0847654535,-1.2139608357,-19.0107443074,-0.3032941433,-17.8746381925,-0.241548728,-0.30060136,-4.3076043225,-0.1292277757,-5.8765790763,-5.620797133,-2.8075624074,-0.7746189192,-0.6355256613,1.3248377103,0.6643252369,-2.3472858056,0.0193808373,0.6951938122,-6.449663795,-3.3258084455,-19.1312404315,-1.8904318604,-6.013764298,0.089171155,-2.437414252,0.1835501955,-0.5008870329,-6.3642266519,-2.7618516668,0.9427917876,-0.0456518588,-17.7410522861,-6.2965440733,2.6632174503,-1.5990946706,-1.3141926718,1.3940512399,-0.809176855,-1.8501560268,-5.984236515,1.1709206262,-1.358851475,-2.854760398,-2.9701174829,-1.9876512196,0.6797188115,0.3688938281,2.2111309066,0.8534138687,-2.3931561111,0.2542187029,-2.0313313122,-0.233921467,-0.061697286,-6.5351652111,-19.3341899563,-1.0824557686,-6.0697721537,-17.983014943,-0.168824714,0.278024837,-2.7812918681,-2.5632119671,0.1650131373,1.0332018354,-0.1045972715,-0.5873804088,-0.0340003155,-5.2000035069,-0.4251889721,-6.5977034646,-19.1130396652,-18.5946940483,1.6406803885,-5.4674714154,-19.6443611295,-6.2699556329,-0.0052732982,-1.0131644321,0.0554313566,-0.476867007,-19.4574568891,0.6118839631,-2.3557927234,0.0512574707,1.2939021742,-1.0406902411,-19.3995619349,0.5853984396,-2.5737676507,0.2099018591,-2.6576623905,-1.5890937201,0.7827708812,0.0247195103,1.2202221549,-0.3867070438,-0.3771794173,-2.3674464928,-5.679847735,0.3320045734,0.504164871,-0.6874743432,0.1994493324,-0.2595711436,-2.9945046288,1.0453795733,0.329236053,0.7083527246,0.0225891006,0.096108213,-0.2861317981,-0.3298808736,-1.1703927097,0.5962996989,0.7864565404,-1.4424201601,-2.7245011162,-0.2452471157,-2.6688338778,-1.2497379198,-2.2320380902,0.3831346155,-4.0137126429,0.4407269196,1.1120922742,0.5155470594,-0.4885642391,1.0312678078,-1.0575561852,-0.123771875,-10.2974146812,0.6356460068,-1.8106780114,-2.169674674,1.3619076344,-19.0587938914,-1.032371469,-0.6507635653,-1.4667641339,-3.1435439039,0.4402034128,0.4651075126,-1.6831959402,-1.0808311901,-0.360075567,-0.249494103,-2.9380444958,0.7548153264,0.5242772429,-1.6050909227,-0.0998401069,0.6831600132,-2.5386743924,-2.8773230159,-1.2494936806,0.6088748577,0.4029518252,0.4051308889,-18.4775756613,-1.989769633,0.4547955991,-1.2125910165,0.1020827408,0.2093078124,-18.2399367716,-1.8243914314,0.2575002603,-0.9627432233,-0.406451431,-0.0808386958,-0.0351593971,-1.4576549775,-1.3545236325,-18.6210613484,-2.4921211163,0.97286926,-4.2081452566,0.3286300418,1.1419069768,-1.0147247555,-0.6598736705,0.1573524303,-18.9142406387,0.8001888409,0.2147561325,0.148115377,-0.1280249825,-6.4589413364,-2.793265068,0.8078212979,-0.9421997779,-0.0429620555,0.3475217601,1.1345580168,0.747658919,-1.798773132,-1.2425624611,-16.5151370019,0.9467277468,1.0988911836,-0.1744542904,-4.9671954874,-5.3961986232,0.0996049835,-1.6597400243,-3.109125834,-2.0832874474,-18.9594986582,-18.44650701,0.6980906951,0.2638494081,0.5003443083,-6.5198674393,1.3615276742,-5.8133050222,-2.9402887296,0.3012285089,0.2793701051,-2.2641153869,-2.0305470606,0.1783710799,-1.9668087745,-0.5485319435,-3.0403523911,-18.8762058317,-2.0441762564,-5.4965254847,-6.8235376647,-0.5601874174,-1.7815686696,1.3261833257,0.744645617,-6.1957987076,0.0898090465,1.3898262627,1.445685544,-6.4258059663,-2.488408889,0.6546722218,1.1579288926,-0.4836713382,-1.8794429317,0.7649943943,-6.0729510894,-6.6417977359,-18.3530959151,-0.9741179864,1.2157928567,-2.1901566137,-1.0077828323,-1.4437733834,1.2051132233,-6.5417151962,1.173067407,-0.2698562314,-5.3115473894,-5.9361166962,0.721132581,-1.7633667066,-0.3563444451,-0.2878453272,-4.3625020493,1.1128623289,-18.2031272708,-4.127413728,-6.7042399881,-0.1067853668,-7.1284154284,0.6783130681,0.5984239208,-1.2269559264,-1.3080778028,-0.6282269739,-5.5809700925,-2.9970631996,0.3557250264,-0.800922617,-13.6803937669,-2.7844689472,-1.8105816702,0.3011781682,-6.3770162408,-5.9452656925,1.2869029745,-7.0261465038,-2.5996268535,-19.3429244578,-1.3629207124,-5.2060875562,-2.829738583,-0.4360025994,-0.2361462403,0.0618240686,-2.1727985534,-7.3129852155,-3.9480635331,-1.8005593305,-0.551033456,-6.4044623814,-5.7396843413,0.7225855317,-18.6776926916,-6.3075884362,1.5014310362,-1.5036043261,-0.7989135602,-1.77122157,-5.0891737369,-1.2088954446,1.1073584216,-18.3810418683,-6.0525880425,0.0059634188,-6.7680619832,1.1884165401,-18.315800911,-5.5329117767,0.348372312,-0.4601278173,0.1801433556,-6.3908661908,-2.6915881325,-1.7285140869,-5.4698856666,-1.597910666,0.3819917205,-7.279361076,-19.2840404875,1.6227044085,-1.929903815,-1.5450309603,-19.1721984454,0.5566281673,-3.8971279057,-3.3942064112,-1.2215163163,-18.3355014464,0.2517329894,-6.5355961015,-0.1611233418,-2.0486792887,-6.8950346551,-16.5558606257,0.076971772,-7.0736321809,1.1935876849,-0.5343961103,0.7313879365,-0.6361200674,0.2701825264,-0.2556691598,-6.1399759791,-17.7617169197,-5.428971023,-19.3136329303,1.738958547,1.2824950138,-5.1074467689,-0.3738660289,-0.7687203752,-1.4141595348,0.6399545373,-5.7112261469,-5.9194762998,0.8691432009,-0.3151265228,-5.2944578162,0.0498241529,0.4039532299,-1.7101835776,0.6780642471,-18.1148196001,-2.8127705305,1.2281130679,0.4408382708,-1.6025297126,-5.6850619931,1.0254630924,-3.2762835298,-17.9856797457,-0.5577961782,1.0677245543,-0.0388726339,0.7940797685,-4.8899771418,0.5584973308,-9.3131297767,0.3899293262,-2.7992000728,-4.195587062,-3.6505164504,-17.9903414535,-3.9865600523,-0.9206936106,-1.052347672,-6.3763041824,0.7585555738,-1.5104103695,-5.297221738,0.2526804367,-0.0314983594,-7.0146565498,-0.9388333125,0.3495028366,1.3498641394,-5.0124800139,-8.6375783724,-7.0484696793,-1.5055333918,-5.5673544865,-6.5298687625,-0.521842644,-7.3516169216,-0.730981204,-18.6658439991,-7.0729686005,0.4206981868,-1.2621628383,1.1306261666,-1.7934955637,-19.1907207881,-2.8118489677,0.3054456125,-1.0111812769,-3.999196139,-19.1997183379,-6.3829579299,-1.6690058051,-0.4499063501,-19.435120027,-6.6254153314,1.0318463179,-5.2736924031,2.3092567334,0.7174754068,-5.3112244812,-1.9610273974,-2.6759026767,-6.489787769,0.4450113151,-4.0251012906,-5.4879072668,-0.3581109609,-18.9079524866,-5.6777949308,2.560517058,-1.3456381388,0.4621535342,1.8307067796,0.7695690853,1.0487671879,-5.5485302105,-1.0223696229,-5.3511072197,0.4047895921,-5.5476442134,0.2027672881,-2.9967793526,-5.6737224766,-3.0076176532,-10.5538303229,-4.106745897,-18.2072143737,-1.4893318403,-18.8324497926,0.9498540903,0.2542702268,0.3773531554,-0.3408037252,-2.5445073818,-2.861277027,-0.7094212151,-0.3730664749,-0.1085195936,0.2435680755,-0.0420205137,-1.4495869521,-0.9163811175,0.2608953868,1.2564982286,-7.7042849357,-1.3484844897,0.7932390361,-5.5728793314,-0.3840608725,-1.2001338007,-0.3214724472,0.4706561053,0.6275360178,-6.4130062316,0.6075432093,0.4234422414,-1.4434844876,-1.061030416,-1.1540925491,-0.5010327704,0.4351154482,1.6808850087,-19.5547204546,-1.8381526097,0.0300327305,-0.0175115654,-1.9634525008,-0.671076082,-1.8938752635,-5.9933599208,-2.1083097906,-1.6539076549,-0.0530556173,-5.470973331,-2.8476257682,-0.1820431035,1.1375257423,0.3805312243,-15.4642254674,-18.8981999061,0.533384964,0.2302387768,1.6585727486,0.296680106,-1.6055723236,-14.8280789464,-1.7848761235,-0.2400635835,-0.1060451284,-0.7154156254,-2.2147803559,-7.2747662843,-0.1895328615,0.7029778047,-2.9425248509,-1.3356412172,-2.7166832085,-2.7284187124,-0.7966251607,0.7032174619,0.3468198193,-1.6791483477,4.0061000837,-0.3130719921,-3.0774726242,0.8586221486,-17.7189428276,-5.6995693977,-6.5743033728,-1.3188414834,0.3268474483,-0.9469465924,-19.1293791803,-1.1975137102,1.7531821545,-0.2710908,-0.4070832647,2.4127989145,-6.4830993364,1.33117549,0.2326339409,-18.5452573185,0.5035769732,-6.2343492463,-0.9143409011,-0.5668280764,-3.2955921388,-10.5267253149,1.8119722184,-0.4954708629,-6.5207621089,-1.7306469262,0.3873873968,-0.6433793601,0.395031793,0.1590234368,-2.2272751372,-0.1570119775,0.2343913799,-0.6952246137,-1.5886086514,0.259209174,0.2480563566,-1.4473695848,-0.6809892979,-4.2356819141,-7.3971242418,-0.528056426,0.0858504575,-3.1657948783,-4.7144182015,-7.0064314335,-8.569814418,-5.2040884184,-19.299222855,-15.1209388939,-18.0376520605,-0.665023591,2.5054684273,1.1645370068,0.3475177568,-0.1557922654,-6.3802888594,-0.5433885031,2.4547170267,-5.7405181834,-0.7951050259,-1.5345780135,0.7497564585,-0.2990014295,-7.2585481564,-0.7914566466,-0.4375443244,-1.6789626973,-19.2903075623,-0.5497341711,0.3249878426,-7.731363266,-6.2729959742,-1.2684640337,1.4237181063,-0.0450014125,-6.1250804809,0.529056934,-0.0667013722,-1.9587959339,-3.8967712715,0.1924779632,-0.3737513131,0.2994808249,-19.2642110526,-1.7280408629,-7.1017872243,-5.995300034,-18.8685982016,-7.1546063283,-2.8424108202,-17.8473741842,-3.0828273639,-1.4146319818,0.3364501335,-6.2786506898,-6.1137558916,3.2141549143,-6.4852172208,-0.2564783223,-0.1142992805,-2.9408988226,0.8141710433,-1.3897336409,0.765988757,-18.8746410051,-1.2280756075,-17.7817059474,-2.1416432713,-6.1619415837,-0.2010151119,-0.5225706663,-6.0473194229,-6.3559124672,0.370376509,-0.5934273626,-1.4238114947,0.6827157165,-1.5923838619,1.0089734171,-13.1325642333,1.5840115521,0.0921537105,-4.6835023105,-5.593379903,-4.4380221767,0.1429479744,-0.8597328314,-18.5735401023,-5.7827816989,-4.0251353948,0.0804421638,-0.3072552967,0.712970765,-18.3936496088,-2.8090573449,1.394232623,-4.132298064,-3.8910969216,1.5827683206,-5.4450237493,0.1358706909,-1.0171511789,-18.5370653751,-0.2337123243,-5.4908445411,-4.1429464256,-0.6589998179,-1.2266838978,-10.9518544737,1.0618631794,1.7586704945,-6.4172865566,-0.9803329768,-1.1217136676,-1.2930087701,1.5479451728,-18.9640635127,-0.5721988625,0.7028066817,-0.8331674023,-0.8186409643,-1.6957788805,-1.640914923,0.2719048258,-1.2389096685,-0.1410611109,-1.3796902471,-5.7258026331,-0.7533014528,-0.0699950274,-3.5063122444,-14.769766797,-0.4904121562,-6.3389705759,-6.9738912149,-5.4007558859,-2.4795353351,-12.5351596495,0.0959887537,-0.1084400125,-0.3990507192,2.0865024275,-0.0561761637,-2.3036147196,0.8501049905,0.8528420428,-4.3912262853,-5.2788283714,-0.2154545474,-2.6371762402,-0.0846059039,-1.4925768284,0.9349965789,0.8763005395,1.4120215325,-1.8251816279,-0.377122618,-2.5349805666,-1.7720979086,0.2323950098,-0.773502141,-0.0827342519,-0.16737866,0.7026978795,2.4055106066,-0.2995990304,-0.4904883015,-0.5982590505,-0.0942198125,0.0836534885,-2.1165715235,-16.2614391218,-1.8766493424,1.1305418641,-2.0394980303,-2.5387639082,-0.3878217822,1.152019054,-0.8471133411,-0.6204941609,0.3370871984,1.7680531796,-2.3880575087,-1.467770531,1.133557994,-1.0243382131,-1.3770855225,-2.1775041679,-5.4094423551,0.3091176513,-1.3960538461,0.7012569479,-1.8820516896,-1.8379940922,-10.1532886969,-0.8156897541,-1.816337405,3.41581874,-0.2031347884,-1.732308124,-8.8930660792,0.2939769111,-0.7516146693,-1.2118378078,-0.528699561,-2.3580435304,-2.9099227738,-2.7107544395,0.0924300136,-0.4521370257,-2.3200625457,0.8771277895,-1.3526644896,-1.4432673312,-0.2513478317,-12.5229218765,-2.2746226292,-15.6442769671,-1.6626314405,0.0217245096,-0.3094898162,-16.267745267,0.4403755675,-0.2903678847,0.649195116,-1.3084304533,1.8183960119,-1.2967960993,-0.4551145335,0.4953188441,-11.7044966493,-1.7768275811,0.4183000638,-4.9602400446,-2.626032772,-3.7641253931,-10.1009348179,-0.2679545527,0.491809799,-4.3705281244,-2.0285688723,-1.4838159136,1.416513367,3.7073395235,0.4453709623,-0.6682788371,0.3338786957,0.1929895933,0.6347705144,-2.1756289951,-1.0335869041,-0.0146372354,3.1779148248,-0.9912033846,-15.3668314271,-5.2885091085,0.2863629441,1.7748421479,-4.1556418638,-2.7792659256,-1.7543194892,-3.2728635646,-6.0919689381,-18.1307073444,0.2388282887,0.4729062359,0.1082683637,-0.7273514321,-0.6497451787,-1.0344117548,-2.0997507324,-1.5694670168,-0.5645841833,-1.4840203498,-17.7921542634,-2.975733865,-2.6110201297,1.3003548598,0.6298352696,-1.1708257254,-1.6060376614,-19.2120433703,-3.6563530563,-19.6117510221,-1.7306646354,0.6138528957,-0.3478416126,-2.9311539108,-1.0607444127,-0.2870682679,0.4932522061,-0.2057257414,-2.5534099038,-17.7812176644,0.6139733258,-1.4284973577,0.3946071107,0.1976566363,0.7901578425,-7.2685497505,-1.4637127945,0.2537555295,-18.0829034206,-2.8926089998,1.0090599428,0.0425037895,-19.1297471749,-1.8446072187,-0.1991331091,-19.3955324952,-0.8531122022,0.7823802163,7.4366637087,-5.4168439927,1.3354575343,-17.6007214798,-7.6978933519,0.5906873139,0.2895140271,0.3844184008,-18.9773477016,-2.1061914782,-18.8231371084,0.4574283972,-0.4035457297,1.253427056,3.0209973332,-17.9489226975,-0.8863833986,-1.3838523981,-2.958489037,-3.3913619541,-5.7709826638,-0.3954764728,-6.0750351284,-2.3690693691,-0.1090217057,0.7566716953,-1.1362702927,-1.9648490023,-3.6611371345,0.8555875331,1.3023985254,-18.9022617079,-2.6091838019,-0.9830677663,-1.5844379597,-1.8618285473,0.4849339495,0.1427558823,-2.0444784168,-2.8671006005,-1.7827583221,-1.4387549927,-6.5443288988,0.4220827412,-0.1126720344,0.043456336,-6.4665419885,0.4352681417,1.3139778954,-4.9865625507,0.4329801899,-1.041373744,-13.7446571387,1.3503116426,-6.4634063527,-18.8674438264,-0.1885705189,-17.9670486054,-6.584798733,0.2751640932,-1.0863189915,-6.4571854116,0.718467939,-1.2807317648,-0.8710449583,-0.0758680616,-0.3451516691,0.781328043,-1.9821667338,0.1988204212,-6.4469681867,-6.1670175635,-6.3168356126,0.064964064,3.1465613917,-6.7987207115,1.303798314,-3.8802842645,0.5449299387,0.5373225738,-0.6228824281,-18.3049380317,-0.0967982589,-0.4429219457,0.5808786886,-2.4223507314,1.056580026,-7.1141908338,-1.575918142,-0.1750207384,-5.6934869118,-0.7627471441,-1.8780474578,0.4497559828,-0.4668552132,-0.4967533191,-0.5087957779,-16.2182492848,-6.3335493056,-3.1045230587,-2.82338577,0.1429139071,-0.7981368431,-7.0028218295,-0.4904057436,-1.4454369584,-6.522638669,-0.2269742452,1.061556981,-1.2853749733,0.952990641,-2.6597671633,0.3005568086,-0.3806531298,-2.4037962655,-4.6358634397,2.0584112974,-6.9021733557,-0.5834239129,-0.2755471546,-2.9401974072,-2.8076538594,-19.4578336108,-2.5314741006,-1.814940364,-7.357980688,0.2786470645,-1.026389335,1.2167044322,-1.4465368585,-1.3191242333,-19.0306667732,0.1178070062,2.2310475176,-0.8723236201,-1.6656839866,-18.8616448585,0.6945901729,-13.1356231849,-0.669070991,-6.0480339283,1.2613277665,0.6079590821,-2.1862475019,-1.4904076,0.7703271165,-2.6587273313,-1.9597072988,0.2013747374,-1.8129001903,-2.3904950748,0.5493035979,-7.1196754612,-1.2601480253,-0.7608528172,-7.2130317792,-3.0687377245,0.5412506091,0.9876264444,-5.2672345709,-7.0625287996,-1.9442779137,-0.6113907189,-0.0369072724,-0.6980068659,-19.054510857,-1.3373016981,1.2748920637,-5.4012768173,-5.4986158246,0.5680176097,-6.9774288657,-19.4045262904,-0.1955263882,-7.2506513815,0.067998746,-6.0535924909,-2.6588015639,0.0267195702,-0.4008354609,0.9985667474,0.0122993451,1.5543420327,-1.2466488665,-1.5606430313,-18.562321772,-6.6444952535,0.243349577,-1.6913612398,-7.2144904259,0.140419869,-0.9125063184,0.2091074942,-1.798425901,-0.3049623129,-2.5592917255,-6.8678633342,-0.495858992,-0.2115475955,-6.7128235308,-5.9958751238,0.0023173912,-2.0956130712,-5.7869496646,1.2758367839,-7.1922378666,-1.0967080206,-18.1925866776,-0.239941905,-0.6484450932,0.7128814902,-1.0133278674,-0.2209984789,1.4222653629,0.7277627906,-0.9848386451,0.1963714517,0.1893732978,-7.0370426346,-3.6376778611,3.4947685107,1.3692388793,0.8666139933,0.9940632346,-2.129751511,1.25409514,-2.0303594496,-0.5893779292,-1.6422408783,1.6158023025,-1.492873526,-5.2719616566,-1.1042247173,0.2754405537,0.9333817295,-0.9486740213,-0.5740843457,-0.9472393065,0.2601753817,-1.7953693263,1.8147255553,0.1503463654,0.3386791297,-19.2439936831,-1.5143344969,0.9826653363,-0.0729228338,0.3964524431,1.3900725938,0.7648643165,-5.7428152236,-3.8068120506,1.0917297778,-1.9069520829,0.2910522356,0.7747060038,-1.6890523586,-2.9378051154,0.7338864984,-7.3557687872,-0.3938069687,0.2187670875,-0.63638468,0.096015293,1.1490948185,-5.6930367286,-6.8582409113,0.1571241372,4.2900649932,0.6488641626,0.7364353681,-6.9439810033,-0.242576453,-3.0473615277,-1.7009629577,-0.2882240629,-1.1540519817,-0.2125011855,0.1116673708,1.8539697449,-0.3079837416,0.0758061663,-4.8178880946,1.5186002278,-5.510038577,-1.625216775,-0.9258817468,-19.53692439,-5.506709104,0.84733438,-4.6824093553,-2.0390192868,-0.1522850813,0.7866112134,-1.9923968182,-5.9028491284,-2.4068551409,-2.9307867254,2.3587718157,-1.2079494249,0.1714506638,-0.8882625171,-0.7378631712,1.8782597547,0.8068993129,-0.8260796262,0.2211269482,-5.5645450646,0.31734058,0.4920618641,0.447773132,-6.8320015846,0.8977394113,-0.6572055415,-2.6076271774,-0.6768404301,-0.644367888,1.4572843556,-0.9791180009,-0.3300318519,0.4089374224,1.424794133,-1.630206097,-0.6822811923,-1.9636846139,0.3581970859,-5.4948123094,-5.5922471575,-0.9058951554,-0.3887736249,0.3934006689,-0.6525425589,0.3211296837,0.3968429257,-0.0478246095,0.1251935877,0.6174609124,0.0067180229,-0.6158885621,-0.8500586073,0.6722025573,-0.8320738272,-1.0311133244,-6.8513010517,-7.2409813926,-0.2662421714,-5.0376552117,-5.8684533038,1.1174079739,-0.1428987328,1.0730097491,0.5093575669,-1.775403241,0.5420345777,0.0134028042,-0.1685749595,-1.7653469257,0.1891650179,0.6002007775,0.68330028,0.0794889225,-0.0370736864,-0.3086722332,-6.4720361182,0.8882482248,-6.473965255,-1.3283771799,0.8542293364,-1.1972745292,-1.0772430135,1.1009382805,0.3263775635,-0.0773585538,1.1957760245,-0.6298452082,-0.5887738067,-2.4816089843,0.8292397912,-0.3697064061,-5.7680021401,-0.0966360994,0.0920745584,0.4837121173,0.5171821342,-1.4049984973,-1.4230899435,-0.1696210887,0.8241275743,-1.0260600512,1.0587683574,1.4842152917,0.7681011836,-0.10026679,0.2808616224,-0.1622981315,-0.939895056,-0.8910694517,0.7922546832,-0.5196403367,-1.1411086302,-0.3302950203,-1.7237551956,-1.3212705448,-1.9876650575,0.6868210873,0.8109506541,-2.6827132489,0.9801046883,-1.0576149538,1.3334694112,-0.3732963546,-0.7492998086,-2.6841898049,0.4218960271,-0.9035405104,0.2348149501,-1.7230685204,1.4193113496,-0.0795202828,-1.9184578077,0.7154235003,1.0050958351,-1.4287662457,1.1808516931,0.8143529118,-1.646630035,-1.0207591228,0.9843649251,-0.933097815,0.232169199,0.2312938739,0.0182989489,-0.7300663896,-1.7658847212,1.0872299322,-2.8148334296,-0.1541502497,-0.103268933,-0.6169474601,0.4670941518,1.4097652833,1.1192648217,-2.0688192314,-1.0183028205,0.5967311928,-1.3328540891,-0.4392293126,-1.832236613,0.1062875578,-1.2779082785,-3.3593701423,-0.427976749,-2.9429894973,0.0942958391,-0.375265863,1.0516865626,-2.3127628817,0.3189044894
   -1.784877825,-6.6554227504,-19.6626967585,-3.2379170829,-3.9980913305,-0.6908714498,-5.503168987,-19.2914025772,-0.5013908145,0.4890046506,0.8945952897,-5.3855633591,-2.1451682652,-6.2646554498,-0.2273422901,-0.5443129046,-6.7344272735,-1.0390744195,1.1881081848,-0.8649359975,-3.1100651821,-0.8293067342,-0.1862259223,-0.192824491,0.8166575961,-0.0201484529,-6.2845737531,-1.9505591699,-0.4020921705,1.2247328248,-0.26981731,1.0554554541,-2.3660225105,-6.3340529416,1.3732952889,0.2649536292,-1.2820354397,-5.3251227775,1.63780612,-0.111044319,0.9258529428,-19.320822077,-1.971128558,-1.0891571586,-0.4242089249,-6.5803334584,-0.5458313394,1.1404647388,-0.8035713666,-1.9058540407,2.567831167,-0.8777168311,0.2834192485,-2.4879203073,-6.1470311074,-5.5389371019,-0.0313295319,-5.4777375838,-6.998528462,1.0231505877,-2.9490021253,1.7807009065,-0.3800985716,-4.0749246139,-12.1663473019,-1.3067116468,-5.5931510559,0.9827017735,-1.2463961496,-5.6792756457,-2.7729257861,0.7947928541,-0.1460458257,-1.6156776086,-0.0952623271,-4.7177774489,2.8403579832,-5.2091620201,0.9025410879,1.4940155227,-5.0986378901,-6.3429672005,-4.6361123773,-6.4458639133,-0.2816032637,-19.6632896068,-6.4697374424,-3.6780601302,-0.6517869375,-0.9474626575,1.0689103211,-18.4280744977,-1.11619162,-3.1842302019,0.7455844561,-1.9779659724,-0.069952116,-5.8452817047,0.5046177555,-0.9832268387,-19.6085915647,-0.2037782671,-3.7910100536,-4.81691911,0.3640551364,-2.580292416,-12.485529874,1.0177860284,-1.8188297341,-5.8103232199,-0.2389329164,-0.8761219495,0.9615969004,-1.601565008,-0.2251196941,1.0033573712,-0.5221208309,0.0488453477,-1.0493235108,-5.0544658022,-0.3353844993,-0.2564887627,-0.5335591258,-0.7853369439,-4.2163220436,-5.8168945169,-0.812909451,0.6228166626,-3.5281693291,-5.7617459546,-6.093954701,-5.9559664022,-4.7824970875,-2.7185881035,-18.5372570759,-13.8287326158,-0.4300236967,0.6095720199,-0.2080918684,4.0377759211,1.5201383706,-6.358467233,0.2492664514,1.7949251942,-6.7194277887,0.0071093663,0.5534978167,-0.3959565083,0.0358876373,-6.9722407266,2.2017879028,-2.0828897568,-6.3687659066,-6.7463132975,-0.378081704,1.4911666217,-1.1839402967,1.7206159256,-0.9744666585,-2.9771238543,-6.973655987,-2.3120973072,1.3173742,-0.3765959116,-0.8559822441,-5.1045689065,2.4638538232,-1.5502005118,0.2129915888,-13.8138791806,-2.5014790397,-2.196061158,0.7193927385,-6.2847606315,0.4372769821,-6.0316144696,0.6538084326,-3.2925783027,-4.6208989219,0.0117211872,-0.3386692367,-5.4241311025,-2.1397401149,-5.991538398,-0.0328226234,-2.3339573882,-0.535738648,0.2433573293,-0.1824947744,0.6289082644,-0.1098828141,-3.3126175315,-13.0937849733,-2.3540122097,-6.3418830179,-1.2703851088,-0.1813611089,-6.5608135753,-0.2000871365,0.2273499752,1.3367000245,-2.5069884495,1.6715868192,-0.7221896081,-5.6809619931,-6.5781083441,1.2197146351,1.9197262752,-5.6181196852,1.5759251103,-2.3661920704,0.0475247442,-0.5299549404,-1.6602948056,-5.4204084269,-2.3619498446,-2.2662982053,-0.8368293915,-1.7152673372,-18.9392770526,-1.2956952212,-0.7377001975,0.9686196728,0.9968774805,-2.765696255,-4.9427380252,0.9402172441,-0.7149512219,-11.9342809134,0.2318360425,0.5895536045,-5.2647374231,-1.3141333439,-3.6285046411,-10.4094937423,-0.6766608557,1.379956327,-19.5541417856,-1.5344907129,-2.9161992746,0.944294442,0.4955863456,-6.4899320918,-1.1256643387,1.1494874965,-0.7252635407,-0.7855733792,-6.1895901395,-1.4961017208,-6.2495714411,-4.7381690344,-1.6838052673,-6.8548338261,-1.399493179,-1.0197908356,-0.0168757471,-2.1105702326,-6.6663269503,-18.1406358047,-12.5938192751,-5.5232548424,-2.1026077896,-14.9652592025,-18.9752727023,-0.5100660805,1.1398548189,-0.4511112456,1.6833331691,1.4890954114,-5.9940743331,0.3564844289,0.4028410763,-5.7678134344,0.1403093439,3.6351505254,-1.97945963,-1.5328048037,-6.1271766646,1.609927898,-7.2246092902,-1.6183141904,-6.4972919443,5.0070762191,0.7721670837,-0.4983193459,1.5696280921,-0.2509278603,-1.0904059773,-6.9909886531,-0.8300827115,0.9563067573,1.0296544291,0.3487881708,-4.3301607331,-0.3178405268,-0.7603016368,1.5300987414,-18.0138834461,-2.8268995273,-1.0300709563,0.070876775,-6.6977937994,-1.6683624447,-5.3361764029,-0.5720187909,-2.6958090459,0.3349924001,0.0695840966,-1.0546931521,-6.4515965041,-6.2365164935,-5.4391254491,0.7640793651,-5.9560480285,-0.109942942,-2.6781167344,-3.2272964773,0.3052120815,-0.008861224,-2.7841521702,-14.8614291817,-1.3053002434,-19.0117209001,-0.9149884576,-0.2557246904,-4.6594210771,-0.9284555965,-0.6311327878,4.2894178802,-1.1197817574,0.6353181597,-2.1658253401,-5.2385841821,-4.567508105,0.5772492042,0.1424582799,-5.5639789644,-5.6682564329,-3.3478624154,0.0168502083,-0.0969181903,-19.5372330444,-0.3950293515,-1.2654511479,0.096327152,-0.5092374286,0.3711737917,-18.8963610164,-1.4160499655,-0.3757228059,-2.2142708875,4.7559606045,-1.7091725384,-4.454155746,0.1104907874,0.0907831027,-16.8026820393,-1.7367052804,0.0991517321,-5.2813870131,0.679090708,-2.5338372871,-12.2140502507,-0.9112408197,1.8849300625,-17.8691283257,-2.8179456309,-2.8552486647,-0.5164597118,-0.7859537211,-1.839377605,-1.8208742971,0.2387879181,-1.5944465384,0.7000601184,-5.7219221948,-0.4011861117,-2.2119474353,-5.4056430629,-0.6772580704,-4.1495272319,-2.2444504094,0.678606796,1.1504979658,-1.8429467318,0.9775935403,0.2024357601,-6.0132450949,-0.5032089292,-19.4137213741,-7.2446416928,-0.2261158129,-0.6825978323,-1.2095794197,0.5501513005,-1.3948248332,-2.4887674624,-5.8835651977,0.4069151517,0.1400251823,-3.9643600441,-2.9590177067,2.0672738339,-0.0465613308,0.0677842162,-1.9130297025,-5.5641526699,0.3151825528,-1.1679348527,-1.653267305,-0.5350100276,-3.1279909844,0.4270995689,-2.7292196311,0.0674639185,0.723562953,-0.0903310459,-0.3577117578,0.0756018221,-0.1522108985,0.4615737592,-0.2387932236,-0.5726464941,-0.7942832401,1.4292343249,-0.1094143568,-19.0390711107,-1.1897792633,1.05814936,-0.4848934901,-7.2279354341,0.2037754728,-0.6482085477,0.5900452048,-0.7108485427,0.5921665264,-2.6548473488,0.6939586921,-0.5696907218,-6.3509456931,-1.1015581055,-0.7567745854,-6.6872747576,-0.5533470992,-0.9277945059,0.5470215408,-3.9924822398,-2.0755129002,1.3712103077,0.3909589019,-2.7920236776,-1.2980264351,0.9698520127,-1.1005656963,-2.0951494159,-1.6465964187,-2.6011244336,-1.0308599617,-1.9884451917,-2.545726577,-2.4992745124,-1.1452225338,-1.7992376189,0.0794887016,-2.1307999025,-1.2511365332,-4.3189711714,-6.7139251806,-0.3324267997,1.1925953593,1.0583121444,-0.5694813061,-2.9484467984,3.5336808847,0.251198172,-19.0876929093,-2.8399972083,-2.971798236,-4.7261876998,-0.7171973601,1.2943985308,-2.3364459114,-2.4428412813,0.909621724,-0.2404904375,1.8412156954,1.328327809,-5.1746799189,-1.6283192418,0.2660844203,-1.8244507591,0.7495174276,-0.3204137936,-1.814584462,-0.2825580887,0.3148370827,0.5521303231,-0.1590328479,-0.7747757131,-1.3706802672,-0.5331476917,-0.4574793838,-0.4218144203,-1.777830923,-2.9049110549,1.2920315308,-0.9251172956,-0.1206368356,-1.9140704257,1.1320437445,-0.6788746907,1.112548696,-2.8139220587,-0.5220918168,-0.0252289955,-4.1011342569,-0.9830228671,-1.0464865046,-0.1581604259,-19.3216150694,-19.6588549261,-0.201004704,-1.0320140984,-1.468183399,-1.7099338774,-6.7461466309,-7.3603434498,-1.2232583019,-2.4616742473,-0.8522220189,-6.6128742131,0.5796019256,1.188251903,0.7535885667,0.6224194241,-18.0386934066,-5.0490735023,0.6040070896,0.4465006619,0.569005175,-3.0432498615,0.9593648728,-1.9826628454,-2.1160091132,0.0145530576,-3.4209451772,-2.0563218078,-2.9208486696,0.1185413433,-6.2047669755,-3.1724740721,0.9519147493,-6.0619665442,-18.9215940936,-6.7038412711,-6.4774344629,-12.0577027773,-19.24111332,-6.5191985614,1.2192955745,-19.0342346513,-0.8256064419,0.9092695774,-5.2970926827,1.6323630968,-0.9773241703,1.5033178269,-6.0442040396,0.6434026126,-17.3328097022,-1.2012297021,-5.7732560592,7.7736808797,-1.4312876307,-0.4664762809,-2.3366415027,0.0657054981,-1.8612873749,0.689859449,0.619575241,-0.1337321818,0.9123181938,-9.0868164027,-0.6830628474,-5.7725787907,-3.6321751561,-2.6800873364,-0.4247453389,-2.0800858713,-0.4809316061,-0.526616681,-0.8038063739,-1.7644864035,-1.1463170953,-5.158498173,0.481376956,0.7330581118,-5.4642193714,-6.1359352221,-1.0929920277,-0.9450063625,-0.3573030427,-1.2220094573,-0.7831031928,-1.4808893859,0.0653933779,-5.2237604634,0.2532856223,-2.2637477327,0.370804341,-1.9144059972,-0.8568468315,2.7776894893,-2.344618177,1.6207075786,-2.5248753894,-6.4638866965,-0.132115952,-11.7525929943,-2.5285390743,-2.4912926951,1.597966239,-1.7666947506,-18.7239059804,0.4247377478,0.6016016455,-0.059873315,-6.0317196986,1.0637508221,-1.3181716427,-0.3018076847,0.5303246541,-1.5946058838,0.4310501994,-7.0180019585,1.0322141086,-5.9636520624,-4.008097045,-6.1078064951,-0.1781257384,-3.8558466029,-6.1340907893,-4.7297334402,-12.2943614377,-5.4581188414,-6.925622674,-18.4320325058,-17.8511301998,0.3902593274,-0.0361009378,0.3283362342,-0.6711304907,-2.7086774426,-3.0157148134,1.2465371985,-1.2738054989,-17.9033832544,-0.6903657407,0.3424017474,-0.8169784775,-0.5451697467,-1.3141778563,-2.1881208437,0.6291055955,0.7355710356,0.6154229322,-2.7653529095,0.8851265623,-0.7471379494,-0.3281767,-0.7461640816,-2.0579885227,-0.8616620197,-0.4850257587,1.490915291,0.6619449576,0.5128337873,-2.0274193945,0.7261271742,-0.3644364617,1.1552550691,-19.5742312576,-2.7103532788,-0.402072924,-0.2853584084,-2.9096271512,-0.0160840618,-1.701550004,-1.3179434401,-1.3438912486,1.1833112174,0.3896520139,-0.427755872,-1.1050819306,0.0439971751,-0.1921423731,-0.5337065728,-19.164105476,-18.4851922403,-0.4530880834,0.1032122862,1.00767887,-0.3891320222,-1.3794743849,-19.1288118297,0.6408871561,-1.1316846842,0.0574982185,-1.0309723641,-2.6935744126,-7.5327862418,-0.3226807128,-1.1795225831,-1.8414364912,-1.5221304514,0.2502072322,1.2871489726,-6.9634999202,0.5440648286,0.3547228704,-2.7161564845,-0.7638158026,-2.6528840836,-2.6794904691,1.415761012,-16.0546265629,0.1107650738,-5.7620924794,0.5660493739,-1.7884712202,0.8268508396,-18.929914067,-1.3636652256,-1.6624513747,-0.0275070559,-1.0788953428,-0.28235046,-0.9589835766,-0.6142063234,-0.8482468727,-14.660540772,-0.4377952191,1.0870219422,-4.638611045,-1.4355020673,-3.3052839505,-12.1832196554,1.4710875836,1.0175797762,-19.6203421074,-0.4987587833,-6.623824173,0.7786195769,-1.4541759157,1.2788213992,0.7642935285,0.3114032176,-0.0417821144,0.3333581507,-0.9681145341,-1.0719445223,0.8614899511,0.0376499639,-0.8287899064,-4.1785487577,-6.8246082696,-0.0326396315,0.4906435785,-2.4490182299,-5.909569625,-0.9204197793,-8.3626036115,-5.701435731,-19.5952854442,1.0246099977,-1.2730407024,1.1831211984,-5.964392464,0.1476195085,-0.3355257709,-1.4056169014,-1.0313697485,-17.8643351599,-6.5729280896,-0.2697080748,-2.9645455433,0.4385280222,0.9366989076,0.8683362401,-0.514416897,-19.4712397485,-18.760053383,-0.6450159176,-17.8391452774,-4.9807655211,0.7720420925,-0.5264575139,-5.534548901,-1.4431090558,-1.7459916577,1.3212249146,0.818024403,-5.8687038834,-18.8036328069,0.9495891695,-1.0546321421,0.9233062169,-0.6131912437,0.6089435855,-19.1926212559,-2.6870245498,-0.2277547367,-19.575713335,-3.2307074516,-1.3056090293,-5.5580322924,-18.0849293996,-1.3472131482,-0.5081195305,-19.4331000839,-0.8659984506,1.2416379156,-2.0101105532,-6.3827110932,0.9403789098,-15.8365040346,0.6415722496,0.0715965216,-2.3317847936,0.6048466314,-19.2848927601,-3.5054297905,-6.2051599649,-0.0082195624,0.2104057502,2.5371688654,0.8735517614,-2.4031457145,0.4287494793,-3.0598885136,-5.7773380557,-3.4866561063,-18.6819828641,-6.8819865258,-12.2453577547,-1.8412425819,-5.482152841,0.3218790306,-0.6626698286,-18.2479521884,-2.5628106851,-5.5267539176,1.2292961476,-18.0365850693,-5.9323486208,2.271891072,-0.0261604546,-1.3905146059,-0.4343125761,-0.8002450463,-2.2182711931,-6.36823311,-1.7609412582,-4.4447339273,0.882801063,-6.2808808847,-6.3957029483,-1.1210598781,-3.1793948211,0.0415991285,2.571805402,-5.4027665131,0.3093206469,-11.5842588025,-12.9508859301,0.7081997915,-18.8802865413,-18.1882366142,-5.3076456218,-19.2607710187,-18.9101061701,-0.7654213834,1.2061069516,-6.7996813144,-2.9070883721,0.0862500357,0.2080504179,1.2748347847,-0.6390353745,-0.1449363744,-5.0273335071,0.137588475,-15.5387005176,-18.3092553039,-6.2045531125,0.7154710846,-3.3894312412,-0.7086801852,-1.9937563938,0.5557995854,-3.6527668998,-6.593515687,-2.2520651883,-19.1211328496,-0.078309935,-1.2658566036,0.1625413439,-2.502657167,-6.5197912163,-6.2850815751,-1.3195952549,-6.534951947,-6.5155260801,-3.4022708701,-2.4578292714,0.8258624694,0.8498405975,-2.663827725,-6.323909729,-18.3461143151,-4.9825892597,-19.5999183279,7.3927282331,-1.224776246,-4.1769650304,-6.8872863706,0.2492971006,-6.4750405641,-6.0750819819,-1.0096661772,-6.7647087193,-6.2907108848,-1.1485490042,-4.5859249457,-2.4738666842,-0.8724686883,-2.4328026622,-12.529443759,-0.9658452735,-1.7654309943,-0.1250951214,1.7935539395,-1.6732328085,-6.9344471951,-19.6019463907,-1.8857447537,0.732752752,1.0152208875,-1.0425788271,-2.0317592322,0.512651633,-6.8871553348,-1.1057665205,-15.248212899,-18.0212378743,1.1042716523,-3.9600647977,1.0424443465,-18.6761031402,-3.3325384779,-0.3806710056,-1.1325184491,-7.3841028478,-0.8553538529,0.3481909651,-1.3601363303,-3.1846069287,-1.3807661941,-6.2080932778,-3.2598731745,2.6566233831,3.3389663214,-6.2478066614,-0.2311085168,-2.5539741895,-1.6437350003,-4.6180233397,0.1429448667,-5.640116035,-6.501295978,-6.5509566156,-19.4553884594,3.1016531648,-1.1987130261,-0.9352744357,-1.1325519715,-0.1139778209,-17.9476701624,-0.2871218406,-7.2641308383,-5.0859716127,-1.6156829191,-1.230237331,-1.7976371522,-2.3047064914,0.1398633439,-9.2224967205,-3.0806793359,-1.3224575904,-4.2158185761,-1.9643691019,-2.3928754755,-5.3435300375,-0.3725311029,-7.3966839193,0.9046789095,-0.0889143552,-3.4835797609,-7.1839929818,-2.5053386835,1.614222583,-2.7320349914,-0.2966931708,-0.8401472286,0.1125401194,0.9521737269,-0.5831753069,0.657966804,-1.8013328496,-0.7067969414,-5.6509526258,-4.1818670952,-5.5191551965,0.7623198967,-1.378121207,-1.0809286539,0.5383666629,-3.0129278744,-6.6747087667,1.2445925148,0.2417022098,-0.6186937933,-0.0031599211,0.6050809201,-0.5428057321,-1.2093072561,-2.1954857356,0.5150212663,1.4382790774,-2.4282989223,0.5994602539,-1.4298819351,1.9142167987,0.7926065322,0.7921491042,1.7353121072,-0.8883654487,-0.644665706,0.6790842558,0.3493191447,-1.7680605325,2.2299094424,-1.0339053243,-0.4169021208,0.865623803,1.811432311,2.1981095626,0.9568816066,0.0539973678,-5.872328056,0.5980582395,-0.6286758125,-0.4862854266,0.4863113477,-0.351761191,0.1414427369,-5.027583872,-0.4233782208,-6.8636584451,-0.3027323122,1.2278552069,-0.186994462,-6.992519103,-2.7528790936,-0.762458081,-6.8570881703,-1.620060859,0.8284904248,0.3817246444,-0.8356803908,-0.6451049126,-13.9131489807,0.7912652667,1.8254476897,-1.9987286273,-0.3662676291,-5.6526723442,-1.1975742539,-10.5005589737,0.191960316,-1.588640169,1.1235100612,0.2250804819,-5.6791318501,0.2726548861,-1.3813242248,-1.286041693,-0.7095316963,-2.9565738037,-1.95152279,0.2896866338,-2.7549682777,-1.4569551785,-1.2918654237,-1.7606524346,-1.6288232623,-3.5323406961,-1.451930589,1.2004843441,-4.3300166523,0.0095799661,-6.0695827067,-1.3717641587,-0.6912939808,0.6420307016,-7.1018956343,-1.345509495,-3.0224237858,-2.1733398617,-0.1112353907,-0.3287979473,-0.060032361,-0.8994115035,-0.565374536,-0.7395417163,-1.9780611866,1.2261756738,-6.0447726382,-0.1496480257,-1.1927109078,-12.027330056,1.417260998,-2.4892990352,-16.3461149138,-2.2670602453,-1.0982719677,0.4735491528,1.1170166767,3.4470838827,-5.7688640443,-2.8662649515,-0.2774072172,-0.5862035698,3.6792284653,-1.2510098822,-1.0438669388,1.1698440374,-0.3646262628,-1.351031536,-6.0143349326,-5.2673043004,0.0698372039,-1.4619748964,-5.165142678,-8.8471165978,-3.9374365781,-3.4227877203,0.0900479474,-1.9335418979,-18.3704587769,-0.3182559757,0.428075327,0.0964875153,-5.1619114044,0.7711191554,0.0992931145,-0.0980525412,0.1620174325,-5.6186349946,-0.875642707,1.7605801787,1.944054439,1.9397074597,-2.8778609444,-0.2443695354,1.1908556243,-0.5213735176,-0.8165521883,-5.1095046876,-0.0925608508,-0.7905108659,0.5436567431,0.2344666489,-6.2024705831,-0.6016275826,0.221789944,1.0961902774,-0.7436690399,-1.6413364672,-0.6761647681,0.3101633785,-0.9922281349,0.8160556047,-17.910479464,-1.4889291737,-2.8969707252,-0.0016097814,-1.0177513099,-6.5740756604,-1.3826448783,-0.2389144418,-3.6939082038,0.7071656841,0.3470689107,1.7208369081,1.15351269,0.9573069082,0.6115030628,0.6468914834,-15.8753001367,-0.4848824471,-0.4868267546,-0.4017393642,0.8830091128,0.9836934082,-2.6117644621,-15.8942866263,-1.696757963,-4.7666872191,-0.3450644824,0.170890654,-6.2507318295,-1.2301263308,-0.2917855567,-6.2027013913,-2.491041324,1.5054754783,1.3292730688,3.1957969458,-5.763340771,0.1141027845,2.8802553569,-5.0393985857,-6.5231539177,-5.6881292944,2.0241790102,-0.4823084462,-1.6900610453,-6.1772353843,-0.8144391676,-1.2973906161,-0.8250096541,0.5479899736,-18.4366279551,-0.375096,-0.0292234428,0.4281779814,-5.9712261833,0.4022961643,9.2166059655,-0.6548305693,0.073698593,-19.2433804301,-0.7562353494,1.5202315567,-4.8843938787,-1.2625898558,-3.9837282094,-12.1617621821,0.7681523393,1.2631398878,-0.2465676263,-0.4371424773,-1.2660291845,1.3346141454,-3.0759278983,0.5033594291,1.641070851,-0.7844594736,-0.3705270458,-0.2086200437,-6.5511706155,-0.948229767,0.2171835518,-0.6657531298,-1.6204131432,-5.021005133,-1.301122521,-2.1208175999,-0.1995789366,-6.3825094203,-5.7395674878,0.5302098893,-5.4038485241,-6.1990517846,-0.3913176082,-5.6957860065,-18.5575465278,1.1886755222,-1.5321841218,0.7684779979,3.2296715077,-2.313304804,-6.10048851,-1.0599627096,0.8821947374,-7.1848592448,-1.5907227736,-2.4455156721,0.1867136003,-0.1836194085,-3.2500297133,0.5625050018,-5.6571282032,1.786191854,-1.2401220643,-2.4337499939,0.1806587725,-0.5667511112,1.886662975,-1.3197403128,0.2599094607,-5.4012117551,0.6560994535,0.1587450693,-0.7728033887,0.0280439249,0.1734831138,1.5771804169,0.5669191696,1.3764541944,-19.4638380311,-5.6919329169,-7.0896836321,-0.2853960484,-1.5086206022,-6.5297331612,1.0033337618,0.743376927,-1.3045568922,-1.0103666967,0.6587243976,-1.0261826431,-2.9530032148,-2.6138440641,0.6954071231,1.4260434253,-17.9948043841,-19.212572359,0.8119999822,-0.7774440686,0.7143330642,-0.9085998579,-1.3148491586,-18.600155819,-0.499606621,-1.7751373945,3.0229567471,-0.8515071947,-1.6821021995,-7.7737488839,0.2716731364,0.3368512491,-2.2548107008,-1.2770816261,-0.7073322579,-6.1820181006,-18.9163272894,0.219179016,-1.0210214588,-2.0168400644,3.7883545575,-0.900914135,-0.1750003008,-0.2966124008,-0.7356407415,-0.9571777335,-6.320113815,-0.249763974,-0.532733134,0.3719724404,-18.2493642878,-2.6440090428,-0.4381051806,-2.3949356557,-1.0033955599,0.6519403345,-2.7632699153,-1.6102431455,-0.1494370468,-19.2729947745,2.167360734,0.7786357697,-5.7593226631,0.428897372,-5.6836271172,-12.6473220387,-2.5009149307,0.5843553639,-7.3984625659,-1.4139350227,-1.3430088612,-0.1606129094,-1.165081309,3.9250466201,-1.6680322198,-0.4853048104,-0.52994944,-0.5680520686,-0.9641096859,-0.6588576248,-0.2037593669,0.1876201433,-1.0802879342,-2.7042430655,-6.2788650751,-1.5264585042,0.7624522669,-3.5566722675,-5.2892425774,-6.1166538722,-11.5534204199,-5.8366960302,-0.1160930918,-18.5543892304,-17.9213624492,0.3735996448,0.4779011208,0.5749910384,-2.3182719894,-1.3267981534,-2.3711950164,1.2928387366,0.2746519611,-7.0999343208,-0.8073845821,2.2259301001,0.0596993184,0.3092222329,-0.2317323457,-1.3475080518,1.0351384601,-0.6711305767,-7.0633816045,0.9529290848,-1.1158409345,-0.5538487975,0.7476424245,0.9976621291,-0.2371902055,-0.3201119527,-6.5471445675,-0.5443538618,-0.4362117491,-0.1361127566,-0.8728847915,1.0635045793,0.2778004487,1.0663513873,-19.056405887,-1.3633595286,-2.8395176242,-0.6537911992,-2.8665750447,-2.0913143616,-0.869576967,-6.0214988532,-4.2550575496,2.975867391,-1.3877808714,0.6346216332,-0.5846977608,-1.5152422284,-1.5061846943,0.2746576572,-18.2987096974,0.9412099503,0.8784832137,-0.6912876139,0.4665949587,-19.5843376535,-0.893359365,-19.4513586556,-0.7109378584,-1.1955350666,-0.6633638054,-0.7673031172,-2.0901156231,-0.1956653179,-0.4374981051,-0.8956980342,-4.0696960383,0.90547504,0.2694834982,0.1274574278,0.0476339077,1.1914554585,1.2477733966,-0.9276694804,-1.8899420743,-1.6645481174,-1.7329923163,-0.9383496533,-19.286212383,-1.4661370807,-6.7933992339,-0.7601047813,-1.3673024954,0.4447382342,-6.0711959056,1.4241528948,-0.1536518406,0.4959025125,-2.0249546875,2.1049334912,-0.2603642099,-0.4319181717,-0.9375671298,-15.4329299474,-1.1623112554,0.1530656548,-5.7008135009,0.2759323482,-3.7665081872,-13.0745700027,0.565116724,0.0042966647,-3.8208262765,-0.1988981986,-0.0586629655,-2.451808228,0.2115965749,-6.7374629834,-1.6394145765,-0.4546222161,-1.263547768,-0.9545989265,-2.0278365285,-0.4197314978,-0.3231307415,-1.4967575924,-0.6254275891,-0.6673555013,-2.5439348762,-0.708167121,0.7912151697,-2.3383853598,-6.9215023563,-6.4303554508,-2.6438596745,-5.6446330263,0.570107827,-6.6041980397,-1.4793950274,1.3715367284,1.3540599631,0.4739901786,-1.8023514219,0.2864305611,0.607079059,-1.2022943915,-0.9703329235,-18.4135975989,-4.6817495939,-0.3677837197,-0.0812604468,0.8325438585,0.8765439323,-1.2552558953,0.9284234515,0.9441425351,0.4281929477,-1.10311065,-0.9845011391,-2.2493339634,-0.5472763898,-0.978889747,-2.5061572237,0.3023451903,-7.0187546629,-0.6819364454,0.9056086944,-0.5433911411,-1.4710749641,-0.4526014088,0.4061163328,1.2051451283,-19.5202016886,-3.2850324596,-0.3916021054,0.0020389288,0.9723355974,-2.8160584774,-0.9824547202,-0.1534081558,-4.8642813922,0.4320236902,-0.9086369997,-0.7839455684,-0.7752372531,-1.1366733138,-2.9322019004,0.8104354091,-13.7215275593,-0.0004213994,-1.9062888321,-0.1826782467,-0.824496209,-0.4470264207,-2.3069252048,-12.4771657387,-5.6777109739,-1.5403167462,-0.2084229146,0.716323557,-2.7238308926,-4.1725712973,-0.7092234838,-0.4725398543,-1.9601655608,-1.0053501905,0.8557933017,-1.043123615,-2.6507651746,-0.8165984418,1.7411110137,-1.3421833494,-2.5823009251,-3.755102366,0.1708078269,0.3253834647,-7.00227052,-1.4866225723,-5.9497652076,-0.8329598786,-2.579501338,1.0668306429,-18.6638162151,-1.7836872084,1.2839704139,-1.7811604293,-2.1206562166,-0.2784056412,-1.8504522526,-0.5925930252,-1.1501682062,-18.3718566456,0.6875621299,0.1220776454,-3.9523383937,0.296232921,-4.7271453816,-13.4997472821,0.9466326309,-1.3597493289,-19.3506342867,-1.2296383903,1.3039330009,0.8245251541,3.3751627323,-7.0830002051,0.3460982661,-1.8974316276,-1.1227170726,-0.3268567147,-1.1735225887,0.2880439906,-0.2469217015,1.7023524963,0.0443391121,-5.8329598957,-18.6207311965,1.6962638295,0.7114011262,-3.1541025001,-5.8859680341,-13.7285406831,-9.2725253916,-5.1105838001,-2.289972481,-3.7621700944,-18.8341775675,0.1767412983,1.7901544929,-0.1813266745,0.9784729951,-2.3694603457,-6.7755111624,0.3174076521,1.7649065067,-4.5034010562,0.284239159,0.0711313295,1.6832181772,-0.8986834787,-7.1154944603,0.550608509,-0.0072846504,-6.5399478643,-0.7282996993,-2.442646465,-1.5114689497,-0.9158295086,-6.7898794087,-0.8629327302,1.16792678,-6.0662438605,-18.86689424,-1.2416737317,-0.7766976297,-0.7706101409,-0.3908317149,0.3100566599,-0.5361194028,-0.5629922616,-18.0342501792,-2.6687921241,-2.5635932162,-2.0944368738,-6.9073853774,-6.7716105004,0.1420095729,-19.2657617456,-3.1782190822,-5.6777059998,0.3114677534,-7.1056407358,-18.0188877133,1.8647922583,-1.8652395194,1.2002729562,-17.9337375902,-18.6053682426,1.002113541,-1.3343417836,0.748748613,-0.6926891261,-3.1638644178,-15.6548020743,-3.4235746015,-5.7411956528,0.4340621303,-0.2474185091,-6.2952259585,-7.8539175842,0.5070495518,-0.8854184787,-1.1900513982,0.3717465103,-7.0408397702,1.4833781706,-10.8308899605,2.4216852287,-5.7566711531,-0.2555498045,-0.8458344725,-1.1140689232,-0.355206426,-2.2467345454,-19.0055685203,-5.1757628858,-3.9350205802,0.1758370987,-0.8781628667,0.3750641749,-18.0436533385,-2.3210646758,1.2085891637,-3.7574161568,-0.4136371453,1.5695191319,-4.6146363387,0.1625095758,0.1239536171,-19.2842653426,-2.7487114338,-2.0163405367,-6.0470514694,-1.5350951066,-2.3123002471,-9.56060317,0.2572506188,2.1617809572,-7.1220321128,0.0683272136,-1.2198877922,-2.3607519662,-0.3851532155,-0.6562470955,-0.0223579651,1.1154510037,-1.4608078884,-0.754216941,-4.6065550574,-1.73779696,0.218199806,-3.404628815,-0.7880952723,-1.0120750602,-6.7410978112,0.3842446365,0.2223422173,-6.072692542,-7.1509807536,-2.877702683,-6.4408517632,-8.6721000388,-18.769697958,-7.0402008271,-17.6755271948,0.8265506063,-0.1774427085,-0.1887037216,0.565194741,-2.3757646302,-7.0597335652,-0.3518109527,1.8596185993,-5.2691414062,-0.5795114495,-1.1242985641,1.2703356404,0.1628119638,-6.5445983657,0.4554882558,-0.5924150452,-1.3344706733,0.5586856365,-1.8913403556,-0.7379505398,-0.7525630384,-2.0597727948,-0.3864840917,-0.202342312,-1.3065633229,0.0895592484,-0.985191407,0.5114153424,0.1155304089,-2.0169705075,1.2921685064,-0.3347581026,0.5960225569,-18.6544410599,-6.7412719303,-6.5992872493,-0.3327925408,-1.2588043925,-6.1516957226,-2.2727774746,-1.0082535858,-2.3565748624,-2.060178608,0.3542768989,-1.7262330998,-2.982914283,1.3980203245,1.2534431728,0.2478209127,-3.2372255298,-17.9959762158,1.8349802038,-1.1642594948,0.278026482,0.3966134515,-0.8177927125,-15.76756263,-1.7169615239,-2.3339892858,2.0867235687,-0.0402399085,-1.0986683171,-8.9857196382,-0.7921895944,-2.017141413,-2.91508422,-1.3774862042,-0.7648991376,0.1859855922,-17.6683674113,-1.0087823421,-0.5057711211,-2.4711485969,-1.9914791323,0.3849371055,-0.2572463072,-0.482272305,-6.6980830507,-1.2192607234,-6.4789028377,-0.9896515332,-0.1373546947,-0.4160960842,-18.8720951597,-2.4354578913,0.1674055168,-4.0718126317,-0.8202701686,-0.7335743761,-1.9048700491,-1.0558131272,-0.115165163,-18.2188170678,-0.9251713109,-0.3314854536,-4.259213057,-0.8138362033,-3.2412809348,-12.6638028074,-0.7319234461,1.8751304112,-6.6882944088,-0.8198250137,-1.4251564285,-0.8079963691,0.3419003678,0.8360189951,-2.7239752138,0.1729645041,-1.4702408246,0.0285260721,-0.865190972,-1.6523174655,1.2821731562,1.2372106418,-1.0288241053,-1.3679249882,-5.8551193332,-1.5598384113,0.6088289033,-3.353196904,-6.3820017307,-6.6682121408,-9.0327516763,-5.3077353721,-0.7831733944,-1.0789815337,-18.6514411988,0.5251144367,-0.2445418354,0.3698205618,-2.0273760718,-5.6798787541,-1.5005489064,-1.0541892537,-1.0866483732,-6.7254076387,-1.3597525773,-5.806597839,-2.377539849,-2.2008133407,-0.0372042747,0.5120419924,-1.4681036588,-2.2264955027,2.2109548334,-5.1979370347,-2.4018852738,-0.6164867912,-6.8511585698,-0.5866611789,0.9927205746,-2.6711642537,-0.8251212241,-0.371439618,-2.0971059352,-1.4136032516,0.4421037687,0.2523478185,-0.7882566944,0.2768591535,-18.910062179,-2.4513998797,-0.729672128,-3.0060222144,-2.525759277,0.2161797724,-5.9015679309,-1.6123179374,-1.9947312069,-0.2433726535,0.5607003234,-7.0007454615,-7.1168633174,-1.9427486221,-5.5232613749,0.5433768706,-7.1248358965,-19.5078284386,1.1447410447,-2.3563988647,1.7286489042,-1.861085906,-1.820806789,-13.4023255467,-0.5925799976,-5.9832646241,-1.1479163402,-0.438251287,-5.6090431834,-6.1128147056,0.8722535888,5.2705665173,-2.2910825582,-2.4662606457,-1.9749779737,-0.8528801693,-2.5465238891,-1.1287280183,0.7239919131,-5.6865812016,1.9640688699,-2.7447065346,-6.8566762569,0.4988276366,-18.7740304769,-5.7366658869,-5.7484565468,-1.5501640935,-0.6149002436,-1.4459864187,-18.21811499,-1.570959904,0.3967806468,0.0608726306,-0.7923150161,1.5877938338,-5.9248339363,2.0163772283,-0.8323191475,-15.8319469813,0.0543223542,-5.7923530164,-4.4557888149,-1.7140664013,-2.3543309063,-11.8571505971,1.1263825859,-5.7311524391,-7.0802507292,-1.832320166,-0.1879307148,0.0893413287,-0.857024466,-2.0943375855,1.5766923568,0.9972339494,-1.4537110509,-0.7214304991,-6.0180939725,-0.7836176373,0.4683910386,-1.9287682,0.3654998027,-3.7297346247,-7.1274027597,0.6415217958,0.7807738622
